{"learner":{"attributes":{"scikit_learn":"{\"_estimator_type\": \"classifier\"}"},"feature_names":["sku_id","opening_stock","units_sold","units_received","units_returned","closing_stock","region","season","price","supplier_id","category","specs_level"],"feature_types":["int","int","int","int","int","int","int","int","int","int","int","int"],"gradient_booster":{"model":{"cats":{"enc":[],"feature_segments":[],"sorted_idx":[]},"gbtree_model_param":{"num_parallel_tree":"1","num_trees":"500"},"iteration_indptr":[0,5,10,15,20,25,30,35,40,45,50,55,60,65,70,75,80,85,90,95,100,105,110,115,120,125,130,135,140,145,150,155,160,165,170,175,180,185,190,195,200,205,210,215,220,225,230,235,240,245,250,255,260,265,270,275,280,285,290,295,300,305,310,315,320,325,330,335,340,345,350,355,360,365,370,375,380,385,390,395,400,405,410,415,420,425,430,435,440,445,450,455,460,465,470,475,480,485,490,495,500],"tree_info":[0,1,2,3,4,0,1,2,3,4,0,1,2,3,4,0,1,2,3,4,0,1,2,3,4,0,1,2,3,4,0,1,2,3,4,0,1,2,3,4,0,1,2,3,4,0,1,2,3,4,0,1,2,3,4,0,1,2,3,4,0,1,2,3,4,0,1,2,3,4,0,1,2,3,4,0,1,2,3,4,0,1,2,3,4,0,1,2,3,4,0,1,2,3,4,0,1,2,3,4,0,1,2,3,4,0,1,2,3,4,0,1,2,3,4,0,1,2,3,4,0,1,2,3,4,0,1,2,3,4,0,1,2,3,4,0,1,2,3,4,0,1,2,3,4,0,1,2,3,4,0,1,2,3,4,0,1,2,3,4,0,1,2,3,4,0,1,2,3,4,0,1,2,3,4,0,1,2,3,4,0,1,2,3,4,0,1,2,3,4,0,1,2,3,4,0,1,2,3,4,0,1,2,3,4,0,1,2,3,4,0,1,2,3,4,0,1,2,3,4,0,1,2,3,4,0,1,2,3,4,0,1,2,3,4,0,1,2,3,4,0,1,2,3,4,0,1,2,3,4,0,1,2,3,4,0,1,2,3,4,0,1,2,3,4,0,1,2,3,4,0,1,2,3,4,0,1,2,3,4,0,1,2,3,4,0,1,2,3,4,0,1,2,3,4,0,1,2,3,4,0,1,2,3,4,0,1,2,3,4,0,1,2,3,4,0,1,2,3,4,0,1,2,3,4,0,1,2,3,4,0,1,2,3,4,0,1,2,3,4,0,1,2,3,4,0,1,2,3,4,0,1,2,3,4,0,1,2,3,4,0,1,2,3,4,0,1,2,3,4,0,1,2,3,4,0,1,2,3,4,0,1,2,3,4,0,1,2,3,4,0,1,2,3,4,0,1,2,3,4,0,1,2,3,4,0,1,2,3,4,0,1,2,3,4,0,1,2,3,4,0,1,2,3,4,0,1,2,3,4,0,1,2,3,4,0,1,2,3,4,0,1,2,3,4,0,1,2,3,4,0,1,2,3,4,0,1,2,3,4,0,1,2,3,4,0,1,2,3,4,0,1,2,3,4,0,1,2,3,4,0,1,2,3,4,0,1,2,3,4,0,1,2,3,4,0,1,2,3,4],"trees":[{"base_weights":[-3.6194315E-6,-5.0217897E-1,2.2975948E0,-5.3020697E-2,2.1439372E-3,2.1439372E-3,2.96361E0,3.6164588E-1,1.03270285E-1],"categories":[],"categories_nodes":[],"categories_segments":[],"categories_sizes":[],"default_left":[0,0,0,0,0,0,0,0,0],"id":0,"left_children":[1,3,5,-1,-1,-1,7,-1,-1],"loss_changes":[4.8729145E1,5.200157E-1,1.1420052E1,0E0,0E0,0E0,3.6436234E0,0E0,0E0],"parents":[2147483647,0,0,1,1,2,2,6,6],"right_children":[2,4,6,-1,-1,-1,8,-1,-1],"split_conditions":[1.39E2,1.2E2,9.977E3,-5.3020697E-2,2.1439372E-3,2.1439372E-3,3E0,3.6164588E-1,1.03270285E-1],"split_indices":[2,2,8,0,0,0,7,0,0],"split_type":[0,0,0,0,0,0,0,0,0],"sum_hessian":[4.0233707E1,3.365855E1,6.5751586E0,3.1936483E1,1.7220653E0,1.7220653E0,4.853093E0,2.9744763E0,1.8786167E0],"tree_param":{"num_deleted":"0","num_feature":"12","num_nodes":"9","size_leaf_vector":"1"}},{"base_weights":[-8.178103E-6,-5.0149776E-2,5.5309194E-1],"categories":[],"categories_nodes":[],"categories_segments":[],"categories_sizes":[],"default_left":[0,0,0],"id":1,"left_children":[1,-1,-1],"loss_changes":[6.900902E1,0E0,0E0],"parents":[2147483647,0,0],"right_children":[2,-1,-1],"split_conditions":[1.3E1,-5.0149776E-2,5.5309194E-1],"split_indices":[4,0,0],"split_type":[0,0,0],"sum_hessian":[2.287973E1,2.1811417E1,1.0683143E0],"tree_param":{"num_deleted":"0","num_feature":"12","num_nodes":"3","size_leaf_vector":"1"}},{"base_weights":[7.7812465E-6,1.5532914E-1,-1.6339861E0,-1.2662661E0,3.0078247E-1,-6.569665E-2,-1.8053694E-1,3.3774327E-2,-1.5570452E0,-6.361284E-2,4.7225407E-1,-1.7853461E-1,-1.4447324E-2,1.3161193E-1,-4.811029E-1,-6.266897E-2,5.0664073E-1,-8.2579605E-2,3.0743573E-2,-1.0696081E-1,6.2013755E-4,5.202781E-2,1.2733701E-2],"categories":[],"categories_nodes":[],"categories_segments":[],"categories_sizes":[],"default_left":[0,0,0,0,0,0,0,0,0,0,0,0,0,0,0,0,0,0,0,0,0,0,0],"id":2,"left_children":[1,3,5,7,9,-1,-1,-1,11,13,15,-1,-1,17,19,-1,21,-1,-1,-1,-1,-1,-1],"loss_changes":[2.3852905E1,1.812778E1,1.8001175E-1,4.331051E0,4.945516E0,0E0,0E0,0E0,2.0267982E0,2.186862E0,2.3435326E0,0E0,0E0,3.3744807E0,2.4489474E0,0E0,2.055254E-1,0E0,0E0,0E0,0E0,0E0,0E0],"parents":[2147483647,0,0,1,1,2,2,3,3,4,4,8,8,9,9,10,10,13,13,14,14,16,16],"right_children":[2,4,6,8,10,-1,-1,-1,12,14,16,-1,-1,18,20,-1,22,-1,-1,-1,-1,-1,-1],"split_conditions":[5E0,1.82E2,9.911E3,1.64E2,2.36E2,-6.569665E-2,-1.8053694E-1,3.3774327E-2,2.4E2,9.7E1,9.29E3,-1.7853461E-1,-1.4447324E-2,3.9E1,2E0,-6.266897E-2,1.91092E5,-8.2579605E-2,3.0743573E-2,-1.0696081E-1,6.2013755E-4,5.202781E-2,1.2733701E-2],"split_indices":[4,5,8,1,5,0,0,0,2,2,8,0,0,2,7,0,8,0,0,0,0,0,0],"split_type":[0,0,0,0,0,0,0,0,0,0,0,0,0,0,0,0,0,0,0,0,0,0,0],"sum_hessian":[9.198521E1,8.482683E1,7.158382E0,7.158382E0,7.766844E1,1.7895955E0,5.3687863E0,1.0737573E0,6.084625E0,2.5054337E1,5.261411E1,5.010867E0,1.0737573E0,1.7538036E1,7.516301E0,1.0737573E0,5.154035E1,2.1475146E0,1.5390521E1,2.8633528E0,4.6529484E0,4.9392834E1,2.1475146E0],"tree_param":{"num_deleted":"0","num_feature":"12","num_nodes":"23","size_leaf_vector":"1"}},{"base_weights":[-6.852625E-6,3.7801853E-1,-2.6026493E-1,1.4082143E-1,3.788179E-2,1.1104224E-1,-4.7978207E-2,3.409374E-1,-4.0861048E-2,-3.9618935E-2,5.78353E-1,-1.5505868E-1,8.5769856E-1,1.5942308E-1,-3.499928E-2,2.2424154E-2,-3.5601202E-2,1.2093868E-1,1.5485934E-2],"categories":[],"categories_nodes":[],"categories_segments":[],"categories_sizes":[],"default_left":[0,0,0,0,0,0,0,0,0,0,0,0,0,0,0,0,0,0,0],"id":3,"left_children":[1,3,5,-1,7,9,-1,11,-1,-1,13,15,17,-1,-1,-1,-1,-1,-1],"loss_changes":[2.8014941E0,4.0151005E0,1.4278665E0,0E0,1.4594599E0,1.9068526E0,0E0,1.7623191E0,0E0,0E0,4.415636E0,3.9161518E-1,6.200917E-1,0E0,0E0,0E0,0E0,0E0,0E0],"parents":[2147483647,0,0,1,1,2,2,4,4,5,5,7,7,10,10,11,11,12,12],"right_children":[2,4,6,-1,8,10,-1,12,-1,-1,14,16,18,-1,-1,-1,-1,-1,-1],"split_conditions":[5.8437E4,6E0,2.36E2,1.4082143E-1,1.49E2,8.3578E4,-4.7978207E-2,1.01E2,-4.0861048E-2,-3.9618935E-2,1.73254E5,2.47E2,1.24E2,1.5942308E-1,-3.499928E-2,2.2424154E-2,-3.5601202E-2,1.2093868E-1,1.5485934E-2],"split_indices":[8,0,5,0,3,8,0,2,0,0,8,1,2,0,0,0,0,0,0],"split_type":[0,0,0,0,0,0,0,0,0,0,0,0,0,0,0,0,0,0,0],"sum_hessian":[2.6475044E1,1.06106205E1,1.5864424E1,1.8542832E0,8.756337E0,6.0779285E0,9.786495E0,5.356818E0,3.3995192E0,2.9874563E0,3.090472E0,3.090472E0,2.2663462E0,1.1331731E0,1.957299E0,1.0301573E0,2.0603147E0,1.0301573E0,1.2361889E0],"tree_param":{"num_deleted":"0","num_feature":"12","num_nodes":"19","size_leaf_vector":"1"}},{"base_weights":[-8.178103E-6,1.2289506E0,-4.9491968E-2,2.6974472E-1,4.2679203E-1,9.6011624E-2,-1.1902041E-1,-3.2962095E-2,2.1257872E-2],"categories":[],"categories_nodes":[],"categories_segments":[],"categories_sizes":[],"default_left":[0,0,0,0,0,0,0,0,0],"id":4,"left_children":[1,3,-1,-1,5,-1,7,-1,-1],"loss_changes":[1.5132503E1,7.262744E0,0E0,0E0,1.8047824E0,0E0,3.3263668E-1,0E0,0E0],"parents":[2147483647,0,0,1,1,4,4,6,6],"right_children":[2,4,-1,-1,6,-1,8,-1,-1],"split_conditions":[1E0,1.96E2,-4.9491968E-2,2.6974472E-1,3E0,9.6011624E-2,6E0,-3.2962095E-2,2.1257872E-2],"split_indices":[3,5,0,0,0,0,0,0,0],"split_type":[0,0,0,0,0,0,0,0,0],"sum_hessian":[2.287973E1,6.142807E0,1.6736923E1,1.3353928E0,4.807414E0,2.0476024E0,2.7598119E0,1.6914976E0,1.0683143E0],"tree_param":{"num_deleted":"0","num_feature":"12","num_nodes":"9","size_leaf_vector":"1"}},{"base_weights":[2.1190494E-3,-4.969008E-1,1.793701E0,-5.2624613E-2,1.9921232E-3,1.8819604E-3,2.2061143E0,2.5596523E-1,9.0233195E-1,1.9982202E-2,1.1664007E-1],"categories":[],"categories_nodes":[],"categories_segments":[],"categories_sizes":[],"default_left":[0,0,0,0,0,0,0,0,0,0,0],"id":5,"left_children":[1,3,5,-1,-1,-1,7,-1,9,-1,-1],"loss_changes":[3.7539146E1,5.086117E-1,6.6540527E0,0E0,0E0,0E0,1.107666E0,0E0,3.4682846E-1,0E0,0E0],"parents":[2147483647,0,0,1,1,2,2,6,6,8,8],"right_children":[2,4,6,-1,-1,-1,8,-1,10,-1,-1],"split_conditions":[1.39E2,1.2E2,9.977E3,-5.2624613E-2,1.9921232E-3,1.8819604E-3,3E0,2.5596523E-1,1.66E2,1.9982202E-2,1.1664007E-1],"split_indices":[2,2,8,0,0,0,7,0,2,0,0],"split_type":[0,0,0,0,0,0,0,0,0,0,0],"sum_hessian":[3.999152E1,3.184437E1,8.147152E0,3.0116129E1,1.7282395E0,1.7332948E0,6.4138575E0,4.287888E0,2.1259692E0,1.0607443E0,1.065225E0],"tree_param":{"num_deleted":"0","num_feature":"12","num_nodes":"11","size_leaf_vector":"1"}},{"base_weights":[5.842866E-3,-4.9893454E-2,3.7218946E-1],"categories":[],"categories_nodes":[],"categories_segments":[],"categories_sizes":[],"default_left":[0,0,0],"id":6,"left_children":[1,-1,-1],"loss_changes":[4.6091324E1,0E0,0E0],"parents":[2147483647,0,0],"right_children":[2,-1,-1],"split_conditions":[1.3E1,-4.9893454E-2,3.7218946E-1],"split_indices":[4,0,0],"split_type":[0,0,0],"sum_hessian":[2.2581854E1,2.0643446E1,1.9384089E0],"tree_param":{"num_deleted":"0","num_feature":"12","num_nodes":"3","size_leaf_vector":"1"}},{"base_weights":[-5.482118E-3,1.4138128E-1,-1.3693917E-1,-7.658389E-1,3.342506E-1,3.830533E-2,-9.1412836E-1,4.5759705E-1,-3.7854057E-2,-1.3152415E0,-3.19963E-1,1.3293839E-1,5.7081646E-1,-3.728673E-1,2.7951977E-1,-1.4915954E-1,-1.28125865E-2,7.746058E-3,-7.893987E-2,3.2707527E-2,-3.9379932E-2,5.9506096E-2,-5.4569826E-3,-5.576588E-2,3.8417444E-2,-2.0029437E-2,4.338042E-2],"categories":[],"categories_nodes":[],"categories_segments":[],"categories_sizes":[],"default_left":[0,0,0,0,0,0,0,0,0,0,0,0,0,0,0,0,0,0,0,0,0,0,0,0,0,0,0],"id":7,"left_children":[1,3,-1,5,7,-1,9,11,13,15,17,19,21,23,25,-1,-1,-1,-1,-1,-1,-1,-1,-1,-1,-1,-1],"loss_changes":[1.8653347E1,1.4972143E1,0E0,2.9140615E0,3.2327027E0,0E0,2.8261623E0,1.8609076E0,2.056808E0,1.4443216E0,1.3320639E0,1.6552806E0,6.2020874E-1,1.5239882E0,8.273161E-1,0E0,0E0,0E0,0E0,0E0,0E0,0E0,0E0,0E0,0E0,0E0,0E0],"parents":[2147483647,0,0,1,1,3,3,4,4,6,6,7,7,8,8,9,9,10,10,11,11,12,12,13,13,14,14],"right_children":[2,4,-1,6,8,-1,10,12,14,16,18,20,22,24,26,-1,-1,-1,-1,-1,-1,-1,-1,-1,-1,-1,-1],"split_conditions":[5E0,1.99E2,-1.3693917E-1,1.68E2,9.8E1,3.830533E-2,1.82E2,1E0,2.5E2,2.4E2,1E0,6.5E1,3.31E2,8E0,1.22E2,-1.4915954E-1,-1.28125865E-2,7.746058E-3,-7.893987E-2,3.2707527E-2,-3.9379932E-2,5.9506096E-2,-5.4569826E-3,-5.576588E-2,3.8417444E-2,-2.0029437E-2,4.338042E-2],"split_indices":[4,5,0,1,2,0,5,3,5,2,6,2,1,9,3,0,0,0,0,0,0,0,0,0,0,0,0],"split_type":[0,0,0,0,0,0,0,0,0,0,0,0,0,0,0,0,0,0,0,0,0,0,0,0,0,0,0],"sum_hessian":[9.1156586E1,8.310439E1,8.052195E0,1.4049145E1,6.9055244E1,1.4250709E0,1.2624074E1,5.1690845E1,1.73644E1,6.8118744E0,5.8122E0,1.3927542E1,3.7763306E1,8.362387E0,9.002014E0,5.7075005E0,1.1043743E0,3.599695E0,2.2125049E0,1.0453724E1,3.4738183E0,3.6400642E1,1.3626628E0,6.933349E0,1.4290375E0,2.1177475E0,6.8842664E0],"tree_param":{"num_deleted":"0","num_feature":"12","num_nodes":"27","size_leaf_vector":"1"}},{"base_weights":[5.1104715E-3,4.0781295E-1,-2.2219402E-1,2.5531856E-2,1.312338E-1,-4.644486E-2,-1.7425675E-2,4.629279E-1,-4.133708E-2,4.1071525E-1,-4.386742E-2,8.2238734E-1,-2.897842E-2,-7.057331E-4,1.15535855E-1,1.16393685E-1,1.4539403E-2,-3.8015172E-2,6.1307736E-2],"categories":[],"categories_nodes":[],"categories_segments":[],"categories_sizes":[],"default_left":[0,0,0,0,0,0,0,0,0,0,0,0,0,0,0,0,0,0,0],"id":8,"left_children":[1,3,5,7,-1,-1,9,11,-1,13,-1,15,-1,17,-1,-1,-1,-1,-1],"loss_changes":[2.5816941E0,3.4836164E0,8.8693476E-1,1.7597146E0,0E0,0E0,2.131029E0,1.4730715E0,0E0,1.8025279E0,0E0,6.0518193E-1,0E0,1.3480481E0,0E0,0E0,0E0,0E0,0E0],"parents":[2147483647,0,0,1,1,2,2,3,3,6,6,7,7,9,9,11,11,13,13],"right_children":[2,4,6,8,-1,-1,10,12,-1,14,-1,16,-1,18,-1,-1,-1,-1,-1],"split_conditions":[5.5725E4,3.7045E4,2E0,1.36E2,1.312338E-1,-4.644486E-2,1.73254E5,2.6883E4,-4.133708E-2,1.13799E5,-4.386742E-2,2E0,-2.897842E-2,9.8E1,1.15535855E-1,1.16393685E-1,1.4539403E-2,-3.8015172E-2,6.1307736E-2],"split_indices":[8,8,0,3,0,0,8,8,0,8,0,7,0,2,0,0,0,0,0],"split_type":[0,0,0,0,0,0,0,0,0,0,0,0,0,0,0,0,0,0,0],"sum_hessian":[2.6214193E1,9.171478E0,1.7042715E1,7.1696024E0,2.0018756E0,7.2258673E0,9.816848E0,3.5635476E0,3.6060548E0,4.8809953E0,4.9358525E0,2.3491433E0,1.2144045E0,3.7874517E0,1.0935433E0,1.0833229E0,1.2658204E0,2.5757453E0,1.2117065E0],"tree_param":{"num_deleted":"0","num_feature":"12","num_nodes":"19","size_leaf_vector":"1"}},{"base_weights":[5.9930203E-3,1.0865178E0,-4.9206696E-2,1.7957016E0,7.1089916E-2,5.0908405E-2,2.2286434E0,5.4537285E-2,-3.4224145E-2,2.7025184E-1,6.917732E-2],"categories":[],"categories_nodes":[],"categories_segments":[],"categories_sizes":[],"default_left":[0,0,0,0,0,0,0,0,0,0,0],"id":9,"left_children":[1,3,-1,5,7,-1,9,-1,-1,-1,-1],"loss_changes":[1.3240075E1,5.46089E0,0E0,1.3877077E0,1.0163623E0,0E0,3.822956E-1,0E0,0E0,0E0,0E0],"parents":[2147483647,0,0,1,1,3,3,4,4,6,6],"right_children":[2,4,-1,6,8,-1,10,-1,-1,-1,-1],"split_conditions":[1E0,2.23E2,-4.9206696E-2,5.6E1,3E0,5.0908405E-2,5.6178E4,5.4537285E-2,-3.4224145E-2,2.7025184E-1,6.917732E-2],"split_indices":[3,5,0,2,0,0,8,0,0,0,0],"split_type":[0,0,0,0,0,0,0,0,0,0,0],"sum_hessian":[2.2608759E1,6.7605233E0,1.5848235E1,3.52807E0,3.2324533E0,1.4361092E0,2.0919607E0,1.356482E0,1.8759712E0,1.0192363E0,1.0727245E0],"tree_param":{"num_deleted":"0","num_feature":"12","num_nodes":"11","size_leaf_vector":"1"}},{"base_weights":[2.886817E-3,-4.9173552E-1,1.4592829E0,-5.2245703E-2,1.6010915E-3,4.202623E-4,1.7572967E0,1.8885414E-1,5.4929763E-2],"categories":[],"categories_nodes":[],"categories_segments":[],"categories_sizes":[],"default_left":[0,0,0,0,0,0,0,0,0],"id":10,"left_children":[1,3,5,-1,-1,-1,7,-1,-1],"loss_changes":[3.0005634E1,4.9345016E-1,4.571554E0,0E0,0E0,0E0,3.5178947E-1,0E0,0E0],"parents":[2147483647,0,0,1,1,2,2,6,6],"right_children":[2,4,6,-1,-1,-1,8,-1,-1],"split_conditions":[1.39E2,1.2E2,9.977E3,-5.2245703E-2,1.6010915E-3,4.202623E-4,8E0,1.8885414E-1,5.4929763E-2],"split_indices":[2,2,8,0,0,0,9,0,0],"split_type":[0,0,0,0,0,0,0,0,0],"sum_hessian":[3.9657185E1,3.0097733E1,9.559453E0,2.8353231E1,1.7445008E0,1.7974309E0,7.7620225E0,6.4931965E0,1.2688259E0],"tree_param":{"num_deleted":"0","num_feature":"12","num_nodes":"9","size_leaf_vector":"1"}},{"base_weights":[7.034596E-3,-4.9648013E-2,2.7110434E-1],"categories":[],"categories_nodes":[],"categories_segments":[],"categories_sizes":[],"default_left":[0,0,0],"id":11,"left_children":[1,-1,-1],"loss_changes":[3.316464E1,0E0,0E0],"parents":[2147483647,0,0],"right_children":[2,-1,-1],"split_conditions":[1.3E1,-4.9648013E-2,2.7110434E-1],"split_indices":[4,0,0],"split_type":[0,0,0],"sum_hessian":[2.2370155E1,1.954674E1,2.8234162E0],"tree_param":{"num_deleted":"0","num_feature":"12","num_nodes":"3","size_leaf_vector":"1"}},{"base_weights":[-9.3695605E-3,1.2896368E-1,-1.1737746E-1,-6.8461245E-1,3.1567314E-1,3.8044333E-2,-8.163663E-1,4.3804684E-1,-3.7238993E-2,-1.1497216E0,-2.9733738E-1,1.1806535E-1,5.5398834E-1,-3.8987696E-1,2.2824883E-1,-1.2963107E-1,-1.1388889E-2,7.66758E-3,-7.2354846E-2,3.095319E-2,-3.774538E-2,5.794647E-2,-7.5150104E-3,-5.805123E-2,3.5500344E-2,-1.6967792E-2,4.2430636E-2],"categories":[],"categories_nodes":[],"categories_segments":[],"categories_sizes":[],"default_left":[0,0,0,0,0,0,0,0,0,0,0,0,0,0,0,0,0,0,0,0,0,0,0,0,0,0,0],"id":12,"left_children":[1,3,-1,5,7,-1,9,11,13,15,17,19,21,23,25,-1,-1,-1,-1,-1,-1,-1,-1,-1,-1,-1,-1],"loss_changes":[1.4810451E1,1.2709248E1,0E0,2.5090604E0,2.934792E0,0E0,2.125452E0,1.7990618E0,1.804229E0,1.1178722E0,1.1595068E0,1.5055646E0,6.304827E-1,1.3759192E0,9.366397E-1,0E0,0E0,0E0,0E0,0E0,0E0,0E0,0E0,0E0,0E0,0E0,0E0],"parents":[2147483647,0,0,1,1,3,3,4,4,6,6,7,7,8,8,9,9,10,10,11,11,12,12,13,13,14,14],"right_children":[2,4,-1,6,8,-1,10,12,14,16,18,20,22,24,26,-1,-1,-1,-1,-1,-1,-1,-1,-1,-1,-1,-1],"split_conditions":[5E0,1.99E2,-1.1737746E-1,1.68E2,9.8E1,3.8044333E-2,1.82E2,1E0,2E0,2.4E2,1E0,6.5E1,3.4E2,2.96E2,2.43E2,-1.2963107E-1,-1.1388889E-2,7.66758E-3,-7.2354846E-2,3.095319E-2,-3.774538E-2,5.794647E-2,-7.5150104E-3,-5.805123E-2,3.5500344E-2,-1.6967792E-2,4.2430636E-2],"split_indices":[4,5,0,1,2,0,5,3,4,2,6,2,5,5,5,0,0,0,0,0,0,0,0,0,0,0,0],"split_type":[0,0,0,0,0,0,0,0,0,0,0,0,0,0,0,0,0,0,0,0,0,0,0,0,0,0,0],"sum_hessian":[9.000724E1,8.12445E1,8.762736E0,1.4667024E1,6.657748E1,1.406863E0,1.326016E1,4.925639E1,1.7321087E1,7.3343844E0,5.925776E0,1.36374235E1,3.5618965E1,7.2382493E0,1.0082837E1,6.2048235E0,1.129561E0,3.592951E0,2.3328247E0,1.010733E1,3.530093E0,3.4308624E1,1.3103411E0,5.938968E0,1.299281E0,3.3724723E0,6.7103653E0],"tree_param":{"num_deleted":"0","num_feature":"12","num_nodes":"27","size_leaf_vector":"1"}},{"base_weights":[9.958167E-3,3.4475675E-1,-2.4339126E-1,1.2313924E0,2.9004445E-2,9.499067E-2,-4.7115617E-2,1.7305447E-1,1.8591477E-2,2.993536E-1,-4.030108E-2,-3.9293107E-2,5.121761E-1,-1.5459022E-1,7.3411113E-1,1.3212423E-1,-3.459173E-2,-3.5714444E-2,2.3211038E-2,1.0865369E-1,1.0778999E-2],"categories":[],"categories_nodes":[],"categories_segments":[],"categories_sizes":[],"default_left":[0,0,0,0,0,0,0,0,0,0,0,0,0,0,0,0,0,0,0,0,0],"id":13,"left_children":[1,3,5,7,9,11,-1,-1,-1,13,-1,-1,15,17,19,-1,-1,-1,-1,-1,-1],"loss_changes":[2.3706794E0,3.3313375E0,1.2727282E0,1.3138704E0,1.2760721E0,1.6754138E0,0E0,0E0,0E0,1.4276221E0,0E0,0E0,3.4688463E0,4.027512E-1,6.7204046E-1,0E0,0E0,0E0,0E0,0E0,0E0],"parents":[2147483647,0,0,1,1,2,2,3,3,4,4,5,5,9,9,12,12,13,13,14,14],"right_children":[2,4,6,8,10,12,-1,-1,-1,14,-1,-1,16,18,20,-1,-1,-1,-1,-1,-1],"split_conditions":[5.8437E4,6E0,2.36E2,5.6237E4,1.49E2,8.3578E4,-4.7115617E-2,1.7305447E-1,1.8591477E-2,1.01E2,-4.030108E-2,-3.9293107E-2,1.73254E5,3E1,1.15E2,1.3212423E-1,-3.459173E-2,-3.5714444E-2,2.3211038E-2,1.0865369E-1,1.0778999E-2],"split_indices":[8,0,5,8,3,8,0,0,0,2,0,0,8,3,2,0,0,0,0,0,0],"split_type":[0,0,0,0,0,0,0,0,0,0,0,0,0,0,0,0,0,0,0,0,0],"sum_hessian":[2.5959925E1,1.1027028E1,1.4932896E1,2.1342275E0,8.8928E0,6.2421327E0,8.6907625E0,1.0010294E0,1.1331981E0,5.658725E0,3.2340755E0,2.9039447E0,3.3381882E0,3.0835335E0,2.5751915E0,1.440371E0,1.8978171E0,2.0737386E0,1.0097951E0,1.1777111E0,1.3974802E0],"tree_param":{"num_deleted":"0","num_feature":"12","num_nodes":"21","size_leaf_vector":"1"}},{"base_weights":[1.2993275E-2,9.7624654E-1,-4.891598E-2,1.5510569E0,6.649508E-2,1.8454082E0,2.1577774E-2,5.1341683E-2,-3.3935424E-2,6.2438052E-2,2.1400301E-1],"categories":[],"categories_nodes":[],"categories_segments":[],"categories_sizes":[],"default_left":[0,0,0,0,0,0,0,0,0,0,0],"id":14,"left_children":[1,3,-1,5,7,9,-1,-1,-1,-1,-1],"loss_changes":[1.1737173E1,4.242736E0,0E0,1.5858641E0,9.47387E-1,1.0413551E-1,0E0,0E0,0E0,0E0,0E0],"parents":[2147483647,0,0,1,1,3,3,4,4,5,5],"right_children":[2,4,-1,6,8,10,-1,-1,-1,-1,-1],"split_conditions":[1E0,2.23E2,-4.891598E-2,5E0,3E0,5.6E1,2.1577774E-2,5.1341683E-2,-3.3935424E-2,6.2438052E-2,2.1400301E-1],"split_indices":[3,5,0,9,0,2,0,0,0,0,0],"split_type":[0,0,0,0,0,0,0,0,0,0,0],"sum_hessian":[2.2278105E1,7.310549E0,1.4967556E1,4.0479803E0,3.2625682E0,3.003782E0,1.0441985E0,1.4265771E0,1.8359911E0,1.1902373E0,1.8135448E0],"tree_param":{"num_deleted":"0","num_feature":"12","num_nodes":"11","size_leaf_vector":"1"}},{"base_weights":[2.0515495E-3,-4.866273E-1,1.2131697E0,-5.1881503E-2,1.2095935E-3,-4.988427E-4,1.436843E0,1.9836664E-2,1.5524479E0,6.444396E-2,1.7017095E-1],"categories":[],"categories_nodes":[],"categories_segments":[],"categories_sizes":[],"default_left":[0,0,0,0,0,0,0,0,0,0,0],"id":15,"left_children":[1,3,5,-1,-1,-1,7,-1,9,-1,-1],"loss_changes":[2.4431028E1,4.7846365E-1,3.2405586E0,0E0,0E0,0E0,1.1280098E0,0E0,1.2675095E-1,0E0,0E0],"parents":[2147483647,0,0,1,1,2,2,6,6,8,8],"right_children":[2,4,6,-1,-1,-1,8,-1,10,-1,-1],"split_conditions":[1.39E2,1.2E2,9.977E3,-5.1881503E-2,1.2095935E-3,-4.988427E-4,1.85E2,1.9836664E-2,2.4016E4,6.444396E-2,1.7017095E-1],"split_indices":[2,2,8,0,0,0,1,0,8,0,0],"split_type":[0,0,0,0,0,0,0,0,0,0,0],"sum_hessian":[3.9281754E1,2.8414764E1,1.0866986E1,2.665421E1,1.760556E0,1.8374829E0,9.029504E0,1.0027654E0,8.026738E0,1.8838937E0,6.1428447E0],"tree_param":{"num_deleted":"0","num_feature":"12","num_nodes":"11","size_leaf_vector":"1"}},{"base_weights":[6.7750835E-3,-4.9401067E-2,2.1173649E-1],"categories":[],"categories_nodes":[],"categories_segments":[],"categories_sizes":[],"default_left":[0,0,0],"id":16,"left_children":[1,-1,-1],"loss_changes":[2.545894E1,0E0,0E0],"parents":[2147483647,0,0],"right_children":[2,-1,-1],"split_conditions":[1.3E1,-4.9401067E-2,2.1173649E-1],"split_indices":[4,0,0],"split_type":[0,0,0],"sum_hessian":[2.2097464E1,1.8478867E1,3.618597E0],"tree_param":{"num_deleted":"0","num_feature":"12","num_nodes":"3","size_leaf_vector":"1"}},{"base_weights":[-1.2240318E-2,1.17878266E-1,-1.0285181E0,-6.1736536E-1,2.9820642E-1,-4.557668E-2,-1.1228838E-1,3.7461903E-2,-7.35344E-1,4.193735E-1,-3.580172E-2,-1.0270821E0,-2.7087134E-1,1.0541704E-1,5.381079E-1,-3.3267632E-1,2.66166E-1,-1.1573296E-1,-9.648961E-3,7.840553E-3,-6.568354E-2,2.9430995E-2,-3.634834E-2,5.6477547E-2,-8.532237E-3,-9.8227136E-2,2.087511E-2,5.4767977E-2,-2.5251014E-2],"categories":[],"categories_nodes":[],"categories_segments":[],"categories_sizes":[],"default_left":[0,0,0,0,0,0,0,0,0,0,0,0,0,0,0,0,0,0,0,0,0,0,0,0,0,0,0,0,0],"id":17,"left_children":[1,3,5,7,9,-1,-1,-1,11,13,15,17,19,21,23,25,27,-1,-1,-1,-1,-1,-1,-1,-1,-1,-1,-1,-1],"loss_changes":[1.1962539E1,1.0828005E1,4.311371E-2,2.1640759E0,2.6513786E0,0E0,0E0,0E0,1.7217851E0,1.7281256E0,1.7256877E0,9.4371986E-1,1.002208E0,1.3808551E0,6.2172794E-1,3.6001678E0,1.5413418E0,0E0,0E0,0E0,0E0,0E0,0E0,0E0,0E0,0E0,0E0,0E0,0E0],"parents":[2147483647,0,0,1,1,2,2,3,3,4,4,8,8,9,9,10,10,11,11,12,12,13,13,14,14,15,15,16,16],"right_children":[2,4,6,8,10,-1,-1,-1,12,14,16,18,20,22,24,26,28,-1,-1,-1,-1,-1,-1,-1,-1,-1,-1,-1,-1],"split_conditions":[5E0,1.99E2,9.911E3,1.68E2,9.8E1,-4.557668E-2,-1.1228838E-1,3.7461903E-2,1.82E2,1E0,2E0,2.4E2,1E0,6.5E1,3.31E2,5E0,1.47E2,-1.1573296E-1,-9.648961E-3,7.840553E-3,-6.568354E-2,2.9430995E-2,-3.634834E-2,5.6477547E-2,-8.532237E-3,-9.8227136E-2,2.087511E-2,5.4767977E-2,-2.5251014E-2],"split_indices":[4,5,8,1,2,0,0,0,5,3,7,2,6,2,1,0,3,0,0,0,0,0,0,0,0,0,0,0,0],"split_type":[0,0,0,0,0,0,0,0,0,0,0,0,0,0,0,0,0,0,0,0,0,0,0,0,0,0,0,0,0],"sum_hessian":[8.854629E1,7.9279755E1,9.266532E0,1.5137355E1,6.41424E1,2.1354213E0,7.1311107E0,1.3777429E0,1.3759611E1,4.688023E1,1.726217E1,7.7073145E0,6.052297E0,1.338241E1,3.349782E1,8.653213E0,8.608958E0,6.547294E0,1.1600202E0,3.595458E0,2.4568393E0,9.804916E0,3.577494E0,3.2213936E1,1.2838855E0,3.5635285E0,5.0896845E0,5.544006E0,3.0649524E0],"tree_param":{"num_deleted":"0","num_feature":"12","num_nodes":"29","size_leaf_vector":"1"}},{"base_weights":[1.6334422E-2,3.7493777E-1,-2.0499317E-1,2.4515815E-2,1.1186866E0,-4.5882884E-2,2.4936218E-3,4.1898993E-1,-4.0723976E-2,1.6412114E-1,1.4407258E-2,3.9926928E-1,-4.2904522E-2,7.099521E-1,-2.7808586E-2,-1.5094301E-2,1.207332E-1,9.953444E-2,1.2404426E-2,-3.7823018E-2,5.3996593E-2],"categories":[],"categories_nodes":[],"categories_segments":[],"categories_sizes":[],"default_left":[0,0,0,0,0,0,0,0,0,0,0,0,0,0,0,0,0,0,0,0,0],"id":18,"left_children":[1,3,5,7,9,-1,11,13,-1,-1,-1,15,-1,17,-1,19,-1,-1,-1,-1,-1],"loss_changes":[2.1894145E0,2.7121937E0,9.020353E-1,1.5617049E0,1.4665613E0,0E0,1.9531473E0,1.163058E0,0E0,0E0,0E0,2.0069888E0,0E0,4.8525417E-1,0E0,1.1946908E0,0E0,0E0,0E0,0E0,0E0],"parents":[2147483647,0,0,1,1,2,2,3,3,4,4,6,6,7,7,11,11,13,13,15,15],"right_children":[2,4,6,8,10,-1,12,14,-1,-1,-1,16,-1,18,-1,20,-1,-1,-1,-1,-1],"split_conditions":[5.5725E4,3.7045E4,2E0,1.36E2,2.45E2,-4.5882884E-2,1.73254E5,2.6883E4,-4.0723976E-2,1.6412114E-1,1.4407258E-2,1.14548E5,-4.2904522E-2,2E0,-2.7808586E-2,9.8E1,1.207332E-1,9.953444E-2,1.2404426E-2,-3.7823018E-2,5.3996593E-2],"split_indices":[8,8,0,3,1,0,8,8,0,0,0,8,0,7,0,2,0,0,0,0,0],"split_type":[0,0,0,0,0,0,0,0,0,0,0,0,0,0,0,0,0,0,0,0,0],"sum_hessian":[2.5616936E1,9.511692E0,1.6105244E1,7.167596E0,2.344096E0,6.698749E0,9.406494E0,3.760958E0,3.406638E0,1.0807223E0,1.2633736E0,4.939594E0,4.4669003E0,2.6403809E0,1.1205773E0,3.913913E0,1.0256808E0,1.305616E0,1.3347648E0,2.5585902E0,1.3553228E0],"tree_param":{"num_deleted":"0","num_feature":"12","num_nodes":"21","size_leaf_vector":"1"}},{"base_weights":[1.8359277E-2,8.743581E-1,-4.8619505E-2,2.1978019E-1,4.2463586E-1,-6.265213E-2,1.064153E0,6.39252E-2,-4.0600006E-2,1.6328959E-1,1.1290625E-2],"categories":[],"categories_nodes":[],"categories_segments":[],"categories_sizes":[],"default_left":[0,0,0,0,0,0,0,0,0,0,0],"id":19,"left_children":[1,3,-1,-1,5,7,9,-1,-1,-1,-1],"loss_changes":[1.0356669E1,4.3549223E0,0E0,0E0,2.5195029E0,1.5637115E0,1.6872339E0,0E0,0E0,0E0,0E0],"parents":[2147483647,0,0,1,1,4,4,5,5,6,6],"right_children":[2,4,-1,-1,6,8,10,-1,-1,-1,-1],"split_conditions":[1E0,1.81E2,-4.8619505E-2,2.1978019E-1,6.5E1,3.8E1,7.4E1,6.39252E-2,-4.0600006E-2,1.6328959E-1,1.1290625E-2],"split_indices":[3,5,0,0,2,2,2,0,0,0,0],"split_type":[0,0,0,0,0,0,0,0,0,0,0],"sum_hessian":[2.199516E1,7.88499E0,1.4110169E1,1.0139921E0,6.8709984E0,4.411576E0,2.4594226E0,1.1660359E0,3.24554E0,1.0907106E0,1.368712E0],"tree_param":{"num_deleted":"0","num_feature":"12","num_nodes":"11","size_leaf_vector":"1"}},{"base_weights":[1.8750053E-3,-4.8150364E-1,1.0439941E0,-5.1533785E-2,1.4280363E-3,-7.051925E-4,1.2201551E0,1.8572798E-2,1.3072764E0,1.5393232E-1,7.418099E-1,1.3361323E-1,1.3213202E-2],"categories":[],"categories_nodes":[],"categories_segments":[],"categories_sizes":[],"default_left":[0,0,0,0,0,0,0,0,0,0,0,0,0],"id":20,"left_children":[1,3,5,-1,-1,-1,7,-1,9,-1,11,-1,-1],"loss_changes":[2.0502245E1,4.7379494E-1,2.3963308E0,0E0,0E0,0E0,7.530823E-1,0E0,1.737442E-1,0E0,1.5799239E0,0E0,0E0],"parents":[2147483647,0,0,1,1,2,2,6,6,8,8,10,10],"right_children":[2,4,6,-1,-1,-1,8,-1,10,-1,12,-1,-1],"split_conditions":[1.39E2,1.2E2,9.977E3,-5.1533785E-2,1.4280363E-3,-7.051925E-4,1.85E2,1.8572798E-2,1.94E2,1.5393232E-1,1E0,1.3361323E-1,1.3213202E-2],"split_indices":[2,2,8,0,0,0,1,0,5,0,4,0,0],"split_type":[0,0,0,0,0,0,0,0,0,0,0,0,0],"sum_hessian":[3.870229E1,2.680634E1,1.1895949E1,2.5056921E1,1.7494178E0,1.8454189E0,1.005053E1,1.0239983E0,9.026532E0,5.179028E0,3.847504E0,1.3449197E0,2.5025842E0],"tree_param":{"num_deleted":"0","num_feature":"12","num_nodes":"13","size_leaf_vector":"1"}},{"base_weights":[6.227574E-3,-4.914759E-2,1.7415828E-1],"categories":[],"categories_nodes":[],"categories_segments":[],"categories_sizes":[],"default_left":[0,0,0],"id":21,"left_children":[1,-1,-1],"loss_changes":[2.0484022E1,0E0,0E0],"parents":[2147483647,0,0],"right_children":[2,-1,-1],"split_conditions":[1.3E1,-4.914759E-2,1.7415828E-1],"split_indices":[4,0,0],"split_type":[0,0,0],"sum_hessian":[2.1725773E1,1.7440569E1,4.285205E0],"tree_param":{"num_deleted":"0","num_feature":"12","num_nodes":"3","size_leaf_vector":"1"}},{"base_weights":[-1.6460408E-2,1.0649097E-1,-9.2527986E-2,-5.69489E-1,2.8124166E-1,3.6697138E-2,-6.773978E-1,4.0113983E-1,-3.511501E-2,-9.539655E-1,-2.891538E-1,9.141907E-2,5.232557E-1,-3.1469643E-1,2.5628424E-1,-1.0859312E-1,-3.951131E-2,2.3321187E-2,-6.068569E-2,2.7525028E-2,-3.3995476E-2,5.514648E-2,-1.0561472E-2,-8.9745514E-2,1.979791E-2,5.392296E-2,-2.4889542E-2],"categories":[],"categories_nodes":[],"categories_segments":[],"categories_sizes":[],"default_left":[0,0,0,0,0,0,0,0,0,0,0,0,0,0,0,0,0,0,0,0,0,0,0,0,0,0,0],"id":22,"left_children":[1,3,-1,5,7,-1,9,11,13,15,17,19,21,23,25,-1,-1,-1,-1,-1,-1,-1,-1,-1,-1,-1,-1],"loss_changes":[9.889128E0,9.382959E0,0E0,1.9026175E0,2.39258E0,0E0,1.3378263E0,1.6750646E0,1.559611E0,1.8610764E-1,1.4172101E0,1.2111716E0,6.3407326E-1,3.0797257E0,1.4835511E0,0E0,0E0,0E0,0E0,0E0,0E0,0E0,0E0,0E0,0E0,0E0,0E0],"parents":[2147483647,0,0,1,1,3,3,4,4,6,6,7,7,8,8,9,9,10,10,11,11,12,12,13,13,14,14],"right_children":[2,4,-1,6,8,-1,10,12,14,16,18,20,22,24,26,-1,-1,-1,-1,-1,-1,-1,-1,-1,-1,-1,-1],"split_conditions":[5E0,1.99E2,-9.2527986E-2,1.68E2,9.8E1,3.6697138E-2,2.39E2,1E0,2E0,4E0,4E0,6.5E1,3.4E2,5E0,1.47E2,-1.0859312E-1,-3.951131E-2,2.3321187E-2,-6.068569E-2,2.7525028E-2,-3.3995476E-2,5.514648E-2,-1.0561472E-2,-8.9745514E-2,1.979791E-2,5.392296E-2,-2.4889542E-2],"split_indices":[4,5,0,1,2,0,1,3,7,0,0,2,5,0,3,0,0,0,0,0,0,0,0,0,0,0,0],"split_type":[0,0,0,0,0,0,0,0,0,0,0,0,0,0,0,0,0,0,0,0,0,0,0,0,0,0,0],"sum_hessian":[8.661896E1,7.70746E1,9.54436E0,1.5368085E1,6.1706512E1,1.3398411E0,1.4028244E1,4.455305E1,1.7153461E1,7.3414164E0,6.686827E0,1.3093307E1,3.1459743E1,8.713445E0,8.440017E0,5.176022E0,2.1653945E0,2.6294472E0,4.0573797E0,9.434632E0,3.6586745E0,3.0226948E1,1.2327967E0,3.7267323E0,4.9867125E0,5.3667564E0,3.0732608E0],"tree_param":{"num_deleted":"0","num_feature":"12","num_nodes":"27","size_leaf_vector":"1"}},{"base_weights":[2.394465E-2,3.2460615E-1,-2.2443727E-1,1.1025555E0,2.7001213E-2,9.08092E-2,-4.6227064E-2,1.1496671E-2,1.7109321E-1,2.7634835E-1,-3.975601E-2,-3.8713053E-2,4.7000107E-1,-1.4657407E-1,6.462739E-1,1.12818085E-1,-3.381941E-2,-3.5202995E-2,2.327113E-2,1.1021884E-1,3.9431807E-3],"categories":[],"categories_nodes":[],"categories_segments":[],"categories_sizes":[],"default_left":[0,0,0,0,0,0,0,0,0,0,0,0,0,0,0,0,0,0,0,0,0],"id":23,"left_children":[1,3,5,7,9,11,-1,-1,-1,13,-1,-1,15,17,19,-1,-1,-1,-1,-1,-1],"loss_changes":[2.030926E0,2.8110929E0,1.1628332E0,1.8281465E0,1.1579418E0,1.4984736E0,0E0,0E0,0E0,1.1628265E0,0E0,0E0,2.7764764E0,3.9366657E-1,1.0152359E0,0E0,0E0,0E0,0E0,0E0,0E0],"parents":[2147483647,0,0,1,1,2,2,3,3,4,4,5,5,9,9,12,12,13,13,14,14],"right_children":[2,4,6,8,10,12,-1,-1,-1,14,-1,-1,16,18,20,-1,-1,-1,-1,-1,-1],"split_conditions":[5.8437E4,6E0,2.36E2,1E0,1.49E2,8.3578E4,-4.6227064E-2,1.1496671E-2,1.7109321E-1,1.01E2,-3.975601E-2,-3.8713053E-2,1.73254E5,2.6E2,1.12E2,1.12818085E-1,-3.381941E-2,-3.5202995E-2,2.327113E-2,1.1021884E-1,3.9431807E-3],"split_indices":[8,0,5,9,3,8,0,0,0,2,0,0,8,5,2,0,0,0,0,0,0],"split_type":[0,0,0,0,0,0,0,0,0,0,0,0,0,0,0,0,0,0,0,0,0],"sum_hessian":[2.5219894E1,1.1270405E1,1.394949E1,2.3701057E0,8.900299E0,6.264336E0,7.685153E0,1.3567086E0,1.0133971E0,5.827105E0,3.0731933E0,2.7620575E0,3.5022788E0,3.000508E0,2.8265972E0,1.7120717E0,1.790207E0,1.9928546E0,1.0076535E0,1.147913E0,1.6786842E0],"tree_param":{"num_deleted":"0","num_feature":"12","num_nodes":"21","size_leaf_vector":"1"}},{"base_weights":[2.6504487E-2,8.039781E-1,-4.8307013E-2,1.8686156E-1,4.0293795E-1,-5.7664756E-2,9.6329856E-1,6.04491E-2,-4.0161155E-2,1.6647555E-1,4.851144E-3],"categories":[],"categories_nodes":[],"categories_segments":[],"categories_sizes":[],"default_left":[0,0,0,0,0,0,0,0,0,0,0],"id":24,"left_children":[1,3,-1,-1,5,7,9,-1,-1,-1,-1],"loss_changes":[9.333786E0,3.2242026E0,0E0,0E0,2.1309881E0,1.4627898E0,2.283325E0,0E0,0E0,0E0,0E0],"parents":[2147483647,0,0,1,1,4,4,5,5,6,6],"right_children":[2,4,-1,-1,6,8,10,-1,-1,-1,-1],"split_conditions":[1E0,1.81E2,-4.8307013E-2,1.8686156E-1,6.5E1,3.8E1,6.9E1,6.04491E-2,-4.0161155E-2,1.6647555E-1,4.851144E-3],"split_indices":[3,5,0,0,2,2,2,0,0,0,0],"split_type":[0,0,0,0,0,0,0,0,0,0,0],"sum_hessian":[2.1579103E1,8.314964E0,1.3264139E1,1.2738538E0,7.041111E0,4.3569217E0,2.6841896E0,1.2304957E0,3.1264257E0,1.0552204E0,1.6289691E0],"tree_param":{"num_deleted":"0","num_feature":"12","num_nodes":"11","size_leaf_vector":"1"}},{"base_weights":[2.974546E-3,-4.7636583E-1,9.2409974E-1,-5.1196437E-2,1.7436197E-3,-1.5542465E-3,1.0754304E0,1.768607E-2,1.1459787E0,5.1371795E-1,1.2450115E-1,1.1380243E-1,-3.293763E-2],"categories":[],"categories_nodes":[],"categories_segments":[],"categories_sizes":[],"default_left":[0,0,0,0,0,0,0,0,0,0,0,0,0],"id":25,"left_children":[1,3,5,-1,-1,-1,7,-1,9,11,-1,-1,-1],"loss_changes":[1.7637033E1,4.7084188E-1,1.9606819E0,0E0,0E0,0E0,5.446501E-1,0E0,3.340912E-2,2.0370579E0,0E0,0E0,0E0],"parents":[2147483647,0,0,1,1,2,2,6,6,8,8,9,9],"right_children":[2,4,6,-1,-1,-1,8,-1,10,12,-1,-1,-1],"split_conditions":[1.39E2,1.2E2,9.977E3,-5.1196437E-2,1.7436197E-3,-1.5542465E-3,1.85E2,1.768607E-2,2.4016E4,3E0,1.2450115E-1,1.1380243E-1,-3.293763E-2],"split_indices":[2,2,8,0,0,0,1,0,8,4,0,0,0],"split_type":[0,0,0,0,0,0,0,0,0,0,0,0,0],"sum_hessian":[3.794804E1,2.5277061E1,1.2670978E1,2.3543043E1,1.7340174E0,1.8820779E0,1.0788899E1,1.0406849E0,9.748215E0,2.1580172E0,7.590197E0,1.0388994E0,1.1191177E0],"tree_param":{"num_deleted":"0","num_feature":"12","num_nodes":"13","size_leaf_vector":"1"}},{"base_weights":[4.5662606E-3,-4.8894E-2,1.4803559E-1],"categories":[],"categories_nodes":[],"categories_segments":[],"categories_sizes":[],"default_left":[0,0,0],"id":26,"left_children":[1,-1,-1],"loss_changes":[1.6960474E1,0E0,0E0],"parents":[2147483647,0,0],"right_children":[2,-1,-1],"split_conditions":[1.3E1,-4.8894E-2,1.4803559E-1],"split_indices":[4,0,0],"split_type":[0,0,0],"sum_hessian":[2.1293581E1,1.645852E1,4.835061E0],"tree_param":{"num_deleted":"0","num_feature":"12","num_nodes":"3","size_leaf_vector":"1"}},{"base_weights":[-2.0403603E-2,9.5904104E-2,-8.4331745E-1,-5.2230495E-1,2.6425633E-1,-3.7807073E-2,-9.216759E-2,3.577281E-2,-6.203814E-1,3.8341433E-1,-3.7742887E-2,-8.713569E-1,-2.653026E-1,7.85373E-2,5.0903934E-1,-3.4057695E-1,2.0584941E-1,-9.858213E-2,-3.701331E-2,-6.444868E-2,1.1950108E-2,2.5760537E-2,-3.2083146E-2,5.3883273E-2,-1.1906764E-2,-4.9799275E-2,3.3204626E-2,-1.4333459E-2,4.094946E-2],"categories":[],"categories_nodes":[],"categories_segments":[],"categories_sizes":[],"default_left":[0,0,0,0,0,0,0,0,0,0,0,0,0,0,0,0,0,0,0,0,0,0,0,0,0,0,0,0,0],"id":27,"left_children":[1,3,5,7,9,-1,-1,-1,11,13,15,17,19,21,23,25,27,-1,-1,-1,-1,-1,-1,-1,-1,-1,-1,-1,-1],"loss_changes":[8.266634E0,8.030429E0,4.136944E-2,1.6518183E0,2.1831675E0,0E0,0E0,0E0,1.1297526E0,1.6185842E0,1.3950806E0,1.23325825E-1,1.2095587E0,1.0709087E0,6.346407E-1,1.0530391E0,8.1086445E-1,0E0,0E0,0E0,0E0,0E0,0E0,0E0,0E0,0E0,0E0,0E0,0E0],"parents":[2147483647,0,0,1,1,2,2,3,3,4,4,8,8,9,9,10,10,11,11,12,12,13,13,14,14,15,15,16,16],"right_children":[2,4,6,8,10,-1,-1,-1,12,14,16,18,20,22,24,26,28,-1,-1,-1,-1,-1,-1,-1,-1,-1,-1,-1,-1],"split_conditions":[5E0,1.99E2,9.911E3,1.68E2,9.8E1,-3.7807073E-2,-9.216759E-2,3.577281E-2,2.39E2,1E0,2E0,4E0,2.8059E4,6.5E1,3.31E2,2.96E2,1.14E2,-9.858213E-2,-3.701331E-2,-6.444868E-2,1.1950108E-2,2.5760537E-2,-3.2083146E-2,5.3883273E-2,-1.1906764E-2,-4.9799275E-2,3.3204626E-2,-1.4333459E-2,4.094946E-2],"split_indices":[4,5,8,1,2,0,0,0,1,3,4,0,8,2,1,5,2,0,0,0,0,0,0,0,0,0,0,0,0],"split_type":[0,0,0,0,0,0,0,0,0,0,0,0,0,0,0,0,0,0,0,0,0,0,0,0,0,0,0,0,0],"sum_hessian":[8.4525566E1,7.4832466E1,9.693096E0,1.5566822E1,5.9265644E1,2.2368531E0,7.456243E0,1.2954445E0,1.4271378E1,4.2304306E1,1.696134E1,7.5095334E0,6.7618437E0,1.2819084E1,2.9485222E1,7.383734E0,9.577605E0,5.3263316E0,2.1832018E0,3.0658855E0,3.6959581E0,9.095729E0,3.7233546E0,2.8285664E1,1.1995587E0,6.193807E0,1.1899272E0,3.6371884E0,5.9404173E0],"tree_param":{"num_deleted":"0","num_feature":"12","num_nodes":"29","size_leaf_vector":"1"}},{"base_weights":[3.0462233E-2,3.5929838E-1,-1.8765871E-1,1.0224504E0,2.6092159E-2,-4.527308E-2,2.0632766E-2,1.756216E-1,-2.8443977E-2,6.8358816E-2,-1.7154694E-1,3.834849E-1,-4.185915E-2,4.0118728E-2,-4.31085E-2,-1.8171495E-2,1.1465221E-1,-3.7093163E-2,4.7021963E-2],"categories":[],"categories_nodes":[],"categories_segments":[],"categories_sizes":[],"default_left":[0,0,0,0,0,0,0,0,0,0,0,0,0,0,0,0,0,0,0],"id":28,"left_children":[1,3,5,7,9,-1,11,-1,-1,-1,13,15,-1,-1,-1,17,-1,-1,-1],"loss_changes":[1.9219297E0,2.3274894E0,9.038581E-1,3.891111E0,1.1720734E0,0E0,1.7588505E0,0E0,0E0,0E0,1.2194972E0,1.8639215E0,0E0,0E0,0E0,1.022793E0,0E0,0E0,0E0],"parents":[2147483647,0,0,1,1,2,2,3,3,4,4,6,6,10,10,11,11,15,15],"right_children":[2,4,6,8,10,-1,12,-1,-1,-1,14,16,-1,-1,-1,18,-1,-1,-1],"split_conditions":[5.5725E4,7E0,2E0,8E0,9.395E3,-4.527308E-2,1.73254E5,1.756216E-1,-2.8443977E-2,6.8358816E-2,2.21E2,1.15625E5,-4.185915E-2,4.0118728E-2,-4.31085E-2,9.8E1,1.1465221E-1,-3.7093163E-2,4.7021963E-2],"split_indices":[8,0,0,9,8,0,8,0,0,0,1,8,0,0,0,2,0,0,0],"split_type":[0,0,0,0,0,0,0,0,0,0,0,0,0,0,0,0,0,0,0],"sum_hessian":[2.4855381E1,9.65396E0,1.5201422E1,2.5367534E0,7.1172066E0,6.172607E0,9.028815E0,1.4044174E0,1.132336E0,1.0766594E0,6.040547E0,5.0137544E0,4.0150604E0,1.7135048E0,4.327042E0,3.924248E0,1.0895063E0,2.4181468E0,1.5061011E0],"tree_param":{"num_deleted":"0","num_feature":"12","num_nodes":"19","size_leaf_vector":"1"}},{"base_weights":[3.3343475E-2,7.4128276E-1,-4.7993198E-2,1.6225179E-1,3.8161552E-1,-5.1915936E-2,8.706018E-1,5.719738E-2,-3.9669167E-2,1.5880275E-1,1.3613782E-3],"categories":[],"categories_nodes":[],"categories_segments":[],"categories_sizes":[],"default_left":[0,0,0,0,0,0,0,0,0,0,0],"id":29,"left_children":[1,3,-1,-1,5,7,9,-1,-1,-1,-1],"loss_changes":[8.417524E0,2.460907E0,0E0,0E0,1.7853731E0,1.3658212E0,2.3847537E0,0E0,0E0,0E0,0E0],"parents":[2147483647,0,0,1,1,4,4,5,5,6,6],"right_children":[2,4,-1,-1,6,8,10,-1,-1,-1,-1],"split_conditions":[1E0,1.81E2,-4.7993198E-2,1.6225179E-1,6.5E1,3.8E1,6.8E1,5.719738E-2,-3.9669167E-2,1.5880275E-1,1.3613782E-3],"split_indices":[3,5,0,0,2,2,2,0,0,0,0],"split_type":[0,0,0,0,0,0,0,0,0,0,0],"sum_hessian":[2.1186222E1,8.717845E0,1.2468377E1,1.5091215E0,7.208723E0,4.2948084E0,2.9139147E0,1.2940975E0,3.000711E0,1.121783E0,1.7921318E0],"tree_param":{"num_deleted":"0","num_feature":"12","num_nodes":"11","size_leaf_vector":"1"}},{"base_weights":[3.41785E-3,-4.7135642E-1,8.28952E-1,-5.0873946E-2,1.8044353E-3,9.615274E-1,-3.8211865E-3,1.1759938E-1,3.606448E-1,-1.3886741E-1,9.703895E-2,-3.3549644E-2,1.5022364E-2],"categories":[],"categories_nodes":[],"categories_segments":[],"categories_sizes":[],"default_left":[0,0,0,0,0,0,0,0,0,0,0,0,0],"id":30,"left_children":[1,3,5,-1,-1,7,-1,-1,9,11,-1,-1,-1],"loss_changes":[1.5345557E1,4.6403027E-1,1.6800537E0,0E0,0E0,1.1785965E0,0E0,0E0,1.57041E0,2.4741045E-1,0E0,0E0,0E0],"parents":[2147483647,0,0,1,1,2,2,5,5,8,8,9,9],"right_children":[2,4,6,-1,-1,8,-1,-1,10,12,-1,-1,-1],"split_conditions":[1.39E2,1.2E2,2.46E2,-5.0873946E-2,1.8044353E-3,3E0,-3.8211865E-3,1.1759938E-1,1E0,2.12E2,9.703895E-2,-3.3549644E-2,1.5022364E-2],"split_indices":[2,2,5,0,0,7,0,0,6,2,0,0,0],"split_type":[0,0,0,0,0,0,0,0,0,0,0,0,0],"sum_hessian":[3.715567E1,2.386161E1,1.3294061E1,2.2131567E1,1.730043E0,1.1436748E1,1.8573135E0,7.7231126E0,3.713635E0,2.4658368E0,1.2477981E0,1.3720783E0,1.0937585E0],"tree_param":{"num_deleted":"0","num_feature":"12","num_nodes":"13","size_leaf_vector":"1"}},{"base_weights":[3.1143383E-3,-4.86367E-2,1.2966646E-1],"categories":[],"categories_nodes":[],"categories_segments":[],"categories_sizes":[],"default_left":[0,0,0],"id":31,"left_children":[1,-1,-1],"loss_changes":[1.4418573E1,0E0,0E0],"parents":[2147483647,0,0],"right_children":[2,-1,-1],"split_conditions":[1.3E1,-4.86367E-2,1.2966646E-1],"split_indices":[4,0,0],"split_type":[0,0,0],"sum_hessian":[2.0776058E1,1.5525276E1,5.2507815E0],"tree_param":{"num_deleted":"0","num_feature":"12","num_nodes":"3","size_leaf_vector":"1"}},{"base_weights":[-2.3983011E-2,8.606379E-2,-7.790363E-1,-2.5596842E-1,3.6807027E-1,-3.5484876E-2,-8.501427E-2,-6.564716E-1,-8.152885E-2,-5.6230217E-2,4.0951514E-1,1.082887E-3,-7.662821E-1,-7.395983E-1,1.7513394E-2,9.984138E-2,4.4369653E-1,-8.8458054E-2,-3.5826084E-3,-1.1603483E-2,-9.999097E-2,5.08071E-2,-1.4177712E-2,4.4377074E-2,-5.85664E-2,4.636794E-2,1.1104636E-2],"categories":[],"categories_nodes":[],"categories_segments":[],"categories_sizes":[],"default_left":[0,0,0,0,0,0,0,0,0,0,0,0,0,0,0,0,0,0,0,0,0,0,0,0,0,0,0],"id":32,"left_children":[1,3,5,7,9,-1,-1,11,13,-1,15,-1,17,19,21,23,25,-1,-1,-1,-1,-1,-1,-1,-1,-1,-1],"loss_changes":[6.9893684E0,7.1945634E0,2.097845E-2,2.3117712E0,1.8018265E0,0E0,0E0,7.506032E-1,1.6244907E0,0E0,3.7484217E-1,0E0,7.211857E-1,4.1275847E-1,1.8277117E0,1.4921507E0,1.8363047E-1,0E0,0E0,0E0,0E0,0E0,0E0,0E0,0E0,0E0,0E0],"parents":[2147483647,0,0,1,1,2,2,3,3,4,4,7,7,8,8,10,10,12,12,13,13,14,14,15,15,16,16],"right_children":[2,4,6,8,10,-1,-1,12,14,-1,16,-1,18,20,22,24,26,-1,-1,-1,-1,-1,-1,-1,-1,-1,-1],"split_conditions":[5E0,2.36E2,9.911E3,1.82E2,9.29E3,-3.5484876E-2,-8.501427E-2,1.72E2,3.9E1,-5.6230217E-2,3.6E1,1.082887E-3,2.4E2,3.7E1,5.9E1,3.09E2,9E0,-8.8458054E-2,-3.5826084E-3,-1.1603483E-2,-9.999097E-2,5.08071E-2,-1.4177712E-2,4.4377074E-2,-5.85664E-2,4.636794E-2,1.1104636E-2],"split_indices":[4,5,8,5,8,0,0,1,2,0,2,0,2,2,2,1,0,0,0,0,0,0,0,0,0,0,0],"split_type":[0,0,0,0,0,0,0,0,0,0,0,0,0,0,0,0,0,0,0,0,0,0,0,0,0,0,0],"sum_hessian":[8.230993E1,7.261284E1,9.697092E0,3.285586E1,3.9756977E1,2.2521577E0,7.444934E0,9.130179E0,2.3725683E1,1.1595439E0,3.859743E1,1.4175205E0,7.712659E0,2.2576442E0,2.1468039E1,4.2265944E0,3.437084E1,6.456088E0,1.2565712E0,1.0906937E0,1.1669506E0,4.7255263E0,1.6742512E1,3.0493314E0,1.177263E0,3.205155E1,2.319286E0],"tree_param":{"num_deleted":"0","num_feature":"12","num_nodes":"27","size_leaf_vector":"1"}},{"base_weights":[3.7149977E-2,6.893062E-1,-6.971837E-2,-2.8641349E-2,1.2790224E-1,1.9802043E-1,-3.1969124E-1,-3.6386404E-2,3.5823137E-1,-2.8908176E-2,-4.585504E-2,5.310209E-1,-3.1929485E-2,-3.949572E-2,6.4853854E-2,5.40898E-3,8.601894E-2],"categories":[],"categories_nodes":[],"categories_segments":[],"categories_sizes":[],"default_left":[0,0,0,0,0,0,0,0,0,0,0,0,0,0,0,0,0],"id":33,"left_children":[1,3,5,-1,-1,7,9,-1,11,13,-1,15,-1,-1,-1,-1,-1],"loss_changes":[1.824365E0,2.483985E0,1.5896922E0,0E0,0E0,1.1772343E0,4.7843027E-1,0E0,1.287935E0,1.4967557E0,0E0,1.2074194E0,0E0,0E0,0E0,0E0,0E0],"parents":[2147483647,0,0,1,1,2,2,5,5,6,6,8,8,9,9,11,11],"right_children":[2,4,6,-1,-1,8,10,-1,12,14,-1,16,-1,-1,-1,-1,-1],"split_conditions":[3.9E1,3.5E1,5.8437E4,-2.8641349E-2,1.2790224E-1,1.85E2,2.14E2,-3.6386404E-2,3.04E2,2.07E2,-4.585504E-2,9.6E1,-3.1929485E-2,-3.949572E-2,6.4853854E-2,5.40898E-3,8.601894E-2],"split_indices":[2,2,8,0,0,5,5,0,5,5,0,2,0,0,0,0,0],"split_type":[0,0,0,0,0,0,0,0,0,0,0,0,0,0,0,0,0],"sum_hessian":[2.4486929E1,2.6803346E0,2.1806593E1,1.20346E0,1.4768746E0,1.0629487E1,1.1177107E1,2.076328E0,8.553159E0,4.002891E0,7.174216E0,6.987398E0,1.5657606E0,2.8694272E0,1.1334641E0,3.328732E0,3.658666E0],"tree_param":{"num_deleted":"0","num_feature":"12","num_nodes":"17","size_leaf_vector":"1"}},{"base_weights":[3.912908E-2,6.841734E-1,-4.7665708E-2,1.0023228E0,4.497287E-2,1.2075275E-1,1.0562849E-2,4.5093935E-2,-3.3977155E-2],"categories":[],"categories_nodes":[],"categories_segments":[],"categories_sizes":[],"default_left":[0,0,0,0,0,0,0,0,0],"id":34,"left_children":[1,3,-1,5,7,-1,-1,-1,-1],"loss_changes":[7.578591E0,2.0081077E0,0E0,1.1041961E0,8.408092E-1,0E0,0E0,0E0,0E0],"parents":[2147483647,0,0,1,1,3,3,4,4],"right_children":[2,4,-1,6,8,-1,-1,-1,-1],"split_conditions":[1E0,2.23E2,-4.7665708E-2,5E0,3E0,1.2075275E-1,1.0562849E-2,4.5093935E-2,-3.3977155E-2],"split_indices":[3,5,0,9,0,0,0,0,0],"split_type":[0,0,0,0,0,0,0,0,0],"sum_hessian":[2.079852E1,9.096247E0,1.1702271E1,5.6940556E0,3.4021914E0,4.351573E0,1.3424826E0,1.5717239E0,1.8304675E0],"tree_param":{"num_deleted":"0","num_feature":"12","num_nodes":"9","size_leaf_vector":"1"}},{"base_weights":[3.978793E-3,-4.6614942E-1,7.53065E-1,-5.0545402E-2,2.0565612E-3,-2.61287E-3,8.720737E-1,1.01011E0,3.9201158E-1,1.087145E0,3.396162E-2,-8.496127E-3,8.311018E-2,1.18275225E-1,3.8747035E-2],"categories":[],"categories_nodes":[],"categories_segments":[],"categories_sizes":[],"default_left":[0,0,0,0,0,0,0,0,0,0,0,0,0,0,0],"id":35,"left_children":[1,3,5,-1,-1,-1,7,9,11,13,-1,-1,-1,-1,-1],"loss_changes":[1.347238E1,4.6013546E-1,1.3905058E0,0E0,0E0,0E0,4.5383263E-1,1.12490654E-1,1.0126826E0,7.089138E-2,0E0,0E0,0E0,0E0,0E0],"parents":[2147483647,0,0,1,1,2,2,6,6,7,7,8,8,9,9],"right_children":[2,4,6,-1,-1,-1,8,10,12,14,-1,-1,-1,-1,-1],"split_conditions":[1.39E2,1.2E2,9.977E3,-5.0545402E-2,2.0565612E-3,-2.61287E-3,3E0,5E0,1E0,8E0,3.396162E-2,-8.496127E-3,8.311018E-2,1.18275225E-1,3.8747035E-2],"split_indices":[2,2,8,0,0,0,7,4,6,9,0,0,0,0,0],"split_type":[0,0,0,0,0,0,0,0,0,0,0,0,0,0,0],"sum_hessian":[3.62589E1,2.2509558E1,1.3749342E1,2.0792004E1,1.7175541E0,1.9251473E0,1.1824194E1,8.326021E0,3.4981737E0,6.910629E0,1.4153922E0,2.0633326E0,1.4348409E0,5.4724174E0,1.4382112E0],"tree_param":{"num_deleted":"0","num_feature":"12","num_nodes":"15","size_leaf_vector":"1"}},{"base_weights":[1.1782025E-3,-4.8365157E-2,1.1542753E-1],"categories":[],"categories_nodes":[],"categories_segments":[],"categories_sizes":[],"default_left":[0,0,0],"id":36,"left_children":[1,-1,-1],"loss_changes":[1.2405486E1,0E0,0E0],"parents":[2147483647,0,0],"right_children":[2,-1,-1],"split_conditions":[1.3E1,-4.8365157E-2,1.1542753E-1],"split_indices":[4,0,0],"split_type":[0,0,0],"sum_hessian":[2.0191479E1,1.4623474E1,5.568004E0],"tree_param":{"num_deleted":"0","num_feature":"12","num_nodes":"3","size_leaf_vector":"1"}},{"base_weights":[-2.5792303E-2,7.815407E-2,-7.2406125E-1,-2.379687E-1,3.5098287E-1,-3.275236E-2,-7.92799E-2,-6.0748386E-1,-7.663643E-2,-5.4030895E-2,3.934519E-1,1.9194105E-3,-7.122829E-1,-6.861797E-1,1.8153062E-2,8.667447E-2,4.2840096E-1,-8.26004E-2,-2.6067765E-3,-1.041964E-2,-9.283287E-2,4.9948648E-2,-1.3297729E-2,4.3366328E-2,-5.6515045E-2,4.490233E-2,9.749577E-3],"categories":[],"categories_nodes":[],"categories_segments":[],"categories_sizes":[],"default_left":[0,0,0,0,0,0,0,0,0,0,0,0,0,0,0,0,0,0,0,0,0,0,0,0,0,0,0],"id":37,"left_children":[1,3,5,7,9,-1,-1,11,13,-1,15,-1,17,19,21,23,25,-1,-1,-1,-1,-1,-1,-1,-1,-1,-1],"loss_changes":[5.9553485E0,6.262444E0,3.0024529E-2,1.967448E0,1.6834569E0,0E0,0E0,6.785002E-1,1.4373082E0,0E0,3.6674452E-1,0E0,6.5730476E-1,3.7461782E-1,1.6897815E0,1.3999777E0,1.8525982E-1,0E0,0E0,0E0,0E0,0E0,0E0,0E0,0E0,0E0,0E0],"parents":[2147483647,0,0,1,1,2,2,3,3,4,4,7,7,8,8,10,10,12,12,13,13,14,14,15,15,16,16],"right_children":[2,4,6,8,10,-1,-1,12,14,-1,16,-1,18,20,22,24,26,-1,-1,-1,-1,-1,-1,-1,-1,-1,-1],"split_conditions":[5E0,2.36E2,9.911E3,1.82E2,9.29E3,-3.275236E-2,-7.92799E-2,1.72E2,3.9E1,-5.4030895E-2,3.6E1,1.9194105E-3,2.4E2,3.7E1,5.9E1,3.09E2,9E0,-8.26004E-2,-2.6067765E-3,-1.041964E-2,-9.283287E-2,4.9948648E-2,-1.3297729E-2,4.3366328E-2,-5.6515045E-2,4.490233E-2,9.749577E-3],"split_indices":[4,5,8,5,8,0,0,1,2,0,2,0,2,2,2,1,0,0,0,0,0,0,0,0,0,0,0],"split_type":[0,0,0,0,0,0,0,0,0,0,0,0,0,0,0,0,0,0,0,0,0,0,0,0,0,0,0],"sum_hessian":[8.02697E1,7.064182E1,9.627875E0,3.2783653E1,3.785817E1,2.2740498E0,7.3538256E0,9.122977E0,2.3660677E1,1.1886985E0,3.666947E1,1.4240829E0,7.698895E0,2.344621E0,2.1316055E1,4.1061687E0,3.2563305E1,6.4296494E0,1.2692454E0,1.109158E0,1.2354629E0,4.542785E0,1.6773272E1,2.8981025E0,1.2080661E0,3.0316967E1,2.2463367E0],"tree_param":{"num_deleted":"0","num_feature":"12","num_nodes":"27","size_leaf_vector":"1"}},{"base_weights":[4.1336596E-2,3.3022028E-1,-1.6819197E-1,1.6334155E-1,2.5415516E-2,-4.4572037E-2,4.0861472E-2,2.598181E-1,-3.929351E-2,3.851743E-1,-4.093478E-2,-5.0585393E-2,7.5321175E-2,-1.958788E-2,1.17453314E-1,-4.069329E-2,7.060293E-2,-3.66604E-2,4.4009198E-2],"categories":[],"categories_nodes":[],"categories_segments":[],"categories_sizes":[],"default_left":[0,0,0,0,0,0,0,0,0,0,0,0,0,0,0,0,0,0,0],"id":38,"left_children":[1,3,5,-1,7,-1,9,11,-1,13,-1,15,-1,17,-1,-1,-1,-1,-1],"loss_changes":[1.5828612E0,4.3060956E0,9.051745E-1,0E0,1.0715566E0,0E0,1.6513E0,1.1006709E0,0E0,1.9320669E0,0E0,1.6881965E0,0E0,9.4829124E-1,0E0,0E0,0E0,0E0,0E0],"parents":[2147483647,0,0,1,1,2,2,4,4,6,6,7,7,9,9,11,11,13,13],"right_children":[2,4,6,-1,8,-1,10,12,-1,14,-1,16,-1,18,-1,-1,-1,-1,-1],"split_conditions":[5.5725E4,6E0,2E0,1.6334155E-1,1.49E2,-4.4572037E-2,1.73254E5,1.25E2,-3.929351E-2,1.16349E5,-4.093478E-2,3.49E2,7.5321175E-2,9.8E1,1.17453314E-1,-4.069329E-2,7.060293E-2,-3.66604E-2,4.4009198E-2],"split_indices":[8,0,0,0,3,0,8,3,0,8,0,1,0,2,0,0,0,0,0],"split_type":[0,0,0,0,0,0,0,0,0,0,0,0,0,0,0,0,0,0,0],"sum_hessian":[2.4232716E1,9.945089E0,1.4287626E1,1.0588931E0,8.886197E0,5.6521025E0,8.635524E0,5.9380455E0,2.948151E0,4.975101E0,3.660423E0,4.1958375E0,1.7422081E0,3.9333627E0,1.0417385E0,3.1666071E0,1.0292302E0,2.3567286E0,1.5766342E0],"tree_param":{"num_deleted":"0","num_feature":"12","num_nodes":"19","size_leaf_vector":"1"}},{"base_weights":[4.081701E-2,6.217781E-1,-4.7337208E-2,1.2891537E-1,3.2732043E-1,-6.026887E-2,7.365453E-1,5.223914E-2,-3.9639287E-2,1.3293307E-1,-8.4368483E-4],"categories":[],"categories_nodes":[],"categories_segments":[],"categories_sizes":[],"default_left":[0,0,0,0,0,0,0,0,0,0,0],"id":39,"left_children":[1,3,-1,-1,5,7,9,-1,-1,-1,-1],"loss_changes":[6.7338705E0,1.6519403E0,0E0,0E0,1.418429E0,1.2594392E0,1.9055176E0,0E0,0E0,0E0,0E0],"parents":[2147483647,0,0,1,1,4,4,5,5,6,6],"right_children":[2,4,-1,-1,6,8,10,-1,-1,-1,-1],"split_conditions":[1E0,1.81E2,-4.7337208E-2,1.2891537E-1,6.5E1,3.8E1,6.8E1,5.223914E-2,-3.9639287E-2,1.3293307E-1,-8.4368483E-4],"split_indices":[3,5,0,0,2,2,2,0,0,0,0],"split_type":[0,0,0,0,0,0,0,0,0,0,0],"sum_hessian":[2.0556828E1,9.553491E0,1.1003337E1,1.890559E0,7.662932E0,4.3734393E0,3.2894926E0,1.3972274E0,2.976212E0,1.3950592E0,1.8944335E0],"tree_param":{"num_deleted":"0","num_feature":"12","num_nodes":"11","size_leaf_vector":"1"}},{"base_weights":[5.5969753E-3,-4.6094686E-1,6.947508E-1,-5.022615E-2,2.3481748E-3,-2.6316636E-3,8.0235296E-1,9.283494E-1,3.6377284E-1,1.0005928E0,3.075396E-2,-8.737613E-3,7.697692E-2,1.0879141E-1,3.5952006E-2],"categories":[],"categories_nodes":[],"categories_segments":[],"categories_sizes":[],"default_left":[0,0,0,0,0,0,0,0,0,0,0,0,0,0,0],"id":40,"left_children":[1,3,5,-1,-1,-1,7,9,11,13,-1,-1,-1,-1,-1],"loss_changes":[1.1990894E1,4.570284E-1,1.1889863E0,0E0,0E0,0E0,3.8781452E-1,1.20812416E-1,9.0512985E-1,6.315708E-2,0E0,0E0,0E0,0E0,0E0],"parents":[2147483647,0,0,1,1,2,2,6,6,7,7,8,8,9,9],"right_children":[2,4,6,-1,-1,-1,8,10,12,14,-1,-1,-1,-1,-1],"split_conditions":[1.39E2,1.2E2,9.977E3,-5.022615E-2,2.3481748E-3,-2.6316636E-3,3E0,5E0,1E0,8E0,3.075396E-2,-8.737613E-3,7.697692E-2,1.0879141E-1,3.5952006E-2],"split_indices":[2,2,8,0,0,0,7,4,6,9,0,0,0,0,0],"split_type":[0,0,0,0,0,0,0,0,0,0,0,0,0,0,0],"sum_hessian":[3.5298313E1,2.1246191E1,1.4052121E1,1.9542677E1,1.7035146E0,1.9227501E0,1.2129372E1,8.554964E0,3.574407E0,7.115215E0,1.4397492E0,2.0647798E0,1.5096272E0,5.648768E0,1.466447E0],"tree_param":{"num_deleted":"0","num_feature":"12","num_nodes":"15","size_leaf_vector":"1"}},{"base_weights":[-9.050993E-4,-4.8097193E-2,1.04667604E-1],"categories":[],"categories_nodes":[],"categories_segments":[],"categories_sizes":[],"default_left":[0,0,0],"id":41,"left_children":[1,-1,-1],"loss_changes":[1.0846845E1,0E0,0E0],"parents":[2147483647,0,0],"right_children":[2,-1,-1],"split_conditions":[1.3E1,-4.8097193E-2,1.04667604E-1],"split_indices":[4,0,0],"split_type":[0,0,0],"sum_hessian":[1.9567188E1,1.3789058E1,5.7781305E0],"tree_param":{"num_deleted":"0","num_feature":"12","num_nodes":"3","size_leaf_vector":"1"}},{"base_weights":[-2.9773049E-2,6.929172E-2,-6.8363065E-1,-2.2649464E-1,3.3450848E-1,-7.2718084E-2,-2.3534393E-2,-5.657718E-1,-7.7645846E-2,-5.192923E-2,3.7801018E-1,2.5618155E-3,-6.660411E-1,-6.4694315E-1,1.3825983E-2,7.247696E-2,4.1386163E-1,-7.75578E-2,-1.9332767E-3,-9.793365E-3,-8.715622E-2,4.8584558E-2,-1.2718386E-2,4.2247966E-2,-5.426243E-2,4.3513756E-2,8.578214E-3],"categories":[],"categories_nodes":[],"categories_segments":[],"categories_sizes":[],"default_left":[0,0,0,0,0,0,0,0,0,0,0,0,0,0,0,0,0,0,0,0,0,0,0,0,0,0,0],"id":42,"left_children":[1,3,5,7,9,-1,-1,11,13,-1,15,-1,17,19,21,23,25,-1,-1,-1,-1,-1,-1,-1,-1,-1,-1],"loss_changes":[5.160089E0,5.5242586E0,3.3411026E-2,1.6443675E0,1.5714006E0,0E0,0E0,6.121416E-1,1.2793386E0,0E0,3.622265E-1,0E0,5.9546113E-1,3.3368766E-1,1.5259361E0,1.2997978E0,1.8488216E-1,0E0,0E0,0E0,0E0,0E0,0E0,0E0,0E0,0E0,0E0],"parents":[2147483647,0,0,1,1,2,2,3,3,4,4,7,7,8,8,10,10,12,12,13,13,14,14,15,15,16,16],"right_children":[2,4,6,8,10,-1,-1,12,14,-1,16,-1,18,20,22,24,26,-1,-1,-1,-1,-1,-1,-1,-1,-1,-1],"split_conditions":[5E0,2.36E2,1.71E2,1.82E2,9.29E3,-7.2718084E-2,-2.3534393E-2,1.72E2,3.9E1,-5.192923E-2,3.6E1,2.5618155E-3,2.4E2,3.7E1,5.9E1,3.09E2,9E0,-7.75578E-2,-1.9332767E-3,-9.793365E-3,-8.715622E-2,4.8584558E-2,-1.2718386E-2,4.2247966E-2,-5.426243E-2,4.3513756E-2,8.578214E-3],"split_indices":[4,5,3,5,8,0,0,1,2,0,2,0,2,2,2,1,0,0,0,0,0,0,0,0,0,0,0],"split_type":[0,0,0,0,0,0,0,0,0,0,0,0,0,0,0,0,0,0,0,0,0,0,0,0,0,0,0],"sum_hessian":[7.793134E1,6.8454025E1,9.477318E0,3.2430973E1,3.6023056E1,8.071094E0,1.4062239E0,9.035349E0,2.3395626E1,1.2161717E0,3.480688E1,1.4177777E0,7.617571E0,2.398068E0,2.0997557E1,3.972662E0,3.083422E1,6.343811E0,1.27376E0,1.1132014E0,1.2848666E0,4.267375E0,1.6730183E1,2.7315307E0,1.2411314E0,2.8649954E1,2.1842656E0],"tree_param":{"num_deleted":"0","num_feature":"12","num_nodes":"27","size_leaf_vector":"1"}},{"base_weights":[4.8616096E-2,2.9172987E-1,-1.8712306E-1,8.845826E-1,3.0547798E-2,8.668097E-2,-4.4348042E-2,1.4693055E-1,5.14882E-3,7.213782E-2,-1.303519E-1,-3.7596505E-2,4.1276935E-1,-4.1306756E-2,1.2502758E-1,8.9335626E-1,-3.226456E-2,7.562377E-2,-3.8142588E-2,1.1836683E-1,1.8427705E-2],"categories":[],"categories_nodes":[],"categories_segments":[],"categories_sizes":[],"default_left":[0,0,0,0,0,0,0,0,0,0,0,0,0,0,0,0,0,0,0,0,0],"id":43,"left_children":[1,3,5,7,9,11,-1,-1,-1,-1,13,-1,15,-1,17,19,-1,-1,-1,-1,-1],"loss_changes":[1.4766699E0,1.9249699E0,9.6545565E-1,1.7849431E0,1.1818786E0,1.2448198E0,0E0,0E0,0E0,0E0,6.859154E-1,0E0,1.9540403E0,0E0,2.009362E0,4.2327952E-1,0E0,0E0,0E0,0E0,0E0],"parents":[2147483647,0,0,1,1,2,2,3,3,4,4,5,5,10,10,12,12,14,14,15,15],"right_children":[2,4,6,8,10,12,-1,-1,-1,-1,14,-1,16,-1,18,20,-1,-1,-1,-1,-1],"split_conditions":[5.8437E4,6E0,2.36E2,5.5725E4,9.378E3,8.3578E4,-4.4348042E-2,1.4693055E-1,5.14882E-3,7.213782E-2,1.25E2,-3.7596505E-2,1.73254E5,-4.1306756E-2,1.49E2,1E0,-3.226456E-2,7.562377E-2,-3.8142588E-2,1.1836683E-1,1.8427705E-2],"split_indices":[8,0,5,8,8,8,0,0,0,0,3,0,8,0,3,3,0,0,0,0,0],"split_type":[0,0,0,0,0,0,0,0,0,0,0,0,0,0,0,0,0,0,0,0,0],"sum_hessian":[2.3813206E1,1.1606308E1,1.2206899E1,2.8195095E0,8.7867985E0,6.222642E0,5.9842563E0,1.2079881E0,1.6115212E0,1.0018606E0,7.7849383E0,2.5094056E0,3.7132363E0,3.4016762E0,4.383262E0,2.1158094E0,1.5974269E0,1.7317367E0,2.6515255E0,1.0263122E0,1.0894971E0],"tree_param":{"num_deleted":"0","num_feature":"12","num_nodes":"21","size_leaf_vector":"1"}},{"base_weights":[4.5331147E-2,5.827974E-1,-4.7009677E-2,7.1386534E-1,-2.8091151E-2,3.1756178E-1,1.110179E0,9.261193E-2,-2.2998847E-2,1.3189931E-1,2.1038251E-2,4.8867416E-2,-3.7799697E-2],"categories":[],"categories_nodes":[],"categories_segments":[],"categories_sizes":[],"default_left":[0,0,0,0,0,0,0,0,0,0,0,0,0],"id":44,"left_children":[1,3,-1,5,-1,7,9,-1,11,-1,-1,-1,-1],"loss_changes":[6.1355357E0,1.4236538E0,0E0,1.1651797E0,0E0,1.312966E0,5.550418E-1,0E0,1.087821E0,0E0,0E0,0E0,0E0],"parents":[2147483647,0,0,1,1,3,3,5,5,6,6,8,8],"right_children":[2,4,-1,6,-1,8,10,-1,12,-1,-1,-1,-1],"split_conditions":[1E0,3.2E2,-4.7009677E-2,6.5E1,-2.8091151E-2,1.81E2,6.0263E4,9.261193E-2,3.8E1,1.3189931E-1,2.1038251E-2,4.8867416E-2,-3.7799697E-2],"split_indices":[3,1,0,2,0,5,8,0,2,0,0,0,0],"split_type":[0,0,0,0,0,0,0,0,0,0,0,0,0],"sum_hessian":[2.0158964E1,9.804522E0,1.0354443E1,8.663346E0,1.1411753E0,5.232384E0,3.430962E0,1.2605231E0,3.9718614E0,2.4065895E0,1.0243725E0,1.4726778E0,2.4991834E0],"tree_param":{"num_deleted":"0","num_feature":"12","num_nodes":"13","size_leaf_vector":"1"}},{"base_weights":[7.0304787E-3,-4.5569682E-1,6.447013E-1,-4.9912162E-2,2.6348217E-3,-2.8806839E-3,7.4429744E-1,8.616937E-1,3.3822784E-1,3.7288564E-1,9.673225E-2,-8.946502E-3,7.165509E-2,5.2671798E-2,4.728165E-3],"categories":[],"categories_nodes":[],"categories_segments":[],"categories_sizes":[],"default_left":[0,0,0,0,0,0,0,0,0,0,0,0,0,0,0],"id":45,"left_children":[1,3,5,-1,-1,-1,7,9,11,13,-1,-1,-1,-1,-1],"loss_changes":[1.0716552E1,4.5389748E-1,1.0455923E0,0E0,0E0,0E0,3.443985E-1,1.4017248E-1,8.1447554E-1,1.4294612E-1,0E0,0E0,0E0,0E0,0E0],"parents":[2147483647,0,0,1,1,2,2,6,6,7,7,8,8,9,9],"right_children":[2,4,6,-1,-1,-1,8,10,12,14,-1,-1,-1,-1,-1],"split_conditions":[1.39E2,1.2E2,9.977E3,-4.9912162E-2,2.6348217E-3,-2.8806839E-3,3E0,1.708E4,1E0,2E0,9.673225E-2,-8.946502E-3,7.165509E-2,5.2671798E-2,4.728165E-3],"split_indices":[2,2,8,0,0,0,7,8,6,4,0,0,0,0,0],"split_type":[0,0,0,0,0,0,0,0,0,0,0,0,0,0,0],"sum_hessian":[3.4323296E1,2.0055412E1,1.4267882E1,1.8365536E1,1.6898758E0,1.9296429E0,1.233824E1,8.700778E0,3.6374614E0,2.3510787E0,6.3496995E0,2.0657077E0,1.5717535E0,1.1772296E0,1.1738491E0],"tree_param":{"num_deleted":"0","num_feature":"12","num_nodes":"15","size_leaf_vector":"1"}},{"base_weights":[-3.434966E-3,-4.7827195E-2,9.600055E-2],"categories":[],"categories_nodes":[],"categories_segments":[],"categories_sizes":[],"default_left":[0,0,0],"id":46,"left_children":[1,-1,-1],"loss_changes":[9.567301E0,0E0,0E0],"parents":[2147483647,0,0],"right_children":[2,-1,-1],"split_conditions":[1.3E1,-4.7827195E-2,9.600055E-2],"split_indices":[4,0,0],"split_type":[0,0,0],"sum_hessian":[1.8909533E1,1.3004012E1,5.9055204E0],"tree_param":{"num_deleted":"0","num_feature":"12","num_nodes":"3","size_leaf_vector":"1"}},{"base_weights":[-3.3026006E-2,6.1383966E-2,-6.470341E-1,-2.1427967E-1,3.1811437E-1,-2.8481612E-2,-7.143987E-2,-5.2942747E-1,-7.636194E-2,-4.9644563E-2,3.6253938E-1,3.182161E-3,-6.264052E-1,-6.096177E-1,1.164843E-2,5.9567075E-2,3.9920458E-1,-7.333248E-2,-1.271649E-3,-9.069687E-3,-8.2009986E-2,1.9236833E-2,-3.253647E-2,4.1183442E-2,-5.2115113E-2,4.2119592E-2,7.3778383E-3],"categories":[],"categories_nodes":[],"categories_segments":[],"categories_sizes":[],"default_left":[0,0,0,0,0,0,0,0,0,0,0,0,0,0,0,0,0,0,0,0,0,0,0,0,0,0,0],"id":47,"left_children":[1,3,5,7,9,-1,-1,11,13,-1,15,-1,17,19,21,23,25,-1,-1,-1,-1,-1,-1,-1,-1,-1,-1],"loss_changes":[4.4818993E0,4.8333216E0,4.7834396E-2,1.3967758E0,1.4561334E0,0E0,0E0,5.5862117E-1,1.1414037E0,0E0,3.541298E-1,0E0,5.4757285E-1,3.0163336E-1,1.3858382E0,1.2063624E0,1.848507E-1,0E0,0E0,0E0,0E0,0E0,0E0,0E0,0E0,0E0,0E0],"parents":[2147483647,0,0,1,1,2,2,3,3,4,4,7,7,8,8,10,10,12,12,13,13,14,14,15,15,16,16],"right_children":[2,4,6,8,10,-1,-1,12,14,-1,16,-1,18,20,22,24,26,-1,-1,-1,-1,-1,-1,-1,-1,-1,-1],"split_conditions":[5E0,2.36E2,9.911E3,1.82E2,9.29E3,-2.8481612E-2,-7.143987E-2,1.72E2,3.9E1,-4.9644563E-2,3.6E1,3.182161E-3,2.4E2,3.7E1,1.05E2,3.09E2,9E0,-7.333248E-2,-1.271649E-3,-9.069687E-3,-8.2009986E-2,1.9236833E-2,-3.253647E-2,4.1183442E-2,-5.2115113E-2,4.2119592E-2,7.3778383E-3],"split_indices":[4,5,8,5,8,0,0,1,2,0,2,0,2,2,3,1,0,0,0,0,0,0,0,0,0,0,0],"split_type":[0,0,0,0,0,0,0,0,0,0,0,0,0,0,0,0,0,0,0,0,0,0,0,0,0,0,0],"sum_hessian":[7.563098E1,6.633182E1,9.299163E0,3.2066185E1,3.4265636E1,2.2780607E0,7.0211024E0,8.897137E0,2.3169048E1,1.2459257E0,3.301971E1,1.4098184E0,7.487318E0,2.4426072E0,2.072644E1,3.8479438E0,2.9171766E1,6.2103734E0,1.2769446E0,1.1177691E0,1.3248379E0,1.37710495E1,6.9553914E0,2.57609E0,1.2718537E0,2.7049547E1,2.122219E0],"tree_param":{"num_deleted":"0","num_feature":"12","num_nodes":"27","size_leaf_vector":"1"}},{"base_weights":[5.5004075E-2,1.9971608E-1,-3.2041934E-1,-3.1223478E-2,9.448237E-1,-4.38181E-2,9.486481E-3,5.70578E-1,-2.294058E-1,1.20987825E-1,1.4105292E-2,-2.7009953E-2,9.7360425E-2,1.3065158E-1,-3.5345158E-1,-2.8040439E-2,4.1004997E-2,1.8386522E-2,-4.5366757E-2],"categories":[],"categories_nodes":[],"categories_segments":[],"categories_sizes":[],"default_left":[0,0,0,0,0,0,0,0,0,0,0,0,0,0,0,0,0,0,0],"id":48,"left_children":[1,3,5,7,9,-1,-1,11,13,-1,-1,-1,-1,15,17,-1,-1,-1,-1],"loss_changes":[1.3904382E0,3.1678982E0,3.9254665E-1,1.9069142E0,7.555187E-1,0E0,0E0,1.6100323E0,5.783637E-1,0E0,0E0,0E0,0E0,5.4948556E-1,5.7515645E-1,0E0,0E0,0E0,0E0],"parents":[2147483647,0,0,1,1,2,2,3,3,4,4,7,7,8,8,13,13,14,14],"right_children":[2,4,6,8,10,-1,-1,12,14,-1,-1,-1,-1,16,18,-1,-1,-1,-1],"split_conditions":[1.14E2,9.8E1,5E0,3.9E1,5E0,-4.38181E-2,9.486481E-3,3.5E1,2.09E2,1.20987825E-1,1.4105292E-2,-2.7009953E-2,9.7360425E-2,2E0,2.6883E4,-2.8040439E-2,4.1004997E-2,1.8386522E-2,-4.5366757E-2],"split_indices":[2,2,4,2,9,0,0,2,5,0,0,0,0,7,8,0,0,0,0],"split_type":[0,0,0,0,0,0,0,0,0,0,0,0,0,0,0,0,0,0,0],"sum_hessian":[2.3415377E1,1.7238565E1,6.1768117E0,1.3891204E1,3.3473613E0,4.7692623E0,1.4075496E0,2.9758046E0,1.09154E1,2.137303E0,1.2100582E0,1.0711988E0,1.9046057E0,2.7832983E0,8.132101E0,1.1248289E0,1.6584693E0,1.147105E0,6.9849963E0],"tree_param":{"num_deleted":"0","num_feature":"12","num_nodes":"19","size_leaf_vector":"1"}},{"base_weights":[4.8485685E-2,5.4589754E-1,-4.668048E-2,6.655583E-1,-2.7676566E-2,8.158725E-1,-1.3061052E-3,4.116305E-1,1.21123545E-1,8.531386E-2,6.8929195E-3],"categories":[],"categories_nodes":[],"categories_segments":[],"categories_sizes":[],"default_left":[0,0,0,0,0,0,0,0,0,0,0],"id":49,"left_children":[1,3,-1,5,-1,7,-1,9,-1,-1,-1],"loss_changes":[5.5830245E0,1.2708325E0,0E0,1.0236197E0,0E0,8.032441E-1,0E0,7.7977294E-1,0E0,0E0,0E0],"parents":[2147483647,0,0,1,1,3,3,5,5,7,7],"right_children":[2,4,-1,6,-1,8,-1,10,-1,-1,-1],"split_conditions":[1E0,3.2E2,-4.668048E-2,5E0,-2.7676566E-2,6.5E1,-1.3061052E-3,1.81E2,1.21123545E-1,8.531386E-2,6.8929195E-3],"split_indices":[3,1,0,9,0,2,0,5,0,0,0],"split_type":[0,0,0,0,0,0,0,0,0,0,0],"sum_hessian":[1.9787966E1,1.0038431E1,9.749534E0,8.930425E0,1.1080062E0,7.145453E0,1.784972E0,4.542294E0,2.6031592E0,1.3340988E0,3.2081952E0],"tree_param":{"num_deleted":"0","num_feature":"12","num_nodes":"11","size_leaf_vector":"1"}},{"base_weights":[7.3822103E-3,-4.5028204E-1,5.9888196E-1,-4.9587578E-2,2.6071644E-3,8.4873164E-1,2.8748438E-1,9.310415E-2,1.356944E-2,6.4417607E-1,-2.270881E-1,8.1980795E-2,5.712366E-3,-4.13595E-2,1.5746048E-2],"categories":[],"categories_nodes":[],"categories_segments":[],"categories_sizes":[],"default_left":[0,0,0,0,0,0,0,0,0,0,0,0,0,0,0],"id":50,"left_children":[1,3,5,-1,-1,7,9,-1,-1,11,13,-1,-1,-1,-1],"loss_changes":[9.555628E0,4.453473E-1,9.535823E-1,0E0,0E0,3.4482765E-1,1.6815361E0,0E0,0E0,4.8939395E-1,3.6375278E-1,0E0,0E0,0E0,0E0],"parents":[2147483647,0,0,1,1,2,2,5,5,6,6,9,9,10,10],"right_children":[2,4,6,-1,-1,8,10,-1,-1,12,14,-1,-1,-1,-1],"split_conditions":[1.39E2,1.2E2,2E0,-4.9587578E-2,2.6071644E-3,8E0,4E0,9.310415E-2,1.356944E-2,1.94E2,2.16E2,8.1980795E-2,5.712366E-3,-4.13595E-2,1.5746048E-2],"split_indices":[2,2,7,0,0,9,0,0,0,5,2,0,0,0,0],"split_type":[0,0,0,0,0,0,0,0,0,0,0,0,0,0,0],"sum_hessian":[3.3302467E1,1.890993E1,1.4392536E1,1.7220686E1,1.6892434E0,7.028036E0,7.3644996E0,6.026612E0,1.0014247E0,4.2007527E0,3.1637468E0,2.9282186E0,1.2725343E0,2.0796015E0,1.0841452E0],"tree_param":{"num_deleted":"0","num_feature":"12","num_nodes":"15","size_leaf_vector":"1"}},{"base_weights":[-5.571722E-3,-4.7545545E-2,8.899074E-2],"categories":[],"categories_nodes":[],"categories_segments":[],"categories_sizes":[],"default_left":[0,0,0],"id":51,"left_children":[1,-1,-1],"loss_changes":[8.50549E0,0E0,0E0],"parents":[2147483647,0,0],"right_children":[2,-1,-1],"split_conditions":[1.3E1,-4.7545545E-2,8.899074E-2],"split_indices":[4,0,0],"split_type":[0,0,0],"sum_hessian":[1.8208494E1,1.2249748E1,5.958747E0],"tree_param":{"num_deleted":"0","num_feature":"12","num_nodes":"3","size_leaf_vector":"1"}},{"base_weights":[-3.557997E-2,5.4102793E-2,-6.1451817E-1,-2.0385133E-1,3.0283993E-1,-3.2998183E-1,-7.21079E-2,-5.016859E-1,-7.450558E-2,-4.6903946E-2,3.4783906E-1,-5.4634936E-2,1.1763618E-2,3.217183E-3,-5.95564E-1,-5.7529026E-1,1.0202671E-2,4.8348E-2,3.852672E-1,-6.986968E-2,-1.3254917E-3,-8.24608E-3,-7.761409E-2,4.6786334E-2,-1.1792485E-2,4.0247805E-2,-5.0409235E-2,4.0821422E-2,5.8261408E-3],"categories":[],"categories_nodes":[],"categories_segments":[],"categories_sizes":[],"default_left":[0,0,0,0,0,0,0,0,0,0,0,0,0,0,0,0,0,0,0,0,0,0,0,0,0,0,0,0,0],"id":52,"left_children":[1,3,5,7,9,11,-1,13,15,-1,17,-1,-1,-1,19,21,23,25,27,-1,-1,-1,-1,-1,-1,-1,-1,-1,-1],"loss_changes":[3.895514E0,4.25343E0,6.7038536E-2,1.2211134E0,1.3323293E0,5.082663E-1,0E0,5.061588E-1,1.0218813E0,0E0,3.4434414E-1,0E0,0E0,0E0,4.901085E-1,2.8072512E-1,1.314051E0,1.1303324E0,1.911273E-1,0E0,0E0,0E0,0E0,0E0,0E0,0E0,0E0,0E0,0E0],"parents":[2147483647,0,0,1,1,2,2,3,3,4,4,5,5,7,7,8,8,10,10,14,14,15,15,16,16,17,17,18,18],"right_children":[2,4,6,8,10,12,-1,14,16,-1,18,-1,-1,-1,20,22,24,26,28,-1,-1,-1,-1,-1,-1,-1,-1,-1,-1],"split_conditions":[5E0,2.36E2,2.47E2,1.82E2,9.29E3,5E0,-7.21079E-2,1.72E2,3.9E1,-4.6903946E-2,3.6E1,-5.4634936E-2,1.1763618E-2,3.217183E-3,2.4E2,3.7E1,5.9E1,3.09E2,9E0,-6.986968E-2,-1.3254917E-3,-8.24608E-3,-7.761409E-2,4.6786334E-2,-1.1792485E-2,4.0247805E-2,-5.0409235E-2,4.0821422E-2,5.8261408E-3],"split_indices":[4,5,1,5,8,0,0,1,2,0,2,0,0,0,2,2,2,1,0,0,0,0,0,0,0,0,0,0,0],"split_type":[0,0,0,0,0,0,0,0,0,0,0,0,0,0,0,0,0,0,0,0,0,0,0,0,0,0,0,0,0],"sum_hessian":[7.3387695E1,6.432909E1,9.058609E0,3.1668041E1,3.2661045E1,3.5843663E0,5.474242E0,8.717129E0,2.2950912E1,1.2800894E0,3.1380957E1,2.2676632E0,1.3167028E0,1.401949E0,7.31518E0,2.4826083E0,2.0468304E1,3.7406797E0,2.7640276E1,6.0447254E0,1.2704544E0,1.1272414E0,1.3553671E0,3.897001E0,1.6571302E1,2.4448898E0,1.2957901E0,2.55958E1,2.0444767E0],"tree_param":{"num_deleted":"0","num_feature":"12","num_nodes":"29","size_leaf_vector":"1"}},{"base_weights":[5.9471678E-2,1.99632E-1,-3.1356525E-1,-2.3514384E-2,8.6886054E-1,-4.3311175E-2,8.753977E-3,5.2519673E-1,-2.1764009E-1,1.2959035E-1,2.5780642E-1,-2.658098E-2,8.803549E-2,1.2878726E-1,-3.4392124E-1,-2.8263664E-2,6.823697E-2,4.013522E-2,-2.770254E-2,1.8407015E-2,-4.48685E-2],"categories":[],"categories_nodes":[],"categories_segments":[],"categories_sizes":[],"default_left":[0,0,0,0,0,0,0,0,0,0,0,0,0,0,0,0,0,0,0,0,0],"id":53,"left_children":[1,3,5,7,9,-1,-1,11,13,-1,15,-1,-1,17,19,-1,-1,-1,-1,-1,-1],"loss_changes":[1.3226768E0,2.7277656E0,3.7218136E-1,1.6662261E0,8.55747E-1,0E0,0E0,1.3859481E0,5.46031E-1,0E0,9.096893E-1,0E0,0E0,5.305564E-1,5.6258476E-1,0E0,0E0,0E0,0E0,0E0,0E0],"parents":[2147483647,0,0,1,1,2,2,3,3,4,4,7,7,8,8,10,10,13,13,14,14],"right_children":[2,4,6,8,10,-1,-1,12,14,-1,16,-1,-1,18,20,-1,-1,-1,-1,-1,-1],"split_conditions":[1.14E2,9.8E1,5E0,3.9E1,2.3E2,-4.3311175E-2,8.753977E-3,3.5E1,2.09E2,1.2959035E-1,3.34E2,-2.658098E-2,8.803549E-2,2E0,2.6883E4,-2.8263664E-2,6.823697E-2,4.013522E-2,-2.770254E-2,1.8407015E-2,-4.48685E-2],"split_indices":[2,2,4,2,1,0,0,2,5,0,1,0,0,9,8,0,0,0,0,0,0],"split_type":[0,0,0,0,0,0,0,0,0,0,0,0,0,0,0,0,0,0,0,0,0],"sum_hessian":[2.3100212E1,1.7129158E1,5.9710536E0,1.3569448E1,3.5597095E0,4.538569E0,1.4324844E0,3.1004221E0,1.0469027E1,1.4356326E0,2.124077E0,1.0386713E0,2.061751E0,2.791434E0,7.6775928E0,1.0815802E0,1.0424968E0,1.6764406E0,1.1149935E0,1.1458255E0,6.5317674E0],"tree_param":{"num_deleted":"0","num_feature":"12","num_nodes":"21","size_leaf_vector":"1"}},{"base_weights":[5.229707E-2,5.151655E-1,-4.634248E-2,6.248448E-1,-2.7185086E-2,7.6147664E-1,-1.3035041E-3,3.8899434E-1,1.1118354E-1,-5.939838E-3,6.388121E-2],"categories":[],"categories_nodes":[],"categories_segments":[],"categories_sizes":[],"default_left":[0,0,0,0,0,0,0,0,0,0,0],"id":54,"left_children":[1,3,-1,5,-1,7,-1,9,-1,-1,-1],"loss_changes":[5.110139E0,1.139075E0,0E0,8.9524174E-1,0E0,6.614833E-1,0E0,6.6538006E-1,0E0,0E0,0E0],"parents":[2147483647,0,0,1,1,3,3,5,5,7,7],"right_children":[2,4,-1,6,-1,8,-1,10,-1,-1,-1],"split_conditions":[1E0,3.2E2,-4.634248E-2,5E0,-2.7185086E-2,6.5E1,-1.3035041E-3,6.2527E4,1.1118354E-1,-5.939838E-3,6.388121E-2],"split_indices":[3,1,0,9,0,2,0,8,0,0,0],"split_type":[0,0,0,0,0,0,0,0,0,0,0],"sum_hessian":[1.9407066E1,1.0228187E1,9.178879E0,9.157981E0,1.0702057E0,7.3828387E0,1.7751427E0,4.6012816E0,2.781557E0,1.9190506E0,2.6822312E0],"tree_param":{"num_deleted":"0","num_feature":"12","num_nodes":"11","size_leaf_vector":"1"}},{"base_weights":[7.815671E-3,-4.9280237E-2,5.098285E-1,8.350368E-1,1.635996E-1,9.358638E-2,8.8632535E-3,5.5043274E-1,-2.8542176E-1,7.673838E-2,-6.5094366E-4,1.4547842E-2,-4.4760555E-2],"categories":[],"categories_nodes":[],"categories_segments":[],"categories_sizes":[],"default_left":[0,0,0,0,0,0,0,0,0,0,0,0,0],"id":55,"left_children":[1,-1,3,5,7,-1,-1,9,11,-1,-1,-1,-1],"loss_changes":[8.6192255E0,0E0,1.7906613E0,5.629573E-1,1.8131328E0,0E0,0E0,6.6510427E-1,4.1949522E-1,0E0,0E0,0E0,0E0],"parents":[2147483647,0,0,2,2,3,3,4,4,7,7,8,8],"right_children":[2,-1,4,6,8,-1,-1,10,12,-1,-1,-1,-1],"split_conditions":[1.2E2,-4.9280237E-2,2E0,8E0,4E0,9.358638E-2,8.8632535E-3,1.94E2,2E0,7.673838E-2,-6.5094366E-4,1.4547842E-2,-4.4760555E-2],"split_indices":[2,0,7,9,0,0,0,5,4,0,0,0,0],"split_type":[0,0,0,0,0,0,0,0,0,0,0,0,0],"sum_hessian":[3.229656E1,1.617993E1,1.6116629E1,7.5825925E0,8.534037E0,6.456585E0,1.1260076E0,4.463161E0,4.0708756E0,2.9400454E0,1.5231155E0,1.1413822E0,2.9294934E0],"tree_param":{"num_deleted":"0","num_feature":"12","num_nodes":"13","size_leaf_vector":"1"}},{"base_weights":[-8.316472E-3,-4.7261555E-2,8.304058E-2],"categories":[],"categories_nodes":[],"categories_segments":[],"categories_sizes":[],"default_left":[0,0,0],"id":56,"left_children":[1,-1,-1],"loss_changes":[7.597017E0,0E0,0E0],"parents":[2147483647,0,0],"right_children":[2,-1,-1],"split_conditions":[1.3E1,-4.7261555E-2,8.304058E-2],"split_indices":[4,0,0],"split_type":[0,0,0],"sum_hessian":[1.7500824E1,1.1545811E1,5.9550138E0],"tree_param":{"num_deleted":"0","num_feature":"12","num_nodes":"3","size_leaf_vector":"1"}},{"base_weights":[-3.7413117E-2,4.7831554E-2,-5.85653E-1,-1.9293082E-1,2.8790462E-1,-3.0869672E-1,-6.8981454E-2,-8.691884E-2,-5.2453333E-1,-4.49125E-2,3.3359978E-1,-5.2010763E-2,1.1884911E-2,-5.8033943E-1,4.485092E-3,-6.1477005E-1,-3.7546535E-3,3.851008E-2,3.7166592E-1,-8.028505E-2,-1.0878437E-3,4.2955175E-2,-7.7351737E-3,-1.3893859E-2,-6.952874E-2,3.9329577E-2,-4.8527908E-2,3.9559945E-2,4.3226606E-3],"categories":[],"categories_nodes":[],"categories_segments":[],"categories_sizes":[],"default_left":[0,0,0,0,0,0,0,0,0,0,0,0,0,0,0,0,0,0,0,0,0,0,0,0,0,0,0,0,0],"id":57,"left_children":[1,3,5,7,9,11,-1,13,15,-1,17,-1,-1,19,21,23,-1,25,27,-1,-1,-1,-1,-1,-1,-1,-1,-1,-1],"loss_changes":[3.4039154E0,3.7224045E0,6.965041E-2,1.0889356E0,1.2331586E0,4.6740678E-1,0E0,1.1595976E0,3.1175208E-1,0E0,3.323636E-1,0E0,0E0,5.002854E-1,8.2066226E-1,1.4719486E-1,0E0,1.0534804E0,1.9687343E-1,0E0,0E0,0E0,0E0,0E0,0E0,0E0,0E0,0E0,0E0],"parents":[2147483647,0,0,1,1,2,2,3,3,4,4,5,5,7,7,8,8,10,10,13,13,14,14,15,15,17,17,18,18],"right_children":[2,4,6,8,10,12,-1,14,16,-1,18,-1,-1,20,22,24,-1,26,28,-1,-1,-1,-1,-1,-1,-1,-1,-1,-1],"split_conditions":[5E0,2.36E2,2.47E2,1.71E2,9.29E3,5E0,-6.8981454E-2,3.9E1,3E0,-4.49125E-2,3.6E1,-5.2010763E-2,1.1884911E-2,1.73254E5,5.6E1,1.48E2,-3.7546535E-3,3.09E2,9E0,-8.028505E-2,-1.0878437E-3,4.2955175E-2,-7.7351737E-3,-1.3893859E-2,-6.952874E-2,3.9329577E-2,-4.8527908E-2,3.9559945E-2,4.3226606E-3],"split_indices":[4,5,1,2,8,0,0,2,7,0,2,0,0,8,2,5,0,1,0,0,0,0,0,0,0,0,0,0,0],"split_type":[0,0,0,0,0,0,0,0,0,0,0,0,0,0,0,0,0,0,0,0,0,0,0,0,0,0,0,0,0],"sum_hessian":[7.123573E1,6.243985E1,8.795887E0,3.127321E1,3.1166637E1,3.4872453E0,5.3086414E0,2.4653654E1,6.6195564E0,1.3040789E0,2.9862558E1,2.1885602E0,1.2986851E0,3.0171535E0,2.1636501E1,5.363353E0,1.2562037E0,3.6419246E0,2.6220634E1,1.8747653E0,1.1423882E0,2.8071373E0,1.8829365E1,1.1706666E0,4.192686E0,2.3197727E0,1.3221519E0,2.4249107E1,1.9715271E0],"tree_param":{"num_deleted":"0","num_feature":"12","num_nodes":"29","size_leaf_vector":"1"}},{"base_weights":[6.411066E-2,1.994399E-1,-3.060243E-1,-1.7554361E-2,8.146051E-1,-4.2770054E-2,8.252534E-3,4.8488212E-1,-2.0693006E-1,1.19890235E-1,2.4547113E-1,-2.6156059E-2,8.013083E-2,1.2453956E-1,-3.3459416E-1,-2.7959017E-2,6.432348E-2,-2.7600175E-2,3.8629662E-2,1.8330757E-2,-4.437725E-2],"categories":[],"categories_nodes":[],"categories_segments":[],"categories_sizes":[],"default_left":[0,0,0,0,0,0,0,0,0,0,0,0,0,0,0,0,0,0,0,0,0],"id":58,"left_children":[1,3,5,7,9,-1,-1,11,13,-1,15,-1,-1,17,19,-1,-1,-1,-1,-1,-1],"loss_changes":[1.2510253E0,2.4173303E0,3.546589E-1,1.459701E0,7.370157E-1,0E0,0E0,1.2039487E0,5.104016E-1,0E0,8.393999E-1,0E0,0E0,5.05938E-1,5.488523E-1,0E0,0E0,0E0,0E0,0E0,0E0],"parents":[2147483647,0,0,1,1,2,2,3,3,4,4,7,7,8,8,10,10,13,13,14,14],"right_children":[2,4,6,8,10,-1,-1,12,14,-1,16,-1,-1,18,20,-1,-1,-1,-1,-1,-1],"split_conditions":[1.14E2,9.8E1,5E0,3.9E1,2.3E2,-4.2770054E-2,8.252534E-3,3.5E1,2.09E2,1.19890235E-1,3.34E2,-2.6156059E-2,8.013083E-2,2E0,2.6883E4,-2.7959017E-2,6.432348E-2,-2.7600175E-2,3.8629662E-2,1.8330757E-2,-4.437725E-2],"split_indices":[2,2,4,2,1,0,0,2,5,0,1,0,0,7,8,0,0,0,0,0,0],"split_type":[0,0,0,0,0,0,0,0,0,0,0,0,0,0,0,0,0,0,0,0,0],"sum_hessian":[2.2757038E1,1.7001938E1,5.7551007E0,1.328665E1,3.7152877E0,4.305919E0,1.4491814E0,3.2099206E0,1.0076729E1,1.5572474E0,2.1580403E0,1.0072441E0,2.2026765E0,2.8086832E0,7.268046E0,1.0582327E0,1.0998075E0,1.0885545E0,1.7201288E0,1.147196E0,6.12085E0],"tree_param":{"num_deleted":"0","num_feature":"12","num_nodes":"21","size_leaf_vector":"1"}},{"base_weights":[5.3313468E-2,4.789695E-1,-4.5990597E-2,5.788253E-1,-2.6779214E-2,7.027999E-1,-1.6442646E-3,3.645407E-1,1.0103233E-1,7.514968E-2,5.912365E-3],"categories":[],"categories_nodes":[],"categories_segments":[],"categories_sizes":[],"default_left":[0,0,0,0,0,0,0,0,0,0,0],"id":59,"left_children":[1,3,-1,5,-1,7,-1,9,-1,-1,-1],"loss_changes":[4.6174035E0,1.0119913E0,0E0,7.8299737E-1,0E0,5.340333E-1,0E0,6.2865376E-1,0E0,0E0,0E0],"parents":[2147483647,0,0,1,1,3,3,5,5,7,7],"right_children":[2,4,-1,6,-1,8,-1,10,-1,-1,-1],"split_conditions":[1E0,3.2E2,-4.5990597E-2,5E0,-2.6779214E-2,6.5E1,-1.6442646E-3,1.81E2,1.0103233E-1,7.514968E-2,5.912365E-3],"split_indices":[3,1,0,9,0,2,0,5,0,0,0],"split_type":[0,0,0,0,0,0,0,0,0,0,0],"sum_hessian":[1.912828E1,1.0492611E1,8.63567E0,9.4534025E0,1.0392079E0,7.6744285E0,1.7789743E0,4.6952796E0,2.9791489E0,1.4268879E0,3.2683918E0],"tree_param":{"num_deleted":"0","num_feature":"12","num_nodes":"11","size_leaf_vector":"1"}},{"base_weights":[7.2429185E-3,-4.896936E-2,4.7797242E-1,7.786428E-1,1.5114047E-1,8.722999E-2,8.073283E-3,5.190307E-1,-2.8032577E-1,7.23496E-2,-7.706123E-4,-4.416204E-2,1.5952028E-2],"categories":[],"categories_nodes":[],"categories_segments":[],"categories_sizes":[],"default_left":[0,0,0,0,0,0,0,0,0,0,0,0,0],"id":60,"left_children":[1,-1,3,5,7,-1,-1,9,11,-1,-1,-1,-1],"loss_changes":[7.7881246E0,0E0,1.561713E0,4.9565077E-1,1.6422684E0,0E0,0E0,5.9150696E-1,4.2439756E-1,0E0,0E0,0E0,0E0],"parents":[2147483647,0,0,2,2,3,3,4,4,7,7,8,8],"right_children":[2,-1,4,6,8,-1,-1,10,12,-1,-1,-1,-1],"split_conditions":[1.2E2,-4.896936E-2,2E0,8E0,4E0,8.722999E-2,8.073283E-3,1.94E2,2.16E2,7.23496E-2,-7.706123E-4,-4.416204E-2,1.5952028E-2],"split_indices":[2,0,7,9,0,0,0,5,2,0,0,0,0],"split_type":[0,0,0,0,0,0,0,0,0,0,0,0,0],"sum_hessian":[3.1293001E1,1.5203153E1,1.6089848E1,7.660315E0,8.429533E0,6.5336475E0,1.1266675E0,4.4404397E0,3.9890928E0,2.9296746E0,1.5107653E0,2.9158108E0,1.0732819E0],"tree_param":{"num_deleted":"0","num_feature":"12","num_nodes":"13","size_leaf_vector":"1"}},{"base_weights":[-1.1039585E-2,-4.6969563E-2,7.805725E-2],"categories":[],"categories_nodes":[],"categories_segments":[],"categories_sizes":[],"default_left":[0,0,0],"id":61,"left_children":[1,-1,-1],"loss_changes":[6.8231115E0,0E0,0E0],"parents":[2147483647,0,0],"right_children":[2,-1,-1],"split_conditions":[1.3E1,-4.6969563E-2,7.805725E-2],"split_indices":[4,0,0],"split_type":[0,0,0],"sum_hessian":[1.6782642E1,1.0883472E1,5.89917E0],"tree_param":{"num_deleted":"0","num_feature":"12","num_nodes":"3","size_leaf_vector":"1"}},{"base_weights":[-3.9144434E-2,4.1941445E-2,-5.6088233E-1,-1.8220109E-1,2.7311322E-1,-2.2941537E-2,-6.3039E-2,-4.5436525E-1,-6.620876E-2,-4.3000642E-2,3.1941748E-1,4.412641E-3,-5.454666E-1,-1.6163234E-1,3.3490935E-1,2.2945058E-1,4.9584225E-2,-6.53087E-2,1.0248137E-3,2.5504024E-3,-5.63034E-2,4.4758048E-2,-4.8199054E-3,3.303584E-2,-2.6918998E-2],"categories":[],"categories_nodes":[],"categories_segments":[],"categories_sizes":[],"default_left":[0,0,0,0,0,0,0,0,0,0,0,0,0,0,0,0,0,0,0,0,0,0,0,0,0],"id":62,"left_children":[1,3,5,7,9,-1,-1,11,13,-1,15,-1,17,19,21,23,-1,-1,-1,-1,-1,-1,-1,-1,-1],"loss_changes":[2.991569E0,3.2442274E0,7.440233E-2,9.77003E-1,1.1384828E0,0E0,0E0,4.4924724E-1,9.5510405E-1,0E0,3.5325122E-1,0E0,4.8458123E-1,1.4933829E0,2.3088586E-1,1.1630828E0,0E0,0E0,0E0,0E0,0E0,0E0,0E0,0E0,0E0],"parents":[2147483647,0,0,1,1,2,2,3,3,4,4,7,7,8,8,10,10,12,12,13,13,14,14,15,15],"right_children":[2,4,6,8,10,-1,-1,12,14,-1,16,-1,18,20,22,24,-1,-1,-1,-1,-1,-1,-1,-1,-1],"split_conditions":[5E0,2.36E2,9.911E3,1.82E2,9.29E3,-2.2941537E-2,-6.3039E-2,1.72E2,1.75214E5,-4.3000642E-2,1.49E2,4.412641E-3,2.4E2,1E0,2.19E2,1.35E2,4.9584225E-2,-6.53087E-2,1.0248137E-3,2.5504024E-3,-5.63034E-2,4.4758048E-2,-4.8199054E-3,3.303584E-2,-2.6918998E-2],"split_indices":[4,5,8,5,8,0,0,1,8,0,3,0,2,6,5,3,0,0,0,0,0,0,0,0,0],"split_type":[0,0,0,0,0,0,0,0,0,0,0,0,0,0,0,0,0,0,0,0,0,0,0,0,0],"sum_hessian":[6.9157295E1,6.0650856E1,8.506439E0,3.0901154E1,2.9749704E1,2.2200546E0,6.2863846E0,8.362411E0,2.2538742E1,1.326133E0,2.842357E1,1.3717968E0,6.990614E0,1.8689636E1,3.8491066E0,2.0347849E1,8.075723E0,5.709656E0,1.280958E0,1.3385623E1,5.3040123E0,2.8443146E0,1.0047921E0,1.7203857E1,3.1439903E0],"tree_param":{"num_deleted":"0","num_feature":"12","num_nodes":"25","size_leaf_vector":"1"}},{"base_weights":[6.7808874E-2,1.9816893E-1,-2.984754E-1,-1.3042829E-2,7.677933E-1,-4.221947E-2,7.7908034E-3,4.4461116E-1,-1.9623025E-1,1.1152017E-1,2.3523931E-1,5.9568312E-2,8.35192E-3,1.2110969E-1,-3.2518977E-1,-2.9179255E-2,6.761375E-2,3.8152277E-2,-2.7500285E-2,1.8243613E-2,-4.3879867E-2],"categories":[],"categories_nodes":[],"categories_segments":[],"categories_sizes":[],"default_left":[0,0,0,0,0,0,0,0,0,0,0,0,0,0,0,0,0,0,0,0,0],"id":63,"left_children":[1,3,5,7,9,-1,-1,11,13,-1,15,-1,-1,17,19,-1,-1,-1,-1,-1,-1],"loss_changes":[1.1778829E0,2.1612673E0,3.378452E-1,1.2632518E0,6.3559437E-1,0E0,0E0,1.856904E-1,4.7773638E-1,0E0,9.370152E-1,0E0,0E0,4.993477E-1,5.349406E-1,0E0,0E0,0E0,0E0,0E0,0E0],"parents":[2147483647,0,0,1,1,2,2,3,3,4,4,7,7,8,8,10,10,13,13,14,14],"right_children":[2,4,6,8,10,-1,-1,12,14,-1,16,-1,-1,18,20,-1,-1,-1,-1,-1,-1],"split_conditions":[1.14E2,9.8E1,5E0,3.9E1,2.3E2,-4.221947E-2,7.7908034E-3,2.36E2,2.09E2,1.1152017E-1,1.08E2,5.9568312E-2,8.35192E-3,2E0,2.6883E4,-2.9179255E-2,6.761375E-2,3.8152277E-2,-2.7500285E-2,1.8243613E-2,-4.3879867E-2],"split_indices":[2,2,4,2,1,0,0,5,5,0,2,0,0,9,8,0,0,0,0,0,0],"split_type":[0,0,0,0,0,0,0,0,0,0,0,0,0,0,0,0,0,0,0,0,0],"sum_hessian":[2.2429562E1,1.6880714E1,5.5488467E0,1.3027378E1,3.8533356E0,4.0845265E0,1.4643204E0,3.315997E0,9.711382E0,1.6699142E0,2.1834214E0,1.8798449E0,1.436152E0,2.823721E0,6.8876605E0,1.148608E0,1.0348135E0,1.7259051E0,1.0978158E0,1.1487963E0,5.7388644E0],"tree_param":{"num_deleted":"0","num_feature":"12","num_nodes":"21","size_leaf_vector":"1"}},{"base_weights":[5.6608655E-2,4.5359132E-1,-4.563335E-2,5.463902E-1,-2.637783E-2,6.613253E-1,-1.719239E-3,3.3313912E-1,9.493979E-1,6.188347E-2,-7.0742625E-3,1.1774905E-1,1.7927479E-2],"categories":[],"categories_nodes":[],"categories_segments":[],"categories_sizes":[],"default_left":[0,0,0,0,0,0,0,0,0,0,0,0,0],"id":64,"left_children":[1,3,-1,5,-1,7,-1,9,11,-1,-1,-1,-1],"loss_changes":[4.2356105E0,9.199579E-1,0E0,7.008965E-1,0E0,5.2202296E-1,0E0,6.9981503E-1,5.2343154E-1,0E0,0E0,0E0,0E0],"parents":[2147483647,0,0,1,1,3,3,5,5,7,7,8,8],"right_children":[2,4,-1,6,-1,8,-1,10,12,-1,-1,-1,-1],"split_conditions":[1E0,3.2E2,-4.563335E-2,5E0,-2.637783E-2,2.73E2,-1.719239E-3,1.88E2,1E0,6.188347E-2,-7.0742625E-3,1.1774905E-1,1.7927479E-2],"split_indices":[3,1,0,9,0,1,0,5,6,0,0,0,0],"split_type":[0,0,0,0,0,0,0,0,0,0,0,0,0],"sum_hessian":[1.8784111E1,1.0654191E1,8.12992E0,9.644874E0,1.0093179E0,7.867061E0,1.7778124E0,4.6855264E0,3.1815348E0,2.4325707E0,2.2529554E0,2.0464578E0,1.1350769E0],"tree_param":{"num_deleted":"0","num_feature":"12","num_nodes":"13","size_leaf_vector":"1"}},{"base_weights":[6.158486E-3,-4.8657224E-2,4.488223E-1,7.3328966E-1,1.3576593E-1,8.2327414E-1,7.099893E-3,4.8778632E-1,-2.7756372E-1,1.9915512E-2,8.8983886E-2,6.812646E-2,-9.0492266E-4,-4.420577E-2,1.4930625E-2],"categories":[],"categories_nodes":[],"categories_segments":[],"categories_sizes":[],"default_left":[0,0,0,0,0,0,0,0,0,0,0,0,0,0,0],"id":65,"left_children":[1,-1,3,5,7,9,-1,11,13,-1,-1,-1,-1,-1,-1],"loss_changes":[7.043205E0,0E0,1.4146037E0,4.5889187E-1,1.4917164E0,1.3636494E-1,0E0,5.2495444E-1,4.118139E-1,0E0,0E0,0E0,0E0,0E0,0E0],"parents":[2147483647,0,0,2,2,3,3,4,4,5,5,7,7,8,8],"right_children":[2,-1,4,6,8,10,-1,12,14,-1,-1,-1,-1,-1,-1],"split_conditions":[1.2E2,-4.8657224E-2,2E0,8E0,4E0,9.88E3,7.099893E-3,1.94E2,1.64E2,1.9915512E-2,8.8983886E-2,6.812646E-2,-9.0492266E-4,-4.420577E-2,1.4930625E-2],"split_indices":[2,0,7,9,0,8,0,5,3,0,0,0,0,0,0],"split_type":[0,0,0,0,0,0,0,0,0,0,0,0,0,0,0],"sum_hessian":[3.0290146E1,1.4287493E1,1.6002653E1,7.6808643E0,8.321789E0,6.5481114E0,1.1327528E0,4.396923E0,3.9248655E0,1.0157949E0,5.5323167E0,2.8974047E0,1.4995182E0,2.8074415E0,1.1174242E0],"tree_param":{"num_deleted":"0","num_feature":"12","num_nodes":"15","size_leaf_vector":"1"}},{"base_weights":[-1.3172149E-2,-4.6675015E-2,7.4014924E-2],"categories":[],"categories_nodes":[],"categories_segments":[],"categories_sizes":[],"default_left":[0,0,0],"id":66,"left_children":[1,-1,-1],"loss_changes":[6.177903E0,0E0,0E0],"parents":[2147483647,0,0],"right_children":[2,-1,-1],"split_conditions":[1.3E1,-4.6675015E-2,7.4014924E-2],"split_indices":[4,0,0],"split_type":[0,0,0],"sum_hessian":[1.6069386E1,1.0267618E1,5.801766E0],"tree_param":{"num_deleted":"0","num_feature":"12","num_nodes":"3","size_leaf_vector":"1"}},{"base_weights":[-4.0314917E-2,3.671597E-2,-5.367277E-1,-1.7263141E-1,2.587398E-1,-2.6279655E-1,-6.426177E-2,-7.7875204E-2,-4.742793E-1,-4.1064467E-2,3.0543372E-1,-4.719897E-2,1.3250534E-2,-5.2649635E-1,7.5250478E-3,-5.556061E-1,-4.2123375E-3,2.140691E-1,4.887169E-2,-7.327979E-2,2.7644628E-4,4.168667E-2,-6.894042E-3,-1.0047283E-2,-6.3697025E-2,3.157098E-2,-2.6056925E-2],"categories":[],"categories_nodes":[],"categories_segments":[],"categories_sizes":[],"default_left":[0,0,0,0,0,0,0,0,0,0,0,0,0,0,0,0,0,0,0,0,0,0,0,0,0,0,0],"id":67,"left_children":[1,3,5,7,9,11,-1,13,15,-1,17,-1,-1,19,21,23,-1,25,-1,-1,-1,-1,-1,-1,-1,-1,-1],"loss_changes":[2.6229103E0,2.8273444E0,9.823871E-2,8.609588E-1,1.0460637E0,4.1475454E-1,0E0,9.656372E-1,2.3360431E-1,0E0,3.6605573E-1,0E0,0E0,4.418552E-1,7.1962565E-1,1.6087162E-1,0E0,1.0730023E0,0E0,0E0,0E0,0E0,0E0,0E0,0E0,0E0,0E0],"parents":[2147483647,0,0,1,1,2,2,3,3,4,4,5,5,7,7,8,8,10,10,13,13,14,14,15,15,17,17],"right_children":[2,4,6,8,10,12,-1,14,16,-1,18,-1,-1,20,22,24,-1,26,-1,-1,-1,-1,-1,-1,-1,-1,-1],"split_conditions":[5E0,2.36E2,2.47E2,1.71E2,9.29E3,5E0,-6.426177E-2,3.9E1,3E0,-4.1064467E-2,1.49E2,-4.719897E-2,1.3250534E-2,1.73254E5,5.6E1,1.48E2,-4.2123375E-3,1.35E2,4.887169E-2,-7.327979E-2,2.7644628E-4,4.168667E-2,-6.894042E-3,-1.0047283E-2,-6.3697025E-2,3.157098E-2,-2.6056925E-2],"split_indices":[4,5,1,2,8,0,0,2,7,0,3,0,0,8,2,5,0,3,0,0,0,0,0,0,0,0,0],"split_type":[0,0,0,0,0,0,0,0,0,0,0,0,0,0,0,0,0,0,0,0,0,0,0,0,0,0,0],"sum_hessian":[6.707697E1,5.8868145E1,8.20883E0,3.0413534E1,2.845461E1,3.2592154E0,4.9496145E0,2.4100916E1,6.312619E0,1.3472075E0,2.7107403E1,2.00446E0,1.2547554E0,3.0282087E0,2.1072706E1,5.0723915E0,1.2402278E0,1.9536596E1,7.570807E0,1.902184E0,1.1260247E0,2.6161268E0,1.845658E1,1.1082016E0,3.9641898E0,1.636663E1,3.1699648E0],"tree_param":{"num_deleted":"0","num_feature":"12","num_nodes":"27","size_leaf_vector":"1"}},{"base_weights":[7.144547E-2,1.9722979E-1,-2.9120904E-1,-7.133387E-3,7.210265E-1,-4.1675504E-2,7.3193433E-3,4.2118227E-1,-1.8661106E-1,9.295897E-2,8.553937E-3,5.4896165E-2,8.991243E-3,1.1564591E-1,-3.1607246E-1,-2.724647E-2,3.6119178E-2,1.8011821E-2,-4.338725E-2],"categories":[],"categories_nodes":[],"categories_segments":[],"categories_sizes":[],"default_left":[0,0,0,0,0,0,0,0,0,0,0,0,0,0,0,0,0,0,0],"id":68,"left_children":[1,3,5,7,9,-1,-1,11,13,-1,-1,-1,-1,15,17,-1,-1,-1,-1],"loss_changes":[1.1121423E0,1.9066045E0,3.2138085E-1,1.1369909E0,5.825403E-1,0E0,0E0,1.3573366E-1,4.4333118E-1,0E0,0E0,0E0,0E0,4.6526018E-1,5.192194E-1,0E0,0E0,0E0,0E0],"parents":[2147483647,0,0,1,1,2,2,3,3,4,4,7,7,8,8,13,13,14,14],"right_children":[2,4,6,8,10,-1,-1,12,14,-1,-1,-1,-1,16,18,-1,-1,-1,-1],"split_conditions":[1.14E2,9.8E1,5E0,3.9E1,5E0,-4.1675504E-2,7.3193433E-3,2.36E2,2.09E2,9.295897E-2,8.553937E-3,5.4896165E-2,8.991243E-3,2E0,2.6883E4,-2.724647E-2,3.6119178E-2,1.8011821E-2,-4.338725E-2],"split_indices":[2,2,4,2,9,0,0,5,5,0,0,0,0,7,8,0,0,0,0],"split_type":[0,0,0,0,0,0,0,0,0,0,0,0,0,0,0,0,0,0,0],"sum_hessian":[2.2121305E1,1.6763237E1,5.3580685E0,1.2768064E1,3.9951737E0,3.8782458E0,1.4798224E0,3.3726559E0,9.395408E0,2.6595318E0,1.3356419E0,1.9596318E0,1.4130241E0,2.849446E0,6.5459614E0,1.0616966E0,1.7877494E0,1.1544087E0,5.391553E0],"tree_param":{"num_deleted":"0","num_feature":"12","num_nodes":"19","size_leaf_vector":"1"}},{"base_weights":[5.7830114E-2,4.2688385E-1,-4.526026E-2,8.3224766E-2,2.3382647E-1,4.1252106E-1,-3.4559067E-2,5.7408303E-1,-2.8536702E-2,7.472471E-2,2.9791729E-3],"categories":[],"categories_nodes":[],"categories_segments":[],"categories_sizes":[],"default_left":[0,0,0,0,0,0,0,0,0,0,0],"id":69,"left_children":[1,3,-1,-1,5,7,-1,9,-1,-1,-1],"loss_changes":[3.8569834E0,7.2903895E-1,0E0,0E0,1.1143342E0,1.0240285E0,0E0,5.9292316E-1,0E0,0E0,0E0],"parents":[2147483647,0,0,1,1,4,4,5,5,7,7],"right_children":[2,4,-1,-1,6,8,-1,10,-1,-1,-1],"split_conditions":[1E0,1.81E2,-4.526026E-2,8.3224766E-2,1.14548E5,5E0,-3.4559067E-2,6.8E1,-2.8536702E-2,7.472471E-2,2.9791729E-3],"split_indices":[3,5,0,0,8,9,0,2,0,0,0],"split_type":[0,0,0,0,0,0,0,0,0,0,0],"sum_hessian":[1.844915E1,1.0802439E1,7.6467113E0,2.4168606E0,8.385579E0,6.62916E0,1.7564186E0,5.5270424E0,1.1021175E0,3.91016E0,1.6168824E0],"tree_param":{"num_deleted":"0","num_feature":"12","num_nodes":"11","size_leaf_vector":"1"}},{"base_weights":[5.4831556E-3,-4.833635E-2,4.234658E-1,6.9419885E-1,1.2340118E-1,7.822316E-1,6.098399E-3,4.6091843E-1,-2.733495E-1,1.9148415E-2,8.46471E-2,6.482131E-2,-1.2812839E-3,1.4744445E-2,-4.390698E-2],"categories":[],"categories_nodes":[],"categories_segments":[],"categories_sizes":[],"default_left":[0,0,0,0,0,0,0,0,0,0,0,0,0,0,0],"id":70,"left_children":[1,-1,3,5,7,9,-1,11,13,-1,-1,-1,-1,-1,-1],"loss_changes":[6.3884687E0,0E0,1.282974E0,4.3394232E-1,1.3589057E0,1.225791E-1,0E0,4.8274398E-1,4.03637E-1,0E0,0E0,0E0,0E0,0E0,0E0],"parents":[2147483647,0,0,2,2,3,3,4,4,5,5,7,7,8,8],"right_children":[2,-1,4,6,8,10,-1,12,14,-1,-1,-1,-1,-1,-1],"split_conditions":[1.2E2,-4.833635E-2,2E0,8E0,4E0,9.88E3,6.098399E-3,1.94E2,2E0,1.9148415E-2,8.46471E-2,6.482131E-2,-1.2812839E-3,1.4744445E-2,-4.390698E-2],"split_indices":[2,0,7,9,0,8,0,5,4,0,0,0,0,0,0],"split_type":[0,0,0,0,0,0,0,0,0,0,0,0,0,0,0],"sum_hessian":[2.9263783E1,1.3416387E1,1.5847396E1,7.6403756E0,8.20702E0,6.50121E0,1.1391654E0,4.3471503E0,3.8598697E0,1.0280464E0,5.4731636E0,2.8514755E0,1.495675E0,1.1217709E0,2.738099E0],"tree_param":{"num_deleted":"0","num_feature":"12","num_nodes":"15","size_leaf_vector":"1"}},{"base_weights":[-1.5419512E-2,-4.6368565E-2,7.0431866E-2],"categories":[],"categories_nodes":[],"categories_segments":[],"categories_sizes":[],"default_left":[0,0,0],"id":71,"left_children":[1,-1,-1],"loss_changes":[5.6035504E0,0E0,0E0],"parents":[2147483647,0,0],"right_children":[2,-1,-1],"split_conditions":[1.3E1,-4.6368565E-2,7.0431866E-2],"split_indices":[4,0,0],"split_type":[0,0,0],"sum_hessian":[1.5355884E1,9.681701E0,5.6741824E0],"tree_param":{"num_deleted":"0","num_feature":"12","num_nodes":"3","size_leaf_vector":"1"}},{"base_weights":[-4.1345242E-2,3.2008514E-2,-5.1679164E-1,-1.639467E-1,2.4551383E-1,-2.4606879E-1,-6.2227882E-2,-4.1127023E-1,-6.0949046E-2,-3.8596068E-2,2.9207763E-1,-4.5233835E-2,1.3329483E-2,5.6080013E-3,-5.007321E-1,-1.5111001E-1,3.2860482E-1,2.0031239E-1,4.812425E-2,-6.1270993E-2,3.0549588E-3,2.1107965E-3,-5.0838947E-2,4.312079E-2,-1.7743431E-3,3.0262414E-2,-2.541315E-2],"categories":[],"categories_nodes":[],"categories_segments":[],"categories_sizes":[],"default_left":[0,0,0,0,0,0,0,0,0,0,0,0,0,0,0,0,0,0,0,0,0,0,0,0,0,0,0],"id":72,"left_children":[1,3,5,7,9,11,-1,13,15,-1,17,-1,-1,-1,19,21,23,25,-1,-1,-1,-1,-1,-1,-1,-1,-1],"loss_changes":[2.3226645E0,2.4763355E0,1.0094333E-1,7.636291E-1,9.43866E-1,3.849291E-1,0E0,4.013976E-1,8.5860676E-1,0E0,3.704524E-1,0E0,0E0,0E0,4.705584E-1,1.2036986E0,1.7267656E-1,9.985451E-1,0E0,0E0,0E0,0E0,0E0,0E0,0E0,0E0,0E0],"parents":[2147483647,0,0,1,1,2,2,3,3,4,4,5,5,7,7,8,8,10,10,14,14,15,15,16,16,17,17],"right_children":[2,4,6,8,10,12,-1,14,16,-1,18,-1,-1,-1,20,22,24,26,-1,-1,-1,-1,-1,-1,-1,-1,-1],"split_conditions":[5E0,2.36E2,2.47E2,1.82E2,9.29E3,5E0,-6.2227882E-2,1.72E2,1.75214E5,-3.8596068E-2,1.49E2,-4.5233835E-2,1.3329483E-2,5.6080013E-3,2.4E2,1E0,2E0,1.35E2,4.812425E-2,-6.1270993E-2,3.0549588E-3,2.1107965E-3,-5.0838947E-2,4.312079E-2,-1.7743431E-3,3.0262414E-2,-2.541315E-2],"split_indices":[4,5,1,5,8,0,0,1,8,0,3,0,0,0,2,6,9,3,0,0,0,0,0,0,0,0,0],"split_type":[0,0,0,0,0,0,0,0,0,0,0,0,0,0,0,0,0,0,0,0,0,0,0,0,0,0,0],"sum_hessian":[6.51239E1,5.7227318E1,7.896581E0,2.9961119E1,2.7266201E1,3.148625E0,4.7479563E0,7.928874E0,2.2032244E1,1.3719306E0,2.589427E1,1.9150195E0,1.2336053E0,1.3338679E0,6.595006E0,1.8388403E1,3.643841E0,1.8822344E1,7.071926E0,5.320369E0,1.2746376E0,1.30425E1,5.345903E0,2.6220622E0,1.0217788E0,1.5636158E1,3.1861863E0],"tree_param":{"num_deleted":"0","num_feature":"12","num_nodes":"27","size_leaf_vector":"1"}},{"base_weights":[7.3351026E-2,2.730965E-1,-1.5024786E-1,-3.459129E-2,4.1193762E-1,-4.2910364E-2,1.1103914E-1,5.297609E-1,-2.8325984E-2,5.446618E-1,-3.7947778E-2,8.7820494E-1,2.5997183E-1,-6.4702815E-4,1.0055979E-1,1.1771667E-2,1.13630615E-1,5.323523E-2,-3.3255097E-2],"categories":[],"categories_nodes":[],"categories_segments":[],"categories_sizes":[],"default_left":[0,0,0,0,0,0,0,0,0,0,0,0,0,0,0,0,0,0,0],"id":73,"left_children":[1,3,5,-1,7,-1,9,11,-1,13,-1,15,17,-1,-1,-1,-1,-1,-1],"loss_changes":[1.0623685E0,1.211035E0,8.807951E-1,0E0,1.0192658E0,0E0,1.6312907E0,6.574402E-1,0E0,1.013932E0,0E0,5.9076333E-1,1.2633595E0,0E0,0E0,0E0,0E0,0E0,0E0],"parents":[2147483647,0,0,1,1,2,2,4,4,6,6,7,7,9,9,11,11,12,12],"right_children":[2,4,6,-1,8,-1,10,12,-1,14,-1,16,18,-1,-1,-1,-1,-1,-1],"split_conditions":[5.8437E4,1.85E2,8.3578E4,-3.459129E-2,1.71E2,-4.2910364E-2,1.73254E5,2.36E2,-2.8325984E-2,3E0,-3.7947778E-2,1.34E2,3E0,-6.4702815E-4,1.0055979E-1,1.1771667E-2,1.13630615E-1,5.323523E-2,-3.3255097E-2],"split_indices":[8,5,8,0,3,0,8,1,0,0,0,3,9,0,0,0,0,0,0],"split_type":[0,0,0,0,0,0,0,0,0,0,0,0,0,0,0,0,0,0,0],"sum_hessian":[2.1867687E1,1.1432993E1,1.0434695E1,1.8213323E0,9.611661E0,4.7369576E0,5.6977377E0,8.422219E0,1.1894416E0,2.9656687E0,2.7320688E0,2.6912284E0,5.730991E0,1.7997303E0,1.1659384E0,1.0508918E0,1.6403365E0,3.9957225E0,1.7352682E0],"tree_param":{"num_deleted":"0","num_feature":"12","num_nodes":"19","size_leaf_vector":"1"}},{"base_weights":[5.9726328E-2,4.0464E-1,-4.4888835E-2,7.918147E-2,2.2152458E-1,3.8820317E-1,-3.408992E-2,5.3650814E-1,-2.8077021E-2,6.929397E-2,2.8120666E-3],"categories":[],"categories_nodes":[],"categories_segments":[],"categories_sizes":[],"default_left":[0,0,0,0,0,0,0,0,0,0,0],"id":74,"left_children":[1,3,-1,-1,5,7,-1,9,-1,-1,-1],"loss_changes":[3.5382686E0,6.702442E-1,0E0,0E0,1.0216221E0,9.230232E-1,0E0,5.146259E-1,0E0,0E0,0E0],"parents":[2147483647,0,0,1,1,4,4,5,5,7,7],"right_children":[2,4,-1,-1,6,8,-1,10,-1,-1,-1],"split_conditions":[1E0,1.81E2,-4.4888835E-2,7.918147E-2,1.14548E5,5E0,-3.408992E-2,6.8E1,-2.8077021E-2,6.929397E-2,2.8120666E-3],"split_indices":[3,5,0,0,8,9,0,2,0,0,0],"split_type":[0,0,0,0,0,0,0,0,0,0,0],"sum_hessian":[1.8133932E1,1.0927767E1,7.206165E0,2.441465E0,8.486302E0,6.7852182E0,1.7010838E0,5.7160397E0,1.0691787E0,4.0934615E0,1.6225783E0],"tree_param":{"num_deleted":"0","num_feature":"12","num_nodes":"11","size_leaf_vector":"1"}},{"base_weights":[5.331858E-3,-4.8021957E-2,4.024481E-1,6.6324687E-1,1.1148226E-1,7.500892E-1,5.2473256E-3,4.3642128E-1,-2.6926836E-1,1.845906E-2,8.130534E-2,6.16996E-2,-1.4778043E-3,-4.318003E-2,1.4997606E-2],"categories":[],"categories_nodes":[],"categories_segments":[],"categories_sizes":[],"default_left":[0,0,0,0,0,0,0,0,0,0,0,0,0,0,0],"id":75,"left_children":[1,-1,3,5,7,9,-1,11,13,-1,-1,-1,-1,-1,-1],"loss_changes":[5.8324327E0,0E0,1.188154E0,4.1512847E-1,1.238842E0,1.1435509E-1,0E0,4.3862712E-1,3.9127016E-1,0E0,0E0,0E0,0E0,0E0,0E0],"parents":[2147483647,0,0,2,2,3,3,4,4,5,5,7,7,8,8],"right_children":[2,-1,4,6,8,10,-1,12,14,-1,-1,-1,-1,-1,-1],"split_conditions":[1.2E2,-4.8021957E-2,2E0,8E0,4E0,9.88E3,5.2473256E-3,1.94E2,2.16E2,1.845906E-2,8.130534E-2,6.16996E-2,-1.4778043E-3,-4.318003E-2,1.4997606E-2],"split_indices":[2,0,7,9,0,8,0,5,2,0,0,0,0,0,0],"split_type":[0,0,0,0,0,0,0,0,0,0,0,0,0,0,0],"sum_hessian":[2.8245718E1,1.2613728E1,1.563199E1,7.568615E0,8.063375E0,6.4267373E0,1.1418774E0,4.2716575E0,3.7917178E0,1.0377843E0,5.388953E0,2.7882953E0,1.4833624E0,2.7108366E0,1.080881E0],"tree_param":{"num_deleted":"0","num_feature":"12","num_nodes":"15","size_leaf_vector":"1"}},{"base_weights":[-1.8184822E-2,-4.605968E-2,6.724446E-2],"categories":[],"categories_nodes":[],"categories_segments":[],"categories_sizes":[],"default_left":[0,0,0],"id":76,"left_children":[1,-1,-1],"loss_changes":[5.0929184E0,0E0,0E0],"parents":[2147483647,0,0],"right_children":[2,-1,-1],"split_conditions":[1.3E1,-4.605968E-2,6.724446E-2],"split_indices":[4,0,0],"split_type":[0,0,0],"sum_hessian":[1.4654743E1,9.135614E0,5.519128E0],"tree_param":{"num_deleted":"0","num_feature":"12","num_nodes":"3","size_leaf_vector":"1"}},{"base_weights":[-4.156047E-2,2.86697E-2,-5.0040424E-1,-1.5579937E-1,2.3366895E-1,-2.3310855E-1,-6.0444266E-2,-7.0252925E-2,-4.348295E-1,-3.664535E-2,2.8017226E-1,-4.3389466E-2,1.2996823E-2,-4.8645413E-1,1.0110554E-2,-5.081111E-1,-4.949597E-3,1.8889736E-1,4.739264E-2,-6.7073844E-2,6.760064E-4,4.0831596E-2,-6.3330093E-3,-7.1967724E-3,-5.8875192E-2,2.9041726E-2,-2.3798386E-2],"categories":[],"categories_nodes":[],"categories_segments":[],"categories_sizes":[],"default_left":[0,0,0,0,0,0,0,0,0,0,0,0,0,0,0,0,0,0,0,0,0,0,0,0,0,0,0],"id":77,"left_children":[1,3,5,7,9,11,-1,13,15,-1,17,-1,-1,19,21,23,-1,25,-1,-1,-1,-1,-1,-1,-1,-1,-1],"loss_changes":[2.0832055E0,2.1777275E0,9.759927E-2,6.952151E-1,8.623158E-1,3.50229E-1,0E0,8.231452E-1,1.7086828E-1,0E0,3.6726117E-1,0E0,0E0,3.6623245E-1,6.5413696E-1,1.5896618E-1,0E0,9.0207523E-1,0E0,0E0,0E0,0E0,0E0,0E0,0E0,0E0,0E0],"parents":[2147483647,0,0,1,1,2,2,3,3,4,4,5,5,7,7,8,8,10,10,13,13,14,14,15,15,17,17],"right_children":[2,4,6,8,10,12,-1,14,16,-1,18,-1,-1,20,22,24,-1,26,-1,-1,-1,-1,-1,-1,-1,-1,-1],"split_conditions":[5E0,2.36E2,2.47E2,1.71E2,9.29E3,5E0,-6.0444266E-2,3.9E1,3E0,-3.664535E-2,1.49E2,-4.3389466E-2,1.2996823E-2,1.73254E5,5.6E1,1.48E2,-4.949597E-3,1.35E2,4.739264E-2,-6.7073844E-2,6.760064E-4,4.0831596E-2,-6.3330093E-3,-7.1967724E-3,-5.8875192E-2,2.9041726E-2,-2.3798386E-2],"split_indices":[4,5,1,2,8,0,0,2,7,0,3,0,0,8,2,5,0,3,0,0,0,0,0,0,0,0,0],"split_type":[0,0,0,0,0,0,0,0,0,0,0,0,0,0,0,0,0,0,0,0,0,0,0,0,0,0,0],"sum_hessian":[6.3201077E1,5.562473E1,7.5763483E0,2.9404774E1,2.6219955E1,3.0306358E0,4.5457125E0,2.3463112E1,5.9416614E0,1.3908577E0,2.4829098E1,1.8258616E0,1.2047744E0,2.979444E0,2.0483667E1,4.724536E0,1.2171254E0,1.8220572E1,6.608526E0,1.9069854E0,1.0724585E0,2.4795256E0,1.8004143E1,1.0325372E0,3.691999E0,1.4978174E1,3.2423975E0],"tree_param":{"num_deleted":"0","num_feature":"12","num_nodes":"27","size_leaf_vector":"1"}},{"base_weights":[7.515546E-2,1.9379765E-1,-2.8007752E-1,1.2117766E-3,6.473207E-1,-4.0845376E-2,6.9057406E-3,3.898494E-1,-1.716146E-1,9.538802E-2,1.8522756E-1,5.7531174E-2,1.5989387E-2,1.125926E-1,-3.0228248E-1,-3.062715E-2,6.429541E-2,3.5581667E-2,-2.7055938E-2,1.629613E-2,-4.2551573E-2],"categories":[],"categories_nodes":[],"categories_segments":[],"categories_sizes":[],"default_left":[0,0,0,0,0,0,0,0,0,0,0,0,0,0,0,0,0,0,0,0,0],"id":78,"left_children":[1,3,5,7,9,-1,-1,11,13,-1,15,-1,-1,17,19,-1,-1,-1,-1,-1,-1],"loss_changes":[1.0068798E0,1.5307362E0,3.0017334E-1,9.60896E-1,5.6344223E-1,0E0,0E0,9.577638E-2,4.0196192E-1,0E0,9.448907E-1,0E0,0E0,4.549651E-1,4.7402275E-1,0E0,0E0,0E0,0E0,0E0,0E0],"parents":[2147483647,0,0,1,1,2,2,3,3,4,4,7,7,8,8,10,10,13,13,14,14],"right_children":[2,4,6,8,10,-1,-1,12,14,-1,16,-1,-1,18,20,-1,-1,-1,-1,-1,-1],"split_conditions":[1.14E2,9.8E1,5E0,3.9E1,2.3E2,-4.0845376E-2,6.9057406E-3,5.7106E4,2.09E2,9.538802E-2,1.1E2,5.7531174E-2,1.5989387E-2,2E0,2.6883E4,-3.062715E-2,6.429541E-2,3.5581667E-2,-2.7055938E-2,1.629613E-2,-4.2551573E-2],"split_indices":[2,2,4,2,1,0,0,8,5,0,2,0,0,9,8,0,0,0,0,0,0],"split_type":[0,0,0,0,0,0,0,0,0,0,0,0,0,0,0,0,0,0,0,0,0],"sum_hessian":[2.1602621E1,1.6534733E1,5.0678897E0,1.2310025E1,4.2247076E0,3.5811906E0,1.4866991E0,3.4026654E0,8.907359E0,1.8999753E0,2.324732E0,1.0522068E0,2.3504586E0,2.8490047E0,6.058355E0,1.2805667E0,1.0441654E0,1.7863665E0,1.0626383E0,1.2011726E0,4.857182E0],"tree_param":{"num_deleted":"0","num_feature":"12","num_nodes":"21","size_leaf_vector":"1"}},{"base_weights":[5.8295228E-2,3.7818494E-1,-4.4498086E-2,7.411129E-2,2.079667E-1,3.6021125E-1,-3.3382803E-2,4.9565226E-1,-2.7655656E-2,6.3665695E-2,2.4315428E-3],"categories":[],"categories_nodes":[],"categories_segments":[],"categories_sizes":[],"default_left":[0,0,0,0,0,0,0,0,0,0,0],"id":79,"left_children":[1,3,-1,-1,5,7,-1,9,-1,-1,-1],"loss_changes":[3.2013378E0,5.9084034E-1,0E0,0E0,9.1202223E-1,8.248178E-1,0E0,4.4534576E-1,0E0,0E0,0E0],"parents":[2147483647,0,0,1,1,4,4,5,5,7,7],"right_children":[2,4,-1,-1,6,8,-1,10,-1,-1,-1],"split_conditions":[1E0,1.81E2,-4.4498086E-2,7.411129E-2,1.14548E5,5E0,-3.3382803E-2,6.8E1,-2.7655656E-2,6.3665695E-2,2.4315428E-3],"split_indices":[3,5,0,0,8,9,0,2,0,0,0],"split_type":[0,0,0,0,0,0,0,0,0,0,0],"sum_hessian":[1.7839676E1,1.1058979E1,6.780697E0,2.4600108E0,8.598968E0,6.97433E0,1.6246377E0,5.933815E0,1.040515E0,4.297447E0,1.6363678E0],"tree_param":{"num_deleted":"0","num_feature":"12","num_nodes":"11","size_leaf_vector":"1"}},{"base_weights":[4.392275E-3,-4.7701024E-2,3.8146004E-1,6.318527E-1,1.00874946E-1,7.178131E-1,4.356687E-3,4.143535E-1,-2.652554E-1,1.7743109E-2,7.796898E-2,5.9099883E-2,-1.8140705E-3,-4.323619E-2,1.4905587E-2],"categories":[],"categories_nodes":[],"categories_segments":[],"categories_sizes":[],"default_left":[0,0,0,0,0,0,0,0,0,0,0,0,0,0,0],"id":80,"left_children":[1,-1,3,5,7,9,-1,11,13,-1,-1,-1,-1,-1,-1],"loss_changes":[5.311328E0,0E0,1.0885825E0,3.9741063E-1,1.134208E0,1.0681152E-1,0E0,4.0785772E-1,3.9166227E-1,0E0,0E0,0E0,0E0,0E0,0E0],"parents":[2147483647,0,0,2,2,3,3,4,4,5,5,7,7,8,8],"right_children":[2,-1,4,6,8,10,-1,12,14,-1,-1,-1,-1,-1,-1],"split_conditions":[1.2E2,-4.7701024E-2,2E0,8E0,4E0,9.88E3,4.356687E-3,1.94E2,1.64E2,1.7743109E-2,7.796898E-2,5.9099883E-2,-1.8140705E-3,-4.323619E-2,1.4905587E-2],"split_indices":[2,0,7,9,0,8,0,5,3,0,0,0,0,0,0],"split_type":[0,0,0,0,0,0,0,0,0,0,0,0,0,0,0],"sum_hessian":[2.7257652E1,1.1856019E1,1.5401633E1,7.477152E0,7.9244814E0,6.331774E0,1.1453772E0,4.1982527E0,3.7262285E0,1.0478835E0,5.283891E0,2.720584E0,1.4776686E0,2.6242194E0,1.102009E0],"tree_param":{"num_deleted":"0","num_feature":"12","num_nodes":"15","size_leaf_vector":"1"}},{"base_weights":[-2.028087E-2,-4.574303E-2,6.453184E-2],"categories":[],"categories_nodes":[],"categories_segments":[],"categories_sizes":[],"default_left":[0,0,0],"id":81,"left_children":[1,-1,-1],"loss_changes":[4.652139E0,0E0,0E0],"parents":[2147483647,0,0],"right_children":[2,-1,-1],"split_conditions":[1.3E1,-4.574303E-2,6.453184E-2],"split_indices":[4,0,0],"split_type":[0,0,0],"sum_hessian":[1.3974072E1,8.623271E0,5.350801E0],"tree_param":{"num_deleted":"0","num_feature":"12","num_nodes":"3","size_leaf_vector":"1"}},{"base_weights":[-4.2583868E-2,2.4389766E-2,-4.836975E-1,-1.6866869E-1,2.0158996E-1,-2.1805991E-1,-5.8804918E-2,1.7153154E-1,-2.3311393E-1,-3.473125E-2,2.419038E-1,-4.168057E-2,1.3085656E-2,3.660733E-2,-2.8055886E-2,-5.147991E-1,-8.244735E-2,-7.547804E-2,2.995532E-1,-1.3057652E-2,7.235589E-3,-6.454122E-2,-3.5798489E-4,1.733356E-2,-3.4858778E-2,2.1023318E-2,-5.3179473E-2,9.737945E-3,4.0898543E-2],"categories":[],"categories_nodes":[],"categories_segments":[],"categories_sizes":[],"default_left":[0,0,0,0,0,0,0,0,0,0,0,0,0,0,0,0,0,0,0,0,0,0,0,0,0,0,0,0,0],"id":82,"left_children":[1,3,5,7,9,11,-1,13,15,-1,