{"learner":{"attributes":{"scikit_learn":"{\"_estimator_type\": \"regressor\"}"},"feature_names":["sku_id","opening_stock","units_received","units_returned","closing_stock","region","season","price","supplier_id","category","specs_level"],"feature_types":["int","int","int","int","int","int","int","int","int","int","int"],"gradient_booster":{"model":{"cats":{"enc":[],"feature_segments":[],"sorted_idx":[]},"gbtree_model_param":{"num_parallel_tree":"1","num_trees":"100"},"iteration_indptr":[0,1,2,3,4,5,6,7,8,9,10,11,12,13,14,15,16,17,18,19,20,21,22,23,24,25,26,27,28,29,30,31,32,33,34,35,36,37,38,39,40,41,42,43,44,45,46,47,48,49,50,51,52,53,54,55,56,57,58,59,60,61,62,63,64,65,66,67,68,69,70,71,72,73,74,75,76,77,78,79,80,81,82,83,84,85,86,87,88,89,90,91,92,93,94,95,96,97,98,99,100],"tree_info":[0,0,0,0,0,0,0,0,0,0,0,0,0,0,0,0,0,0,0,0,0,0,0,0,0,0,0,0,0,0,0,0,0,0,0,0,0,0,0,0,0,0,0,0,0,0,0,0,0,0,0,0,0,0,0,0,0,0,0,0,0,0,0,0,0,0,0,0,0,0,0,0,0,0,0,0,0,0,0,0,0,0,0,0,0,0,0,0,0,0,0,0,0,0,0,0,0,0,0,0],"trees":[{"base_weights":[-3.075415E-6,-2.0476778E1,4.4199863E1,8.6316284E1,-2.4728676E1,1.023022E2,2.7429989E1,7.1348877E0,1.1656187E1,8.627186E0,-2.7991274E1,1.9961865E0,1.2440217E2,-3.5795927E0,4.231137E1,-1.5398835E0,2.6101167E0,-5.96943E0,1.7982098E1,-3.5193653E1,-1.521495E1,2.4101167E0,1.3026369E1,8.588842E0,-2.594796E1,1.4314239E1,7.5192215E1,-1.2664723E0,1.7101166E0,7.316284E-1,3.215175E0,-2.8521717E0,-4.116172E0,-2.3065639E0,5.666861E0,-3.7179017E-1,2.766861E0,-3.483139E0,4.6822105E-2,2.5814686E0,-5.517902E-1,2.8887713E0,9.297359E0],"categories":[],"categories_nodes":[],"categories_segments":[],"categories_sizes":[],"default_left":[0,0,0,0,0,0,0,0,0,0,0,0,0,0,0,0,0,0,0,0,0,0,0,0,0,0,0,0,0,0,0,0,0,0,0,0,0,0,0,0,0,0,0],"id":0,"left_children":[1,3,5,7,9,11,13,15,-1,17,19,-1,21,23,25,-1,-1,27,29,31,33,-1,-1,35,37,39,41,-1,-1,-1,-1,-1,-1,-1,-1,-1,-1,-1,-1,-1,-1,-1,-1],"loss_changes":[2.3441331E5,8.2505445E4,7.709211E4,1.5932559E4,1.8850852E4,3.027164E4,3.0146707E4,1.6840701E3,0E0,2.292144E3,1.3819641E4,0E0,5.0913125E3,6.211E3,3.9428742E4,0E0,0E0,1.2978323E3,1.2760776E3,2.768039E3,3.4038547E4,0E0,0E0,3.6250166E3,1.8936396E3,5.8444053E3,1.3781359E4,0E0,0E0,0E0,0E0,0E0,0E0,0E0,0E0,0E0,0E0,0E0,0E0,0E0,0E0,0E0,0E0],"parents":[2147483647,0,0,1,1,2,2,3,3,4,4,5,5,6,6,7,7,9,9,10,10,12,12,13,13,14,14,17,17,18,18,19,19,20,20,23,23,24,24,25,25,26,26],"right_children":[2,4,6,8,10,12,14,16,-1,18,20,-1,22,24,26,-1,-1,28,30,32,34,-1,-1,36,38,40,42,-1,-1,-1,-1,-1,-1,-1,-1,-1,-1,-1,-1,-1,-1,-1,-1],"split_conditions":[2E0,1.55E2,1.84E2,1.68E2,1.6388E4,1.17E2,1.13E2,6E0,1.1656187E1,2.51E2,1.09E2,1.9961865E0,1.41E2,5E0,2.49E2,-1.5398835E0,2.6101167E0,2E0,1.3E2,2.35E2,2.54E2,2.4101167E0,1.3026369E1,3E0,1.1E1,2.74E2,3E0,-1.2664723E0,1.7101166E0,7.316284E-1,3.215175E0,-2.8521717E0,-4.116172E0,-2.3065639E0,5.666861E0,-3.7179017E-1,2.766861E0,-3.483139E0,4.6822105E-2,2.5814686E0,-5.517902E-1,2.8887713E0,9.297359E0],"split_indices":[3,4,4,1,7,2,2,0,0,1,2,0,1,3,1,0,0,6,2,4,1,0,0,3,2,4,3,0,0,0,0,0,0,0,0,0,0,0,0,0,0,0,0],"split_type":[0,0,0,0,0,0,0,0,0,0,0,0,0,0,0,0,0,0,0,0,0,0,0,0,0,0,0,0,0,0,0,0,0,0,0,0,0,0,0,0,0,0,0],"sum_hessian":[2.57E2,1.76E2,8.1E1,6E0,1.7E2,1.7E1,6.4E1,2E0,4E0,1.5E1,1.55E2,4E0,1.3E1,2.1E1,4.3E1,1E0,1E0,6E0,9E0,9.8E1,5.7E1,1E0,1.2E1,1.4E1,7E0,2.4E1,1.9E1,5E0,1E0,6E0,3E0,4.9E1,4.9E1,5.2E1,5E0,9E0,5E0,5E0,2E0,1.5E1,9E0,6E0,1.3E1],"tree_param":{"num_deleted":"0","num_feature":"11","num_nodes":"43","size_leaf_vector":"1"}},{"base_weights":[1.7099017E-1,-1.8352777E1,4.0153137E1,7.9502716E1,-2.2251232E1,9.304047E1,2.4889673E1,6.778145E0,1.0723692E1,8.038871E0,-2.5215273E1,1.8364918E0,1.1306456E2,-3.2689636E0,3.8403316E1,-1.4628891E0,2.479611E0,-5.309109E0,1.657857E1,-2.734402E1,8.598843E0,2.2896106E0,1.18239355E1,7.8896284E0,-2.3782703E1,2.2850975E1,8.899619E1,-1.160933E0,1.6246109E0,-3.3528647E-1,2.1980538E0,-3.2543721E0,-1.8563026E0,-1.0279524E0,1.8158076E0,-3.3832926E-1,2.5362892E0,-3.1928775E0,4.370066E-2,7.7116746E-1,4.0346913E0,1.0642081E1,5.0287414E0],"categories":[],"categories_nodes":[],"categories_segments":[],"categories_sizes":[],"default_left":[0,0,0,0,0,0,0,0,0,0,0,0,0,0,0,0,0,0,0,0,0,0,0,0,0,0,0,0,0,0,0,0,0,0,0,0,0,0,0,0,0,0,0],"id":1,"left_children":[1,3,5,7,9,11,13,15,-1,17,19,-1,21,23,25,-1,-1,27,29,31,33,-1,-1,35,37,39,41,-1,-1,-1,-1,-1,-1,-1,-1,-1,-1,-1,-1,-1,-1,-1,-1],"loss_changes":[1.9181689E5,6.929191E4,6.3878234E4,1.3391836E4,1.5555273E4,2.4839172E4,2.4859715E4,1.5198732E3,0E0,1.911821E3,1.1464273E4,0E0,3.8252188E3,5.223535E3,3.258721E4,0E0,0E0,1.139225E3,1.1503872E3,6.107703E3,1.9912832E3,0E0,0E0,3.040431E3,1.5923164E3,8.959527E3,1.3932266E3,0E0,0E0,0E0,0E0,0E0,0E0,0E0,0E0,0E0,0E0,0E0,0E0,0E0,0E0,0E0,0E0],"parents":[2147483647,0,0,1,1,2,2,3,3,4,4,5,5,6,6,7,7,9,9,10,10,12,12,13,13,14,14,17,17,18,18,19,19,20,20,23,23,24,24,25,25,26,26],"right_children":[2,4,6,8,10,12,14,16,-1,18,20,-1,22,24,26,-1,-1,28,30,32,34,-1,-1,36,38,40,42,-1,-1,-1,-1,-1,-1,-1,-1,-1,-1,-1,-1,-1,-1,-1,-1],"split_conditions":[2E0,1.55E2,1.84E2,1.68E2,1.6388E4,1.17E2,1.13E2,6E0,1.0723692E1,2.51E2,3E0,1.8364918E0,1.41E2,5E0,2.73E2,-1.4628891E0,2.479611E0,2E0,7E0,1.01E2,1.19E2,2.2896106E0,1.18239355E1,3E0,1.1E1,3E0,7E0,-1.160933E0,1.6246109E0,-3.3528647E-1,2.1980538E0,-3.2543721E0,-1.8563026E0,-1.0279524E0,1.8158076E0,-3.3832926E-1,2.5362892E0,-3.1928775E0,4.370066E-2,7.7116746E-1,4.0346913E0,1.0642081E1,5.0287414E0],"split_indices":[3,4,4,1,7,2,2,0,0,1,6,0,1,3,1,0,0,6,0,2,2,0,0,3,2,3,0,0,0,0,0,0,0,0,0,0,0,0,0,0,0,0,0],"split_type":[0,0,0,0,0,0,0,0,0,0,0,0,0,0,0,0,0,0,0,0,0,0,0,0,0,0,0,0,0,0,0,0,0,0,0,0,0,0,0,0,0,0,0],"sum_hessian":[2.57E2,1.76E2,8.1E1,6E0,1.7E2,1.7E1,6.4E1,2E0,4E0,1.5E1,1.55E2,4E0,1.3E1,2.1E1,4.3E1,1E0,1E0,6E0,9E0,1.46E2,9E0,1E0,1.2E1,1.4E1,7E0,3.4E1,9E0,5E0,1E0,2E0,7E0,9E1,5.6E1,3E0,6E0,9E0,5E0,5E0,2E0,1.9E1,1.5E1,5E0,4E0],"tree_param":{"num_deleted":"0","num_feature":"11","num_nodes":"43","size_leaf_vector":"1"}},{"base_weights":[3.2916006E-1,-1.646245E1,3.657045E1,7.3229645E1,-2.0037785E1,8.462253E1,2.27011E1,1.903504E1,1.0911684E1,7.3803883E0,-2.2721458E1,1.6895722E0,1.02766205E2,-8.377943E0,3.3020336E1,-1.3897446E0,3.4645016E0,-4.7119575E0,1.5106992E1,-2.8652884E1,-1.2205379E1,2.1751301E0,1.0732494E1,-2.036782E1,1.1660142E1,1.1105389E1,6.1711437E1,-1.0641885E0,1.5433804E0,5.528942E-1,2.8091831E0,-2.2637753E0,-3.4094956E0,-1.9274086E0,5.2269106E0,2.9416302E-1,-2.5874546E0,1.4918197E0,-3.9440957E-1,4.2089376E0,4.4643757E-1,2.533146E0,7.809204E0],"categories":[],"categories_nodes":[],"categories_segments":[],"categories_sizes":[],"default_left":[0,0,0,0,0,0,0,0,0,0,0,0,0,0,0,0,0,0,0,0,0,0,0,0,0,0,0,0,0,0,0,0,0,0,0,0,0,0,0,0,0,0,0],"id":2,"left_children":[1,3,5,7,9,11,13,15,-1,17,19,-1,21,23,25,-1,-1,27,29,31,33,-1,-1,35,37,39,41,-1,-1,-1,-1,-1,-1,-1,-1,-1,-1,-1,-1,-1,-1,-1,-1],"loss_changes":[1.5760784E5,5.8227582E4,5.272797E4,1.1537203E4,1.2750117E4,2.0382344E4,2.1122922E4,2.5377788E3,0E0,1.5661075E3,9.380836E3,0E0,2.8360938E3,4.3218125E3,3.0124113E4,0E0,0E0,1.0004851E3,1.0883765E3,2.468914E3,2.7441014E4,0E0,0E0,1.4880596E3,4.147152E2,5.779283E3,1.0536258E4,0E0,0E0,0E0,0E0,0E0,0E0,0E0,0E0,0E0,0E0,0E0,0E0,0E0,0E0,0E0,0E0],"parents":[2147483647,0,0,1,1,2,2,3,3,4,4,5,5,6,6,7,7,9,9,10,10,12,12,13,13,14,14,17,17,18,18,19,19,20,20,23,23,24,24,25,25,26,26],"right_children":[2,4,6,8,10,12,14,16,-1,18,20,-1,22,24,26,-1,-1,28,30,32,34,-1,-1,36,38,40,42,-1,-1,-1,-1,-1,-1,-1,-1,-1,-1,-1,-1,-1,-1,-1,-1],"split_conditions":[2E0,1.55E2,1.84E2,1.72E2,1.6388E4,1.17E2,2.5E1,6E0,1.0911684E1,2.51E2,1.09E2,1.6895722E0,1.41E2,3.31E2,2.49E2,-1.3897446E0,3.4645016E0,2E0,1.3E2,2.35E2,2.54E2,2.1751301E0,1.0732494E1,1.98E2,1E0,2E2,3E0,-1.0641885E0,1.5433804E0,5.528942E-1,2.8091831E0,-2.2637753E0,-3.4094956E0,-1.9274086E0,5.2269106E0,2.9416302E-1,-2.5874546E0,1.4918197E0,-3.9440957E-1,4.2089376E0,4.4643757E-1,2.533146E0,7.809204E0],"split_indices":[3,4,4,1,7,2,2,0,0,1,2,0,1,1,1,0,0,6,2,4,1,0,0,4,2,4,3,0,0,0,0,0,0,0,0,0,0,0,0,0,0,0,0],"split_type":[0,0,0,0,0,0,0,0,0,0,0,0,0,0,0,0,0,0,0,0,0,0,0,0,0,0,0,0,0,0,0,0,0,0,0,0,0,0,0,0,0,0,0],"sum_hessian":[2.57E2,1.76E2,8.1E1,6E0,1.7E2,1.7E1,6.4E1,3E0,3E0,1.5E1,1.55E2,4E0,1.3E1,1.6E1,4.8E1,1E0,2E0,6E0,9E0,9.8E1,5.7E1,1E0,1.2E1,1E1,6E0,2.8E1,2E1,5E0,1E0,6E0,3E0,4.9E1,4.9E1,5.2E1,5E0,2E0,8E0,5E0,1E0,4E0,2.4E1,7E0,1.3E1],"tree_param":{"num_deleted":"0","num_feature":"11","num_nodes":"43","size_leaf_vector":"1"}},{"base_weights":[4.623409E-1,-1.0052769E1,4.788236E1,5.5520924E1,-1.4264795E1,6.796035E1,-4.298644E0,-1.3788103E1,7.7692444E1,-2.3359499E1,-4.366713E0,3.22062E1,9.1377945E1,-1.2403237E1,5.053054E0,-2.1277497E0,4.3400383E-1,3.4583383E0,9.122727E0,-5.1727552E0,-2.6607399E1,-1.2353461E1,3.394466E1,1.0629759E0,3.908584E1,5.529302E0,1.06554985E1,-1.744193E1,2.4030538E0,-1.1886563E0,6.11648E-1,-2.1249654E0,-3.1720161E0,3.4243593E-1,-2.0753524E0,1.5839576E0,4.5034266E0,2.132537E0,5.6133327E0,-2.6941543E0,-3.452062E-1],"categories":[],"categories_nodes":[],"categories_segments":[],"categories_sizes":[],"default_left":[0,0,0,0,0,0,0,0,0,0,0,0,0,0,0,0,0,0,0,0,0,0,0,0,0,0,0,0,0,0,0,0,0,0,0,0,0,0,0,0,0],"id":3,"left_children":[1,3,5,7,9,11,13,15,17,19,21,23,25,27,-1,-1,-1,-1,-1,29,31,33,35,-1,37,-1,-1,39,-1,-1,-1,-1,-1,-1,-1,-1,-1,-1,-1,-1,-1],"loss_changes":[1.2912704E5,5.9346E4,4.9533562E4,2.1048152E4,1.7902023E4,2.5524469E4,6.8478975E3,6.354203E2,2.679789E3,6.0055117E3,3.0099715E4,1.8110986E3,5.0614844E3,2.8056606E3,0E0,0E0,0E0,0E0,0E0,1.3611978E3,1.7365312E3,1.0806378E4,2.6999062E3,0E0,2.1334219E3,0E0,0E0,1.5017756E3,0E0,0E0,0E0,0E0,0E0,0E0,0E0,0E0,0E0,0E0,0E0,0E0,0E0],"parents":[2147483647,0,0,1,1,2,2,3,3,4,4,5,5,6,6,7,7,8,8,9,9,10,10,11,11,12,12,13,13,19,19,20,20,21,21,22,22,24,24,27,27],"right_children":[2,4,6,8,10,12,14,16,18,20,22,24,26,28,-1,-1,-1,-1,-1,30,32,34,36,-1,38,-1,-1,40,-1,-1,-1,-1,-1,-1,-1,-1,-1,-1,-1,-1,-1],"split_conditions":[3E0,1.64E2,1.3E1,1E0,1.01E2,4E0,1.71E2,6E0,1.72E2,2.9551E4,2.54E2,1.6617E4,1.38E2,3E0,5.053054E0,-2.1277497E0,4.3400383E-1,3.4583383E0,9.122727E0,3.31E2,2.35E2,2.55E2,1E0,1.0629759E0,1.37E2,5.529302E0,1.06554985E1,4E0,2.4030538E0,-1.1886563E0,6.11648E-1,-2.1249654E0,-3.1720161E0,3.4243593E-1,-2.0753524E0,1.5839576E0,4.5034266E0,2.132537E0,5.6133327E0,-2.6941543E0,-3.452062E-1],"split_indices":[3,4,3,2,2,3,2,0,1,7,1,7,2,6,0,0,0,0,0,1,4,4,8,0,2,0,0,0,0,0,0,0,0,0,0,0,0,0,0,0,0],"split_type":[0,0,0,0,0,0,0,0,0,0,0,0,0,0,0,0,0,0,0,0,0,0,0,0,0,0,0,0,0,0,0,0,0,0,0,0,0,0,0,0,0],"sum_hessian":[2.57E2,2.11E2,4.6E1,1.2E1,1.99E2,3.3E1,1.3E1,3E0,9E0,1.03E2,9.6E1,1.4E1,1.9E1,1.2E1,1E0,2E0,1E0,3E0,6E0,1.6E1,8.7E1,8E1,1.6E1,4E0,1E1,7E0,1.2E1,1.1E1,1E0,1E1,6E0,4.5E1,4.2E1,2.8E1,5.2E1,7E0,9E0,6E0,4E0,6E0,5E0],"tree_param":{"num_deleted":"0","num_feature":"11","num_nodes":"41","size_leaf_vector":"1"}},{"base_weights":[5.664105E-1,-1.3292252E1,3.0473932E1,6.3168015E1,-1.6344471E1,7.011627E1,1.9027224E1,-1.2138699E0,7.774225E1,6.6459675E0,-1.8597692E1,1.4177737E1,8.508602E1,-2.8439143E0,2.9530355E1,3.0029793E0,9.409103E0,-3.2109005E0,1.2881178E1,-2.0280746E1,8.002962E0,4.1230354E-1,1.5660654E0,4.496536E0,9.663775E0,6.0589023E0,-1.9181206E1,1.7305384E1,6.936472E1,7.525639E-1,-1.3144715E0,4.649048E-1,2.4067113E0,-1.5433657E0,-2.766328E0,-6.3697547E-1,1.5072664E0,-2.6515839E-1,1.9566563E0,-2.5258193E0,-6.334992E-2,4.160121E0,9.7456706E-1,3.2830925E0,8.033194E0],"categories":[],"categories_nodes":[],"categories_segments":[],"categories_sizes":[],"default_left":[0,0,0,0,0,0,0,0,0,0,0,0,0,0,0,0,0,0,0,0,0,0,0,0,0,0,0,0,0,0,0,0,0,0,0,0,0,0,0,0,0,0,0,0,0],"id":4,"left_children":[1,3,5,7,9,11,13,-1,15,17,19,21,23,25,27,-1,-1,29,31,33,35,-1,-1,-1,-1,37,39,41,43,-1,-1,-1,-1,-1,-1,-1,-1,-1,-1,-1,-1,-1,-1,-1,-1],"loss_changes":[1.07340445E5,4.2339566E4,3.5875383E4,8.626453E3,8.981836E3,1.3866609E4,1.5015486E4,0E0,1.8547109E3,1.0247145E3,7.1464766E3,9.981995E0,2.1431328E3,3.3160715E3,2.0226473E4,0E0,0E0,8.455058E2,8.0895154E2,4.8332773E3,1.1121172E3,0E0,0E0,0E0,0E0,1.8167568E3,8.857119E2,6.022999E3,1.3693633E3,0E0,0E0,0E0,0E0,0E0,0E0,0E0,0E0,0E0,0E0,0E0,0E0,0E0,0E0,0E0,0E0],"parents":[2147483647,0,0,1,1,2,2,3,3,4,4,5,5,6,6,8,8,9,9,10,10,11,11,12,12,13,13,14,14,17,17,18,18,19,19,20,20,25,25,26,26,27,27,28,28],"right_children":[2,4,6,8,10,12,14,-1,16,18,20,22,24,26,28,-1,-1,30,32,34,36,-1,-1,-1,-1,38,40,42,44,-1,-1,-1,-1,-1,-1,-1,-1,-1,-1,-1,-1,-1,-1,-1,-1],"split_conditions":[2E0,1.55E2,1.84E2,6E0,1.6388E4,1.17E2,1.13E2,-1.2138699E0,1.72E2,2.51E2,3E0,3E0,2.05E2,5E0,2.73E2,3.0029793E0,9.409103E0,2.07E2,1.3E2,1E0,1.19E2,4.1230354E-1,1.5660654E0,4.496536E0,9.663775E0,3E0,1.1E1,2.21E2,9.462E3,7.525639E-1,-1.3144715E0,4.649048E-1,2.4067113E0,-1.5433657E0,-2.766328E0,-6.3697547E-1,1.5072664E0,-2.6515839E-1,1.9566563E0,-2.5258193E0,-6.334992E-2,4.160121E0,9.7456706E-1,3.2830925E0,8.033194E0],"split_indices":[3,4,4,0,7,2,2,0,1,1,6,3,1,3,1,0,0,1,2,5,2,0,0,0,0,3,2,4,7,0,0,0,0,0,0,0,0,0,0,0,0,0,0,0,0],"split_type":[0,0,0,0,0,0,0,0,0,0,0,0,0,0,0,0,0,0,0,0,0,0,0,0,0,0,0,0,0,0,0,0,0,0,0,0,0,0,0,0,0,0,0,0,0],"sum_hessian":[2.57E2,1.76E2,8.1E1,6E0,1.7E2,1.7E1,6.4E1,1E0,5E0,1.5E1,1.55E2,4E0,1.3E1,2.1E1,4.3E1,2E0,3E0,6E0,9E0,1.46E2,9E0,1E0,3E0,4E0,9E0,1.4E1,7E0,3.4E1,9E0,3E0,3E0,6E0,3E0,9E1,5.6E1,3E0,6E0,9E0,5E0,5E0,2E0,7E0,2.7E1,3E0,6E0],"tree_param":{"num_deleted":"0","num_feature":"11","num_nodes":"45","size_leaf_vector":"1"}},{"base_weights":[6.716322E-1,-8.116709E0,4.029837E1,5.2033054E1,-1.135201E1,5.70602E1,-3.2873802E0,-5.0765862E0,6.5288155E1,9.859943E0,-1.4822094E1,2.6550253E1,7.708965E1,-1.0850521E1,4.7516727E0,-1.1531765E0,3.9168856E-1,2.9364004E0,7.8356223E0,2.876446E0,2.1025991E1,-1.68703E1,1.1841869E1,8.606893E0,3.2292667E1,4.9161987E0,9.161126E1,8.723173E-1,-2.4672552E1,-6.217834E-1,8.6995953E-1,2.8009207E0,7.0442885E-1,-1.2264127E0,-2.4918199E0,5.8213913E-1,2.9969666E0,2.5117683E-1,9.5027316E-1,1.7672962E0,4.6301723E0,3.7343042E0,9.87306E0,-1.1746203E0,1.0792669E0,-2.819002E0,-3.542614E-1],"categories":[],"categories_nodes":[],"categories_segments":[],"categories_sizes":[],"default_left":[0,0,0,0,0,0,0,0,0,0,0,0,0,0,0,0,0,0,0,0,0,0,0,0,0,0,0,0,0,0,0,0,0,0,0,0,0,0,0,0,0,0,0,0,0,0,0],"id":5,"left_children":[1,3,5,7,9,11,13,15,17,19,21,23,25,27,-1,-1,-1,-1,-1,29,31,33,35,37,39,-1,41,43,45,-1,-1,-1,-1,-1,-1,-1,-1,-1,-1,-1,-1,-1,-1,-1,-1,-1,-1],"loss_changes":[9.017644E4,4.1846426E4,3.4524695E4,8.658373E3,1.5014811E4,1.8730578E4,5.894922E3,2.19332E2,1.9242852E3,2.200884E3,9.702492E3,1.2676338E3,3.607289E3,2.127957E3,0E0,0E0,0E0,0E0,0E0,1.0602822E3,8.767046E2,5.699742E3,1.2443286E3,3.4325562E0,1.4346016E3,0E0,9.4935156E2,1.1282141E3,3.4607666E2,0E0,0E0,0E0,0E0,0E0,0E0,0E0,0E0,0E0,0E0,0E0,0E0,0E0,0E0,0E0,0E0,0E0,0E0],"parents":[2147483647,0,0,1,1,2,2,3,3,4,4,5,5,6,6,7,7,8,8,9,9,10,10,11,11,12,12,13,13,19,19,20,20,21,21,22,22,23,23,24,24,26,26,27,27,28,28],"right_children":[2,4,6,8,10,12,14,16,18,20,22,24,26,28,-1,-1,-1,-1,-1,30,32,34,36,38,40,-1,42,44,46,-1,-1,-1,-1,-1,-1,-1,-1,-1,-1,-1,-1,-1,-1,-1,-1,-1,-1],"split_conditions":[3E0,1.57E2,1.3E1,1E0,1.6517E4,4E0,1.71E2,6E0,1.72E2,1E0,3E0,1.6617E4,1.43E2,1E0,4.7516727E0,-1.1531765E0,3.9168856E-1,2.9364004E0,7.8356223E0,2.51E2,1.62E2,1E0,6E0,7E0,1.37E2,4.9161987E0,2.12E2,2E0,4E0,-6.217834E-1,8.6995953E-1,2.8009207E0,7.0442885E-1,-1.2264127E0,-2.4918199E0,5.8213913E-1,2.9969666E0,2.5117683E-1,9.5027316E-1,1.7672962E0,4.6301723E0,3.7343042E0,9.87306E0,-1.1746203E0,1.0792669E0,-2.819002E0,-3.542614E-1],"split_indices":[3,4,3,2,7,3,2,0,1,8,6,7,2,5,0,0,0,0,0,1,2,5,0,0,2,0,1,6,0,0,0,0,0,0,0,0,0,0,0,0,0,0,0,0,0,0,0],"split_type":[0,0,0,0,0,0,0,0,0,0,0,0,0,0,0,0,0,0,0,0,0,0,0,0,0,0,0,0,0,0,0,0,0,0,0,0,0,0,0,0,0,0,0,0,0,0,0],"sum_hessian":[2.57E2,2.11E2,4.6E1,1E1,2.01E2,3.3E1,1.3E1,2E0,8E0,2.8E1,1.73E2,1.4E1,1.9E1,1.2E1,1E0,1E0,1E0,3E0,5E0,1.8E1,1E1,1.61E2,1.2E1,4E0,1E1,8E0,1.1E1,7E0,5E0,7E0,1.1E1,6E0,4E0,1.04E2,5.7E1,1E1,2E0,1E0,3E0,6E0,4E0,2E0,9E0,3E0,4E0,4E0,1E0],"tree_param":{"num_deleted":"0","num_feature":"11","num_nodes":"47","size_leaf_vector":"1"}},{"base_weights":[7.6427644E-1,-7.2407703E0,3.6855885E1,4.7739803E1,-1.0198916E1,5.2122486E1,-2.8527102E0,-4.8227563E0,5.995623E1,-1.799359E1,-1.743411E0,2.4401823E1,7.030686E1,-1.0016902E1,4.514089E0,-1.0955178E0,3.7210426E-1,3.5829353E0,8.115748E0,-4.113407E0,-2.0442684E1,-8.185443E0,2.9432472E1,7.9864945E0,2.9644987E1,4.4792037E0,8.3584076E1,-1.4219863E1,2.0209317E0,-9.276091E-1,4.587011E-1,-1.6000849E0,-2.4822304E0,1.4845406E0,-1.3145403E0,1.8128471E0,5.293638E0,2.3861809E-1,8.7900275E-1,1.6158136E0,4.259758E0,4.1799283E0,9.2867985E0,-2.1520927E0,-3.3319792E-1],"categories":[],"categories_nodes":[],"categories_segments":[],"categories_sizes":[],"default_left":[0,0,0,0,0,0,0,0,0,0,0,0,0,0,0,0,0,0,0,0,0,0,0,0,0,0,0,0,0,0,0,0,0,0,0,0,0,0,0,0,0,0,0,0,0],"id":6,"left_children":[1,3,5,7,9,11,13,15,17,19,21,23,25,27,-1,-1,-1,-1,-1,29,31,33,35,37,39,-1,41,43,-1,-1,-1,-1,-1,-1,-1,-1,-1,-1,-1,-1,-1,-1,-1,-1,-1],"loss_changes":[7.480694E4,3.4966695E4,2.8640809E4,7.352549E3,1.3282023E4,1.5423203E4,5.265867E3,1.9794717E2,1.6958633E3,3.4852695E3,1.992285E4,1.0542646E3,3.0314219E3,1.9388888E3,0E0,0E0,0E0,0E0,0E0,8.061471E2,1.3341875E3,9.56218E3,3.557045E3,1.5256042E0,1.2332891E3,0E0,7.732969E2,8.8221045E2,0E0,0E0,0E0,0E0,0E0,0E0,0E0,0E0,0E0,0E0,0E0,0E0,0E0,0E0,0E0,0E0,0E0],"parents":[2147483647,0,0,1,1,2,2,3,3,4,4,5,5,6,6,7,7,8,8,9,9,10,10,11,11,12,12,13,13,19,19,20,20,21,21,22,22,23,23,24,24,26,26,27,27],"right_children":[2,4,6,8,10,12,14,16,18,20,22,24,26,28,-1,-1,-1,-1,-1,30,32,34,36,38,40,-1,42,44,-1,-1,-1,-1,-1,-1,-1,-1,-1,-1,-1,-1,-1,-1,-1,-1,-1],"split_conditions":[3E0,1.57E2,1.3E1,1E0,1.01E2,4E0,1.71E2,6E0,2.05E2,2.9551E4,2.54E2,1.6617E4,1.43E2,3E0,4.514089E0,-1.0955178E0,3.7210426E-1,3.5829353E0,8.115748E0,3.31E2,2.35E2,2.37E2,6.4171E4,7E0,1.37E2,4.4792037E0,2.24E2,4E0,2.0209317E0,-9.276091E-1,4.587011E-1,-1.6000849E0,-2.4822304E0,1.4845406E0,-1.3145403E0,1.8128471E0,5.293638E0,2.3861809E-1,8.7900275E-1,1.6158136E0,4.259758E0,4.1799283E0,9.2867985E0,-2.1520927E0,-3.3319792E-1],"split_indices":[3,4,3,2,2,3,2,0,1,7,1,7,2,6,0,0,0,0,0,1,4,4,7,0,2,0,1,0,0,0,0,0,0,0,0,0,0,0,0,0,0,0,0,0,0],"split_type":[0,0,0,0,0,0,0,0,0,0,0,0,0,0,0,0,0,0,0,0,0,0,0,0,0,0,0,0,0,0,0,0,0,0,0,0,0,0,0,0,0,0,0,0,0],"sum_hessian":[2.57E2,2.11E2,4.6E1,1E1,2.01E2,3.3E1,1.3E1,2E0,8E0,1.04E2,9.7E1,1.4E1,1.9E1,1.2E1,1E0,1E0,1E0,5E0,3E0,1.6E1,8.8E1,8.1E1,1.6E1,4E0,1E1,8E0,1.1E1,1.1E1,1E0,1E1,6E0,4.6E1,4.2E1,1.4E1,6.7E1,1.2E1,4E0,1E0,3E0,6E0,4E0,3E0,8E0,6E0,5E0],"tree_param":{"num_deleted":"0","num_feature":"11","num_nodes":"45","size_leaf_vector":"1"}},{"base_weights":[8.533101E-1,-9.775332E0,2.3785217E1,5.007323E1,-1.2168108E1,4.4010277E1,1.0628608E1,3.2842052E0,6.8132E1,-1.688159E1,-4.5996957E0,9.549448E0,5.9240223E1,-6.3043823E0,1.7859142E1,-1.0407418E0,1.5333725E0,2.0188653E0,7.507068E0,-1.6005104E0,-1.8473276E1,-1.0893639E1,3.2365147E1,1.3433427E1,-5.285637E-1,2.3726871E1,6.828963E0,-1.8428852E1,5.1734104E0,1.0333585E1,5.3764668E0,9.0031683E-1,-6.702286E-1,-1.4276295E0,-2.2455804E0,1.0010165E-1,-1.9935076E0,1.3357351E0,4.870147E0,2.4320348E-1,1.6229248E0,7.0993346E-1,3.0265806E0,-1.9934078E0,-3.9461288E-1,-9.31415E-2,1.7693533E0,2.5645423E0,1.8210228E-1],"categories":[],"categories_nodes":[],"categories_segments":[],"categories_sizes":[],"default_left":[0,0,0,0,0,0,0,0,0,0,0,0,0,0,0,0,0,0,0,0,0,0,0,0,0,0,0,0,0,0,0,0,0,0,0,0,0,0,0,0,0,0,0,0,0,0,0,0,0],"id":7,"left_children":[1,3,5,7,9,11,13,15,17,19,21,23,25,27,29,-1,-1,-1,-1,31,33,35,37,39,-1,41,-1,43,45,47,-1,-1,-1,-1,-1,-1,-1,-1,-1,-1,-1,-1,-1,-1,-1,-1,-1,-1,-1],"loss_changes":[6.311615E4,2.5956436E4,2.1351875E4,5.6909062E3,6.0225312E3,1.6229059E4,6.3567544E3,6.5451685E2,1.4774219E2,2.5243164E3,1.5940433E4,7.0481494E2,5.449953E3,2.321934E3,9.171946E3,0E0,0E0,0E0,0E0,6.554153E2,1.2672988E3,6.257552E3,2.4546523E3,2.373512E2,0E0,4.3749146E2,0E0,9.573584E1,7.043785E2,3.9939307E3,0E0,0E0,0E0,0E0,0E0,0E0,0E0,0E0,0E0,0E0,0E0,0E0,0E0,0E0,0E0,0E0,0E0,0E0,0E0],"parents":[2147483647,0,0,1,1,2,2,3,3,4,4,5,5,6,6,7,7,8,8,9,9,10,10,11,11,12,12,13,13,14,14,19,19,20,20,21,21,22,22,23,23,25,25,27,27,28,28,29,29],"right_children":[2,4,6,8,10,12,14,16,18,20,22,24,26,28,30,-1,-1,-1,-1,32,34,36,38,40,-1,42,-1,44,46,48,-1,-1,-1,-1,-1,-1,-1,-1,-1,-1,-1,-1,-1,-1,-1,-1,-1,-1,-1],"split_conditions":[2E0,1.55E2,2.13E2,1.68E2,1.09E2,1.17E2,1.12E2,6E0,1.72E2,2.8059E4,2.54E2,2E2,1.96E2,2.9E2,2.81E2,-1.0407418E0,1.5333725E0,2.0188653E0,7.507068E0,9.665E3,2.35E2,2.78E2,6.3947E4,2.9551E4,-5.285637E-1,5E0,6.828963E0,8E0,5.7895E4,9.911E3,5.3764668E0,9.0031683E-1,-6.702286E-1,-1.4276295E0,-2.2455804E0,1.0010165E-1,-1.9935076E0,1.3357351E0,4.870147E0,2.4320348E-1,1.6229248E0,7.0993346E-1,3.0265806E0,-1.9934078E0,-3.9461288E-1,-9.31415E-2,1.7693533E0,2.5645423E0,1.8210228E-1],"split_indices":[3,4,4,1,2,2,2,0,1,7,1,4,1,1,1,0,0,0,0,7,4,4,7,7,0,0,0,0,7,7,0,0,0,0,0,0,0,0,0,0,0,0,0,0,0,0,0,0,0],"split_type":[0,0,0,0,0,0,0,0,0,0,0,0,0,0,0,0,0,0,0,0,0,0,0,0,0,0,0,0,0,0,0,0,0,0,0,0,0,0,0,0,0,0,0,0,0,0,0,0,0],"sum_hessian":[2.57E2,1.76E2,8.1E1,6E0,1.7E2,3.1E1,5E1,2E0,4E0,1.04E2,6.6E1,1E1,2.1E1,1.5E1,3.5E1,1E0,1E0,1E0,3E0,1E1,9.4E1,5.7E1,9E0,8E0,2E0,5E0,1.6E1,7E0,8E0,3E1,5E0,3E0,7E0,4.8E1,4.6E1,2.5E1,3.2E1,5E0,4E0,2E0,6E0,2E0,3E0,6E0,1E0,6E0,2E0,1E1,2E1],"tree_param":{"num_deleted":"0","num_feature":"11","num_nodes":"49","size_leaf_vector":"1"}},{"base_weights":[8.850414E-1,-5.8043704E0,3.1039726E1,4.014899E1,-8.278047E0,4.3743065E1,-2.0283628E0,-4.3157706E0,5.0509583E1,-1.4262118E1,-8.220673E-1,2.0502163E1,5.898659E1,-8.584634E0,4.1601577E0,-9.887047E-1,3.413391E-1,3.2392175E0,7.5947E0,-3.7906036E0,-1.6096067E1,-6.1408005E0,2.4493294E1,6.8613663E0,2.4838692E1,3.6411545E0,7.100233E1,-1.24846525E1,1.9107796E0,-8.026698E-1,4.012788E-1,-1.6848097E0,5.224646E-1,1.18122935E-1,-2.026706E0,1.398883E0,4.480535E0,-9.859009E-2,9.0696585E-1,7.9262316E-1,3.0190086E0,3.9309735E0,8.193491E0,-4.0348002E-1,-2.0262039E0],"categories":[],"categories_nodes":[],"categories_segments":[],"categories_sizes":[],"default_left":[0,0,0,0,0,0,0,0,0,0,0,0,0,0,0,0,0,0,0,0,0,0,0,0,0,0,0,0,0,0,0,0,0,0,0,0,0,0,0,0,0,0,0,0,0],"id":8,"left_children":[1,3,5,7,9,11,13,15,17,19,21,23,25,27,-1,-1,-1,-1,-1,29,31,33,35,37,39,-1,41,43,-1,-1,-1,-1,-1,-1,-1,-1,-1,-1,-1,-1,-1,-1,-1,-1,-1],"loss_changes":[5.222318E4,2.443119E4,1.9832258E4,5.2854805E3,9.000935E3,1.08359375E4,4.36183E3,1.6293224E2,1.6876523E3,2.0898594E3,1.2403163E4,7.168784E2,2.8398125E3,1.6425671E3,0E0,0E0,0E0,0E0,0E0,6.272158E2,1.6112383E3,7.884839E3,2.7871025E3,9.558707E1,7.5626465E2,0E0,9.369414E2,7.0685986E2,0E0,0E0,0E0,0E0,0E0,0E0,0E0,0E0,0E0,0E0,0E0,0E0,0E0,0E0,0E0,0E0,0E0],"parents":[2147483647,0,0,1,1,2,2,3,3,4,4,5,5,6,6,7,7,8,8,9,9,10,10,11,11,12,12,13,13,19,19,20,20,21,21,22,22,23,23,24,24,26,26,27,27],"right_children":[2,4,6,8,10,12,14,16,18,20,22,24,26,28,-1,-1,-1,-1,-1,30,32,34,36,38,40,-1,42,44,-1,-1,-1,-1,-1,-1,-1,-1,-1,-1,-1,-1,-1,-1,-1,-1,-1],"split_conditions":[3E0,1.57E2,1.3E1,1E0,1.09E2,4E0,1.71E2,6E0,2.18E2,2.9551E4,2.54E2,1E0,1.43E2,3E0,4.1601577E0,-9.887047E-1,3.413391E-1,3.2392175E0,7.5947E0,3.31E2,2E0,2.99E2,6.3947E4,2E0,1.84E2,3.6411545E0,2.39E2,1E0,1.9107796E0,-8.026698E-1,4.012788E-1,-1.6848097E0,5.224646E-1,1.18122935E-1,-2.026706E0,1.398883E0,4.480535E0,-9.859009E-2,9.0696585E-1,7.9262316E-1,3.0190086E0,3.9309735E0,8.193491E0,-4.0348002E-1,-2.0262039E0],"split_indices":[3,4,3,2,2,3,2,0,1,7,1,2,2,6,0,0,0,0,0,1,3,4,7,0,1,0,1,5,0,0,0,0,0,0,0,0,0,0,0,0,0,0,0,0,0],"split_type":[0,0,0,0,0,0,0,0,0,0,0,0,0,0,0,0,0,0,0,0,0,0,0,0,0,0,0,0,0,0,0,0,0,0,0,0,0,0,0,0,0,0,0,0,0],"sum_hessian":[2.57E2,2.11E2,4.6E1,1E1,2.01E2,3.3E1,1.3E1,2E0,8E0,1.11E2,9E1,1.4E1,1.9E1,1.2E1,1E0,1E0,1E0,6E0,2E0,1.7E1,9.4E1,7.5E1,1.5E1,4E0,1E1,8E0,1.1E1,1.1E1,1E0,1.1E1,6E0,9.1E1,3E0,5E1,2.5E1,1.1E1,4E0,1E0,3E0,3E0,7E0,4E0,7E0,6E0,5E0],"tree_param":{"num_deleted":"0","num_feature":"11","num_nodes":"45","size_leaf_vector":"1"}},{"base_weights":[9.3847567E-1,-7.892497E0,1.998901E1,4.308023E1,-9.932945E0,3.7196495E1,8.800215E0,2.3698246E0,5.8890427E1,-1.3724009E1,-3.843474E0,8.272144E0,4.996792E1,5.8362193E0,4.2168106E1,-9.3926924E-1,1.294743E0,1.7559617E0,6.483322E0,8.026976E-1,-1.4442439E1,-1.1811949E1,1.8504705E1,1.1723112E1,-4.8381424E-1,2.7175234E1,6.105122E0,-9.268103E0,1.1128441E1,1.2057747E0,4.8185644E0,-1.0642253E0,-1.7891806E0,-4.3414113E-1,-2.4851716E0,4.8369308E0,6.517014E-1,2.4236782E-1,1.4033854E0,3.2229962E0,6.3224643E-1,-1.6166166E0,1.4740004E-1,1.3067739E-1,2.332385E0],"categories":[],"categories_nodes":[],"categories_segments":[],"categories_sizes":[],"default_left":[0,0,0,0,0,0,0,0,0,0,0,0,0,0,0,0,0,0,0,0,0,0,0,0,0,0,0,0,0,0,0,0,0,0,0,0,0,0,0,0,0,0,0,0,0],"id":9,"left_children":[1,3,5,7,9,11,13,15,17,19,21,23,25,27,29,-1,-1,-1,-1,-1,31,33,35,37,-1,39,-1,41,43,-1,-1,-1,-1,-1,-1,-1,-1,-1,-1,-1,-1,-1,-1,-1,-1],"loss_changes":[4.356233E4,1.8837188E4,1.5460203E4,4.365916E3,3.8948848E3,1.1407621E4,4.797914E3,4.9486902E2,8.965625E1,1.7567168E3,1.2149999E4,5.5439325E2,3.8985234E3,3.940039E3,1.4375049E2,0E0,0E0,0E0,0E0,0E0,1.1466309E3,4.762813E3,6.128913E3,1.5938379E2,0E0,7.4487256E2,0E0,9.8712524E2,4.281574E3,0E0,0E0,0E0,0E0,0E0,0E0,0E0,0E0,0E0,0E0,0E0,0E0,0E0,0E0,0E0,0E0],"parents":[2147483647,0,0,1,1,2,2,3,3,4,4,5,5,6,6,7,7,8,8,9,9,10,10,11,11,12,12,13,13,14,14,20,20,21,21,22,22,23,23,25,25,27,27,28,28],"right_children":[2,4,6,8,10,12,14,16,18,20,22,24,26,28,30,-1,-1,-1,-1,-1,32,34,36,38,-1,40,-1,42,44,-1,-1,-1,-1,-1,-1,-1,-1,-1,-1,-1,-1,-1,-1,-1,-1],"split_conditions":[2E0,1.55E2,2.13E2,1.68E2,1.09E2,1.17E2,3.66E2,6E0,1.72E2,9.665E3,2.37E2,2E2,2.12E2,2.5E1,2E0,-9.3926924E-1,1.294743E0,1.7559617E0,6.483322E0,8.026976E-1,2.35E2,2.98E2,2.77E2,2.9551E4,-4.8381424E-1,1.94E2,6.105122E0,3.31E2,2.48E2,1.2057747E0,4.8185644E0,-1.0642253E0,-1.7891806E0,-4.3414113E-1,-2.4851716E0,4.8369308E0,6.517014E-1,2.4236782E-1,1.4033854E0,3.2229962E0,6.3224643E-1,-1.6166166E0,1.4740004E-1,1.3067739E-1,2.332385E0],"split_indices":[3,4,4,1,2,2,1,0,1,7,1,4,1,2,0,0,0,0,0,0,4,4,4,7,0,4,0,1,1,0,0,0,0,0,0,0,0,0,0,0,0,0,0,0,0],"split_type":[0,0,0,0,0,0,0,0,0,0,0,0,0,0,0,0,0,0,0,0,0,0,0,0,0,0,0,0,0,0,0,0,0,0,0,0,0,0,0,0,0,0,0,0,0],"sum_hessian":[2.57E2,1.76E2,8.1E1,6E0,1.7E2,3.1E1,5E1,2E0,4E0,1.04E2,6.6E1,1E1,2.1E1,4.7E1,3E0,1E0,1E0,1E0,3E0,3E0,1.01E2,4.9E1,1.7E1,8E0,2E0,8E0,1.3E1,1.2E1,3.5E1,1E0,2E0,5E1,5.1E1,3.2E1,1.7E1,4E0,1.3E1,2E0,6E0,6E0,2E0,7E0,5E0,2E1,1.5E1],"tree_param":{"num_deleted":"0","num_feature":"11","num_nodes":"45","size_leaf_vector":"1"}},{"base_weights":[9.5026267E-1,-4.635657E0,2.6126108E1,3.4198986E1,-6.727466E0,3.6753857E1,-1.5502919E0,-3.8676808E0,4.3087986E1,3.8698363E0,-9.789558E0,1.700591E1,4.9727123E1,-7.5703616E0,3.835531E0,-8.923058E-1,3.1215364E-1,2.6872418E0,6.6561656E0,-2.0030284E0,1.2320909E1,-1.1022903E1,7.5823793E0,4.7773314E0,2.1018364E1,2.553966E0,5.826892E1,-1.1032261E1,1.6986214E0,2.4414983E-1,-7.3191357E-1,2.8099673E0,4.6785164E-1,-1.219266E0,4.5479771E-1,5.3474975E0,-2.3543778E-1,-4.9987793E-2,6.221604E-1,-1.0103073E-1,2.3322263E0,4.0593586E0,7.5070434E0,-1.6800753E0,-2.4636447E-1],"categories":[],"categories_nodes":[],"categories_segments":[],"categories_sizes":[],"default_left":[0,0,0,0,0,0,0,0,0,0,0,0,0,0,0,0,0,0,0,0,0,0,0,0,0,0,0,0,0,0,0,0,0,0,0,0,0,0,0,0,0,0,0,0,0],"id":10,"left_children":[1,3,5,7,9,11,13,15,17,19,21,23,25,27,-1,-1,-1,-1,-1,29,31,33,35,37,39,-1,41,43,-1,-1,-1,-1,-1,-1,-1,-1,-1,-1,-1,-1,-1,-1,-1,-1,-1],"loss_changes":[3.640372E4,1.745182E4,1.3881459E4,3.8887715E3,6.5927676E3,7.8649883E3,3.6536465E3,1.3385303E2,1.6370781E3,2.3077512E3,3.4473984E3,6.355874E2,2.643918E3,1.2925574E3,0E0,0E0,0E0,0E0,0E0,6.794419E2,2.1596973E3,2.7329316E3,5.14216E3,4.1218666E1,5.8183203E2,0E0,1.1102344E3,5.5174475E2,0E0,0E0,0E0,0E0,0E0,0E0,0E0,0E0,0E0,0E0,0E0,0E0,0E0,0E0,0E0,0E0,0E0],"parents":[2147483647,0,0,1,1,2,2,3,3,4,4,5,5,6,6,7,7,8,8,9,9,10,10,11,11,12,12,13,13,19,19,20,20,21,21,22,22,23,23,24,24,26,26,27,27],"right_children":[2,4,6,8,10,12,14,16,18,20,22,24,26,28,-1,-1,-1,-1,-1,30,32,34,36,38,40,-1,42,44,-1,-1,-1,-1,-1,-1,-1,-1,-1,-1,-1,-1,-1,-1,-1,-1,-1],"split_conditions":[3E0,1.57E2,1.3E1,1E0,4.5349E4,4E0,1.71E2,6E0,2.18E2,1.48E2,1.90352E5,1.6617E4,1E0,3E0,3.835531E0,-8.923058E-1,3.1215364E-1,2.6872418E0,6.6561656E0,9E0,1.64E2,3E0,1.90874E5,7E0,2E0,2.553966E0,2.73E2,4E0,1.6986214E0,2.4414983E-1,-7.3191357E-1,2.8099673E0,4.6785164E-1,-1.219266E0,4.5479771E-1,5.3474975E0,-2.3543778E-1,-4.9987793E-2,6.221604E-1,-1.0103073E-1,2.3322263E0,4.0593586E0,7.5070434E0,-1.6800753E0,-2.4636447E-1],"split_indices":[3,4,3,2,7,3,2,0,1,2,7,7,8,6,0,0,0,0,0,0,2,6,7,0,0,0,1,0,0,0,0,0,0,0,0,0,0,0,0,0,0,0,0,0,0],"split_type":[0,0,0,0,0,0,0,0,0,0,0,0,0,0,0,0,0,0,0,0,0,0,0,0,0,0,0,0,0,0,0,0,0,0,0,0,0,0,0,0,0,0,0,0,0],"sum_hessian":[2.57E2,2.11E2,4.6E1,1E1,2.01E2,3.3E1,1.3E1,2E0,8E0,4.5E1,1.56E2,1.4E1,1.9E1,1.2E1,1E0,1E0,1E0,6E0,2E0,2.7E1,1.8E1,1.46E2,1E1,4E0,1E1,6E0,1.3E1,1.1E1,1E0,1.5E1,1.2E1,5E0,1.3E1,1.36E2,1E1,1E0,9E0,1E0,3E0,1E0,9E0,8E0,5E0,6E0,5E0],"tree_param":{"num_deleted":"0","num_feature":"11","num_nodes":"45","size_leaf_vector":"1"}},{"base_weights":[9.9644804E-1,-6.3665915E0,1.6877686E1,3.7074066E1,-8.107633E0,5.6413054E0,2.9121868E1,1.6530203E0,5.091188E1,-1.1362902E1,-2.8850808E0,9.698417E0,-9.122713E0,2.0494091E1,5.9992737E1,-8.476906E-1,1.0956436E0,2.2728918E0,6.212422E0,-3.16271E-1,-1.2522376E1,-9.960859E0,1.6930141E1,4.8111253E0,2.5591633E1,-1.3722326E1,1.6136903E0,3.414143E1,9.35952E0,7.4338317E0,2.7062576E0,-4.0753946E-1,1.1066524E0,-9.1207075E-1,-1.5802363E0,-3.3791834E-1,-2.1473885E0,4.396506E0,6.0655206E-1,1.3433307E0,6.905869E-2,2.7237616E0,7.034874E-1,-1.9008993E-1,-1.682832E0,7.532049E-1,3.7948658E0,3.0709758E-1,2.6353252E0],"categories":[],"categories_nodes":[],"categories_segments":[],"categories_sizes":[],"default_left":[0,0,0,0,0,0,0,0,0,0,0,0,0,0,0,0,0,0,0,0,0,0,0,0,0,0,0,0,0,0,0,0,0,0,0,0,0,0,0,0,0,0,0,0,0,0,0,0,0],"id":11,"left_children":[1,3,5,7,9,11,13,15,17,19,21,23,25,27,29,-1,-1,-1,-1,31,33,35,37,39,41,43,-1,45,47,-1,-1,-1,-1,-1,-1,-1,-1,-1,-1,-1,-1,-1,-1,-1,-1,-1,-1,-1,-1],"loss_changes":[3.0276475E4,1.3687441E4,1.1117295E4,3.3468896E3,2.8743555E3,2.724043E3,9.158035E3,3.7560544E2,1.6796875E2,1.3409092E3,9.562584E3,2.5954927E3,1.3832805E3,4.543085E3,1.7674355E3,0E0,0E0,0E0,0E0,5.157831E2,9.158281E2,3.716187E3,5.0203633E3,9.855081E2,5.2739746E1,2.9846655E2,0E0,1.1324805E3,1.9495209E3,0E0,0E0,0E0,0E0,0E0,0E0,0E0,0E0,0E0,0E0,0E0,0E0,0E0,0E0,0E0,0E0,0E0,0E0,0E0,0E0],"parents":[2147483647,0,0,1,1,2,2,3,3,4,4,5,5,6,6,7,7,8,8,9,9,10,10,11,11,12,12,13,13,14,14,19,19,20,20,21,21,22,22,23,23,24,24,25,25,27,27,28,28],"right_children":[2,4,6,8,10,12,14,16,18,20,22,24,26,28,30,-1,-1,-1,-1,32,34,36,38,40,42,44,-1,46,48,-1,-1,-1,-1,-1,-1,-1,-1,-1,-1,-1,-1,-1,-1,-1,-1,-1,-1,-1,-1],"split_conditions":[2E0,1.55E2,1.4E2,1.68E2,1.09E2,8E0,2.81E2,6E0,2.18E2,2.8059E4,2.37E2,4E0,3E0,2.12E2,2.41E2,-8.476906E-1,1.0956436E0,2.2728918E0,6.212422E0,2.8033E4,2.35E2,2.98E2,2.77E2,2E2,1.32E2,2.03E2,1.6136903E0,1.48E2,2.04E2,7.4338317E0,2.7062576E0,-4.0753946E-1,1.1066524E0,-9.1207075E-1,-1.5802363E0,-3.3791834E-1,-2.1473885E0,4.396506E0,6.0655206E-1,1.3433307E0,6.905869E-2,2.7237616E0,7.034874E-1,-1.9008993E-1,-1.682832E0,7.532049E-1,3.7948658E0,3.0709758E-1,2.6353252E0],"split_indices":[3,4,2,1,2,3,1,0,1,7,1,3,6,4,4,0,0,0,0,7,4,4,4,4,2,4,0,1,2,0,0,0,0,0,0,0,0,0,0,0,0,0,0,0,0,0,0,0,0],"split_type":[0,0,0,0,0,0,0,0,0,0,0,0,0,0,0,0,0,0,0,0,0,0,0,0,0,0,0,0,0,0,0,0,0,0,0,0,0,0,0,0,0,0,0,0,0,0,0,0,0],"sum_hessian":[2.57E2,1.76E2,8.1E1,6E0,1.7E2,4.3E1,3.8E1,2E0,4E0,1.04E2,6.6E1,3.4E1,9E0,3.1E1,7E0,1E0,1E0,2E0,2E0,1E1,9.4E1,4.9E1,1.7E1,2.7E1,7E0,8E0,1E0,1.3E1,1.8E1,4E0,3E0,8E0,2E0,4.8E1,4.6E1,3.2E1,1.7E1,4E0,1.3E1,8E0,1.9E1,6E0,1E0,2E0,6E0,2E0,1.1E1,1.4E1,4E0],"tree_param":{"num_deleted":"0","num_feature":"11","num_nodes":"49","size_leaf_vector":"1"}},{"base_weights":[1.0195513E0,-3.639212E0,2.2011854E1,2.935272E1,-5.4177866E0,7.3107567E0,3.703427E1,-3.839513E0,3.7155384E1,3.4241855E0,-7.97392E0,1.6570787E1,-8.236367E0,4.945352E1,1.5943892E1,-8.0530626E-1,2.2937928E-1,2.2921522E0,5.7982607E0,-1.5979326E0,1.0644981E1,-5.216621E0,-1.4126606E1,8.605062E0,2.346088E1,-1.2558198E1,1.5330056E0,3.5039308E0,6.839125E0,4.105007E0,2.6961775E1,2.4469505E-1,-6.4533323E-1,2.3997264E0,4.1622192E-1,-8.0101204E-1,9.5062715E-1,-2.072848E0,-9.837562E-1,1.2338862E0,3.1502488E-1,2.4902968E0,6.6831285E-1,1.1894836E-1,-1.4425343E0,-1.8075842E-1,7.513199E-1,3.459849E0,-1.7925453E-1],"categories":[],"categories_nodes":[],"categories_segments":[],"categories_sizes":[],"default_left":[0,0,0,0,0,0,0,0,0,0,0,0,0,0,0,0,0,0,0,0,0,0,0,0,0,0,0,0,0,0,0,0,0,0,0,0,0,0,0,0,0,0,0,0,0,0,0,0,0],"id":12,"left_children":[1,3,5,7,9,11,13,15,17,19,21,23,25,27,29,-1,-1,-1,-1,31,33,35,37,39,41,43,-1,-1,-1,45,47,-1,-1,-1,-1,-1,-1,-1,-1,-1,-1,-1,-1,-1,-1,-1,-1,-1,-1],"loss_changes":[2.5312033E4,1.2598893E4,1.0109014E4,2.9915254E3,4.5927583E3,3.7356538E3,5.235836E3,9.600101E1,1.3390166E3,1.6851395E3,2.5897783E3,6.76271E2,1.2110188E3,1.4252305E3,1.1937163E3,0E0,0E0,0E0,0E0,5.656977E2,1.544752E3,4.600269E3,1.1552383E3,1.444342E2,2.713086E1,2.4817896E2,0E0,0E0,0E0,1.344882E2,1.1599622E3,0E0,0E0,0E0,0E0,0E0,0E0,0E0,0E0,0E0,0E0,0E0,0E0,0E0,0E0,0E0,0E0,0E0,0E0],"parents":[2147483647,0,0,1,1,2,2,3,3,4,4,5,5,6,6,7,7,8,8,9,9,10,10,11,11,12,12,13,13,14,14,19,19,20,20,21,21,22,22,23,23,24,24,25,25,29,29,30,30],"right_children":[2,4,6,8,10,12,14,16,18,20,22,24,26,28,30,-1,-1,-1,-1,32,34,36,38,40,42,44,-1,-1,-1,46,48,-1,-1,-1,-1,-1,-1,-1,-1,-1,-1,-1,-1,-1,-1,-1,-1,-1,-1],"split_conditions":[3E0,1.57E2,1.38E2,1E0,4.5349E4,8E0,2.58E2,6E0,2.18E2,1.48E2,2.79E2,4E0,3E0,2.74E2,2.48E2,-8.0530626E-1,2.2937928E-1,2.2921522E0,5.7982607E0,9E0,1.64E2,1.35E2,2.18E2,2E2,1.32E2,1.61E2,1.5330056E0,3.5039308E0,6.839125E0,2.01E2,2.17E2,2.4469505E-1,-6.4533323E-1,2.3997264E0,4.1622192E-1,-8.0101204E-1,9.5062715E-1,-2.072848E0,-9.837562E-1,1.2338862E0,3.1502488E-1,2.4902968E0,6.6831285E-1,1.1894836E-1,-1.4425343E0,-1.8075842E-1,7.513199E-1,3.459849E0,-1.7925453E-1],"split_indices":[3,4,2,2,7,3,4,0,1,2,4,3,6,1,1,0,0,0,0,0,2,2,1,4,2,1,0,0,0,1,2,0,0,0,0,0,0,0,0,0,0,0,0,0,0,0,0,0,0],"split_type":[0,0,0,0,0,0,0,0,0,0,0,0,0,0,0,0,0,0,0,0,0,0,0,0,0,0,0,0,0,0,0,0,0,0,0,0,0,0,0,0,0,0,0,0,0,0,0,0,0],"sum_hessian":[2.57E2,2.11E2,4.6E1,1E1,2.01E2,2.4E1,2.2E1,2E0,8E0,4.5E1,1.56E2,1.5E1,9E0,1.3E1,9E0,1E0,1E0,6E0,2E0,2.7E1,1.8E1,1.09E2,4.7E1,8E0,7E0,8E0,1E0,9E0,4E0,5E0,4E0,1.5E1,1.2E1,5E0,1.3E1,9.2E1,1.7E1,1.7E1,3E1,4E0,4E0,6E0,1E0,1E0,7E0,2E0,3E0,3E0,1E0],"tree_param":{"num_deleted":"0","num_feature":"11","num_nodes":"49","size_leaf_vector":"1"}},{"base_weights":[1.0188893E0,-3.2421653E0,2.0217287E1,2.7100586E1,-4.8784432E0,6.7763586E0,3.394798E1,-3.6475372E0,3.4338783E1,-9.253785E0,-1.4079611E-1,1.5207928E1,-7.3917875E0,4.5246956E1,1.4734616E1,-7.65041E-1,2.179104E-1,2.0956825E1,5.41171E0,-1.553484E1,-6.412603E0,-5.441545E0,1.3999749E1,7.9166565E0,2.1509617E1,-1.1449443E1,1.4563553E0,3.1885762E0,6.291995E0,3.7895992E0,2.4921713E1,5.8159333E-1,2.2510984E0,-1.6171211E0,2.096325E-1,3.1169686E-1,-1.1338241E0,-1.05774485E-1,-1.6786537E0,4.5158267E0,8.22334E-1,5.2210238E-2,9.9548006E-1,2.2768428E0,6.348969E-1,-1.3329798E-1,-1.4149436E0,-1.6870804E-1,6.949709E-1,3.20036E0,-1.702919E-1],"categories":[],"categories_nodes":[],"categories_segments":[],"categories_sizes":[],"default_left":[0,0,0,0,0,0,0,0,0,0,0,0,0,0,0,0,0,0,0,0,0,0,0,0,0,0,0,0,0,0,0,0,0,0,0,0,0,0,0,0,0,0,0,0,0,0,0,0,0,0,0],"id":13,"left_children":[1,3,5,7,9,11,13,15,17,19,21,23,25,27,29,-1,-1,31,-1,33,35,37,39,41,43,45,-1,-1,-1,47,49,-1,-1,-1,-1,-1,-1,-1,-1,-1,-1,-1,-1,-1,-1,-1,-1,-1,-1,-1,-1],"loss_changes":[2.1171346E4,1.0657833E4,8.443959E3,2.5734243E3,4.1859194E3,3.0989062E3,4.3264062E3,8.6640945E1,1.2479307E3,1.7741729E3,7.421817E3,5.6487305E2,1.0576165E3,1.2995996E3,1.02053613E3,0E0,0E0,3.379712E1,0E0,3.9293848E2,3.5088428E3,3.563105E3,4.488225E3,1.3044305E2,8.119141E0,2.269685E2,0E0,0E0,0E0,1.1556617E2,9.972627E2,0E0,0E0,0E0,0E0,0E0,0E0,0E0,0E0,0E0,0E0,0E0,0E0,0E0,0E0,0E0,0E0,0E0,0E0,0E0,0E0],"parents":[2147483647,0,0,1,1,2,2,3,3,4,4,5,5,6,6,7,7,8,8,9,9,10,10,11,11,12,12,13,13,14,14,17,17,19,19,20,20,21,21,22,22,23,23,24,24,25,25,29,29,30,30],"right_children":[2,4,6,8,10,12,14,16,18,20,22,24,26,28,30,-1,-1,32,-1,34,36,38,40,42,44,46,-1,-1,-1,48,50,-1,-1,-1,-1,-1,-1,-1,-1,-1,-1,-1,-1,-1,-1,-1,-1,-1,-1,-1,-1],"split_conditions":[3E0,1.57E2,1.38E2,1E0,1.01E2,8E0,2.58E2,6E0,2.18E2,2.62E2,2.37E2,4E0,3E0,2.74E2,2.48E2,-7.65041E-1,2.179104E-1,1.41E2,5.41171E0,1.9164E5,2.35E2,2.98E2,2.25E2,4E0,1.32E2,2.03E2,1.4563553E0,3.1885762E0,6.291995E0,2.01E2,2.17E2,5.8159333E-1,2.2510984E0,-1.6171211E0,2.096325E-1,3.1169686E-1,-1.1338241E0,-1.05774485E-1,-1.6786537E0,4.5158267E0,8.22334E-1,5.2210238E-2,9.9548006E-1,2.2768428E0,6.348969E-1,-1.3329798E-1,-1.4149436E0,-1.6870804E-1,6.949709E-1,3.20036E0,-1.702919E-1],"split_indices":[3,4,2,2,2,3,4,0,1,1,1,3,6,1,1,0,0,1,0,7,4,4,4,0,2,4,0,0,0,1,2,0,0,0,0,0,0,0,0,0,0,0,0,0,0,0,0,0,0,0,0],"split_type":[0,0,0,0,0,0,0,0,0,0,0,0,0,0,0,0,0,0,0,0,0,0,0,0,0,0,0,0,0,0,0,0,0,0,0,0,0,0,0,0,0,0,0,0,0,0,0,0,0,0,0],"sum_hessian":[2.57E2,2.11E2,4.6E1,1E1,2.01E2,2.4E1,2.2E1,2E0,8E0,1.04E2,9.7E1,1.5E1,9E0,1.3E1,9E0,1E0,1E0,6E0,2E0,3.1E1,7.3E1,7.1E1,2.6E1,8E0,7E0,8E0,1E0,9E0,4E0,5E0,4E0,1E0,5E0,3E1,1E0,2.5E1,4.8E1,5.2E1,1.9E1,3E0,2.3E1,2E0,6E0,6E0,1E0,2E0,6E0,2E0,3E0,3E0,1E0],"tree_param":{"num_deleted":"0","num_feature":"11","num_nodes":"51","size_leaf_vector":"1"}},{"base_weights":[1.0174873E0,-4.6529474E0,1.3244921E1,2.968865E1,-6.0315337E0,3.04702E1,8.271075E0,5.793991E-1,4.121647E1,-1.1143226E1,-3.5770502E0,4.718544E0,3.7490776E1,-5.0385756E0,1.20235E1,-7.267891E-1,8.1369895E-1,1.818483E0,5.050929E0,-1.5902629E1,-5.98585E0,6.011355E0,-6.8051763E0,5.429556E-1,9.3724824E-2,1.328537E0,4.288449E1,-9.72135E0,3.6058109E0,3.1721535E0,2.0412405E1,-5.540014E-1,-1.8476979E0,9.829871E-1,-1.2803632E0,-1.391957E-1,1.8925437E0,-1.0332851E0,7.2812326E-2,2.1307056E0,4.8312645E0,-1.1674633E0,-1.2721457E-1,-1.1779404E-1,4.7981492E-1,-6.244612E-1,1.0494089E0,8.1449395E-1,2.7570512E0],"categories":[],"categories_nodes":[],"categories_segments":[],"categories_sizes":[],"default_left":[0,0,0,0,0,0,0,0,0,0,0,0,0,0,0,0,0,0,0,0,0,0,0,0,0,0,0,0,0,0,0,0,0,0,0,0,0,0,0,0,0,0,0,0,0,0,0,0,0],"id":14,"left_children":[1,3,5,7,9,11,13,15,17,19,21,23,25,27,29,-1,-1,-1,-1,31,33,35,37,-1,-1,-1,39,41,43,45,47,-1,-1,-1,-1,-1,-1,-1,-1,-1,-1,-1,-1,-1,-1,-1,-1,-1,-1],"loss_changes":[1.7950023E4,8.558752E3,6.7733994E3,2.325083E3,2.1056025E3,3.0773457E3,3.3069067E3,2.3705856E2,1.516416E2,1.2548403E3,3.6623604E3,8.353889E0,1.2580605E3,6.4224896E2,3.7221577E3,0E0,0E0,0E0,0E0,6.4459326E2,3.145046E3,2.8945522E3,2.3461265E3,0E0,0E0,0E0,2.5898242E2,1.5018506E2,3.9875023E1,1.8582041E3,2.0585469E3,0E0,0E0,0E0,0E0,0E0,0E0,0E0,0E0,0E0,0E0,0E0,0E0,0E0,0E0,0E0,0E0,0E0,0E0],"parents":[2147483647,0,0,1,1,2,2,3,3,4,4,5,5,6,6,7,7,8,8,9,9,10,10,11,11,12,12,13,13,14,14,19,19,20,20,21,21,22,22,26,26,27,27,28,28,29,29,30,30],"right_children":[2,4,6,8,10,12,14,16,18,20,22,24,26,28,30,-1,-1,-1,-1,32,34,36,38,-1,-1,-1,40,42,44,46,48,-1,-1,-1,-1,-1,-1,-1,-1,-1,-1,-1,-1,-1,-1,-1,-1,-1,-1],"split_conditions":[2E0,1.55E2,1.84E2,1.68E2,2E0,1.17E2,1.4E1,6E0,2.18E2,2.74E2,2.37E2,7E0,2.01E2,3.31E2,2.47E2,-7.267891E-1,8.1369895E-1,1.818483E0,5.050929E0,1E0,2.39E2,1.04E2,5E0,5.429556E-1,9.3724824E-2,1.328537E0,3E0,9E0,3.34E2,1.56E2,1E0,-5.540014E-1,-1.8476979E0,9.829871E-1,-1.2803632E0,-1.391957E-1,1.8925437E0,-1.0332851E0,7.2812326E-2,2.1307056E0,4.8312645E0,-1.1674633E0,-1.2721457E-1,-1.1779404E-1,4.7981492E-1,-6.244612E-1,1.0494089E0,8.1449395E-1,2.7570512E0],"split_indices":[3,4,4,1,2,2,2,0,1,1,4,0,1,1,1,0,0,0,0,8,4,2,0,0,0,0,0,0,1,2,8,0,0,0,0,0,0,0,0,0,0,0,0,0,0,0,0,0,0],"split_type":[0,0,0,0,0,0,0,0,0,0,0,0,0,0,0,0,0,0,0,0,0,0,0,0,0,0,0,0,0,0,0,0,0,0,0,0,0,0,0,0,0,0,0,0,0,0,0,0,0],"sum_hessian":[2.57E2,1.76E2,8.1E1,6E0,1.7E2,1.7E1,6.4E1,2E0,4E0,5.4E1,1.16E2,4E0,1.3E1,1.4E1,5E1,1E0,1E0,2E0,2E0,2.7E1,2.7E1,2.9E1,8.7E1,3E0,1E0,3E0,1E1,9E0,5E0,2.5E1,2.5E1,6E0,2.1E1,8E0,1.9E1,1.9E1,1E1,5.9E1,2.8E1,3E0,7E0,7E0,2E0,1E0,4E0,1.1E1,1.4E1,1E1,1.5E1],"tree_param":{"num_deleted":"0","num_feature":"11","num_nodes":"49","size_leaf_vector":"1"}},{"base_weights":[9.817895E-1,2.1076101E1,-1.9566799E0,-4.68303E0,3.601861E1,-5.735379E0,7.4911036E0,-1.1912894E1,5.7372932E0,2.3153631E1,7.255581E0,4.5792236E0,-6.819041E0,-4.5968943E0,1.0899513E1,-1.4128642E1,1.7986718E-1,1.685196E-1,7.342043E-1,-1.0967125E0,2.5971622E1,1.942774E0,1.5356247E0,-7.6377583E0,8.360899E0,-8.878683E0,3.3055687E0,2.8712816E0,1.8508532E1,-1.5171695E0,-3.9351636E-1,8.3940077E-1,2.7883139E0,-2.1475342E-1,9.7348356E-1,-1.7054332E0,-5.92621E-1,-2.0436668E-1,1.5012373E0,-1.0653102E0,-1.1873373E-1,-1.11904144E-1,4.414299E-1,-5.672192E-1,9.514642E-1,2.440136E0,4.6663734E-1],"categories":[],"categories_nodes":[],"categories_segments":[],"categories_sizes":[],"default_left":[0,0,0,0,0,0,0,0,0,0,0,0,0,0,0,0,0,0,0,0,0,0,0,0,0,0,0,0,0,0,0,0,0,0,0,0,0,0,0,0,0,0,0,0,0,0,0],"id":15,"left_children":[1,3,5,7,9,11,13,15,17,19,-1,21,23,25,27,29,-1,-1,-1,-1,31,33,-1,35,37,39,41,43,45,-1,-1,-1,-1,-1,-1,-1,-1,-1,-1,-1,-1,-1,-1,-1,-1,-1,-1],"loss_changes":[1.5275243E4,1.2870573E4,8.1112393E3,1.0477356E3,8.191123E3,1.8419878E3,2.728159E3,2.6846387E2,2.6642822E1,1.919419E3,0E0,4.2477548E2,1.8907876E3,5.3689923E2,3.062292E3,1.4723267E1,0E0,0E0,0E0,0E0,3.0354688E2,4.6711298E2,0E0,2.1553018E3,5.843258E2,1.2382788E2,3.4373978E1,1.5296604E3,2.0069404E3,0E0,0E0,0E0,0E0,0E0,0E0,0E0,0E0,0E0,0E0,0E0,0E0,0E0,0E0,0E0,0E0,0E0,0E0],"parents":[2147483647,0,0,1,1,2,2,3,3,4,4,5,5,6,6,7,7,8,8,9,9,11,11,12,12,13,13,14,14,15,15,20,20,21,21,23,23,24,24,25,25,26,26,27,27,28,28],"right_children":[2,4,6,8,10,12,14,16,18,20,-1,22,24,26,28,30,-1,-1,-1,-1,32,34,-1,36,38,40,42,44,46,-1,-1,-1,-1,-1,-1,-1,-1,-1,-1,-1,-1,-1,-1,-1,-1,-1,-1],"split_conditions":[1.84E2,1.17E2,2E0,2E0,2.47E2,1.6388E4,1.4E1,6E0,1.81E2,1.2E2,7.255581E0,3.59E2,3E0,3.31E2,2.47E2,2.35E2,1.7986718E-1,1.685196E-1,7.342043E-1,-1.0967125E0,1.68E2,1E0,1.5356247E0,2.01E2,1.23E2,9E0,3.34E2,1.56E2,2.87E2,-1.5171695E0,-3.9351636E-1,8.3940077E-1,2.7883139E0,-2.1475342E-1,9.7348356E-1,-1.7054332E0,-5.92621E-1,-2.0436668E-1,1.5012373E0,-1.0653102E0,-1.1873373E-1,-1.11904144E-1,4.414299E-1,-5.672192E-1,9.514642E-1,2.440136E0,4.6663734E-1],"split_indices":[4,2,3,6,1,7,2,0,1,1,0,4,6,1,1,1,0,0,0,0,1,8,0,1,2,0,1,2,4,0,0,0,0,0,0,0,0,0,0,0,0,0,0,0,0,0,0],"split_type":[0,0,0,0,0,0,0,0,0,0,0,0,0,0,0,0,0,0,0,0,0,0,0,0,0,0,0,0,0,0,0,0,0,0,0,0,0,0,0,0,0,0,0,0,0,0,0],"sum_hessian":[2.57E2,3.2E1,2.25E2,1.2E1,2E1,1.61E2,6.4E1,7E0,5E0,1.6E1,4E0,1.5E1,1.46E2,1.4E1,5E1,6E0,1E0,2E0,3E0,1E0,1.5E1,1.3E1,2E0,1.39E2,7E0,9E0,5E0,2.5E1,2.5E1,5E0,1E0,2E0,1.3E1,9E0,4E0,2E1,1.19E2,3E0,4E0,7E0,2E0,1E0,4E0,1.1E1,1.4E1,1.7E1,8E0],"tree_param":{"num_deleted":"0","num_feature":"11","num_nodes":"47","size_leaf_vector":"1"}},{"base_weights":[9.3278944E-1,1.923996E1,-1.7445087E0,1.0309963E1,5.7706615E1,-5.153858E0,6.7794776E0,-5.675214E0,2.098715E1,6.2414974E-1,6.675134E0,4.264699E0,-6.143947E0,4.116984E0,2.1011496E1,-1.093796E1,3.8802216E0,-1.041877E0,2.3601192E1,1.8026918E0,1.43325E0,-6.890397E0,7.686919E0,1.4265834E-1,1.0734067E1,1.1529673E1,3.2351816E0,-1.2988735E0,1.7087364E-1,4.4472143E-1,8.061256E-2,1.276897E0,2.7364116E0,4.3495122E-1,-8.985486E-1,-1.543011E0,-5.3385276E-1,-1.8903904E-1,1.3811383E0,-7.925554E-1,4.0096942E-1,-2.965343E-1,1.641152E0,4.5107937E-1,1.5666134E0],"categories":[],"categories_nodes":[],"categories_segments":[],"categories_sizes":[],"default_left":[0,0,0,0,0,0,0,0,0,0,0,0,0,0,0,0,0,0,0,0,0,0,0,0,0,0,0,0,0,0,0,0,0,0,0,0,0,0,0,0,0,0,0,0,0],"id":16,"left_children":[1,3,5,7,9,11,13,15,17,-1,-1,19,21,23,25,27,29,-1,31,33,-1,35,37,39,41,43,-1,-1,-1,-1,-1,-1,-1,-1,-1,-1,-1,-1,-1,-1,-1,-1,-1,-1,-1],"loss_changes":[1.2679113E4,1.074078E4,6.602783E3,4.8980547E3,2.3762988E3,1.5368857E3,2.376519E3,6.458956E2,1.6415347E3,0E0,0E0,3.7075485E2,1.5706011E3,1.4711813E3,7.022632E2,2.2967877E2,5.129936E0,0E0,3.0276172E2,4.237402E2,0E0,1.772979E3,4.95356E2,1.1549813E3,1.6819988E3,1.3256659E2,0E0,0E0,0E0,0E0,0E0,0E0,0E0,0E0,0E0,0E0,0E0,0E0,0E0,0E0,0E0,0E0,0E0,0E0,0E0],"parents":[2147483647,0,0,1,1,2,2,3,3,4,4,5,5,6,6,7,7,8,8,11,11,12,12,13,13,14,14,15,15,16,16,18,18,19,19,21,21,22,22,23,23,24,24,25,25],"right_children":[2,4,6,8,10,12,14,16,18,-1,-1,20,22,24,26,28,30,-1,32,34,-1,36,38,40,42,44,-1,-1,-1,-1,-1,-1,-1,-1,-1,-1,-1,-1,-1,-1,-1,-1,-1,-1,-1],"split_conditions":[1.84E2,2.68E2,2E0,1.17E2,1E0,1.6388E4,3E0,2E0,1.2E2,6.2414974E-1,6.675134E0,3.59E2,3E0,1.51E2,5E0,6E0,4E0,-1.041877E0,2.01E2,3.05E2,1.43325E0,2.01E2,1.23E2,2.46E2,1E0,2.07E2,3.2351816E0,-1.2988735E0,1.7087364E-1,4.4472143E-1,8.061256E-2,1.276897E0,2.7364116E0,4.3495122E-1,-8.985486E-1,-1.543011E0,-5.3385276E-1,-1.8903904E-1,1.3811383E0,-7.925554E-1,4.0096942E-1,-2.965343E-1,1.641152E0,4.5107937E-1,1.5666134E0],"split_indices":[4,1,3,2,2,7,6,6,1,0,0,4,6,2,0,0,0,0,1,4,0,1,2,1,8,4,0,0,0,0,0,0,0,0,0,0,0,0,0,0,0,0,0,0,0],"split_type":[0,0,0,0,0,0,0,0,0,0,0,0,0,0,0,0,0,0,0,0,0,0,0,0,0,0,0,0,0,0,0,0,0,0,0,0,0,0,0,0,0,0,0,0,0],"sum_hessian":[2.57E2,3.2E1,2.25E2,2.7E1,5E0,1.61E2,6.4E1,1.1E1,1.6E1,1E0,4E0,1.5E1,1.46E2,5.5E1,9E0,7E0,4E0,1E0,1.5E1,1.3E1,2E0,1.39E2,7E0,3.5E1,2E1,6E0,3E0,6E0,1E0,3E0,1E0,5E0,1E1,1.1E1,2E0,2E1,1.19E2,3E0,4E0,1.1E1,2.4E1,6E0,1.4E1,3E0,3E0],"tree_param":{"num_deleted":"0","num_feature":"11","num_nodes":"45","size_leaf_vector":"1"}},{"base_weights":[9.0136594E-1,-6.2381744E0,6.8699074E0,-1.0533545E1,-3.1422985E0,2.1722946E1,-9.150133E-2,-7.62596E0,-1.47231E1,1.2633878E1,-6.297753E0,2.2695227E0,3.237761E1,-5.245091E0,1.346392E1,-1.2958291E1,-3.0549269E0,-1.8615865E0,-5.390382E0,3.8142395E0,1.838873E1,-8.477774E0,5.2321234E0,-1.1079895E1,7.2293353E0,2.4805307E0,5.727056E0,-9.752167E0,2.403953E-1,8.030227E0,2.5365162E0,-1.3751916E0,-5.464361E-1,3.4300232E-1,-5.1527715E-1,-9.2963916E-1,2.9164276E-1,6.522008E-1,-4.862301E-1,1.9684008E0,5.308529E-1,-3.8041422E-1,-1.5298012E0,5.9602755E-1,-6.606255E-2,-1.5751228E0,3.802719E-1,3.2418773E-1,1.5390648E0,-5.972687E-1,-2.0115392E0,5.3472704E-1,-1.045947E0,1.4405081E0,2.1486435E-2],"categories":[],"categories_nodes":[],"categories_segments":[],"categories_sizes":[],"default_left":[0,0,0,0,0,0,0,0,0,0,0,0,0,0,0,0,0,0,0,0,0,0,0,0,0,0,0,0,0,0,0,0,0,0,0,0,0,0,0,0,0,0,0,0,0,0,0,0,0,0,0,0,0,0,0],"id":17,"left_children":[1,3,5,7,9,11,13,15,17,19,21,23,25,27,29,31,33,-1,35,37,39,41,43,45,47,-1,-1,49,51,53,-1,-1,-1,-1,-1,-1,-1,-1,-1,-1,-1,-1,-1,-1,-1,-1,-1,-1,-1,-1,-1,-1,-1,-1,-1],"loss_changes":[1.1036918E4,1.5360562E3,1.4581117E4,4.8461426E2,3.5642356E3,9.253654E3,6.8469497E3,7.160154E2,5.899253E2,5.389293E2,1.527343E3,1.2056807E3,4.0457969E3,1.7577129E3,1.5423398E3,8.11792E0,2.6255365E2,0E0,2.5423758E2,1.7267636E2,1.4104248E1,1.5355684E3,4.6845734E1,4.0750574E2,3.7316302E2,0E0,0E0,1.4073931E3,1.8591444E3,9.933408E2,0E0,0E0,0E0,0E0,0E0,0E0,0E0,0E0,0E0,0E0,0E0,0E0,0E0,0E0,0E0,0E0,0E0,0E0,0E0,0E0,0E0,0E0,0E0,0E0,0E0],"parents":[2147483647,0,0,1,1,2,2,3,3,4,4,5,5,6,6,7,7,8,8,9,9,10,10,11,11,12,12,13,13,14,14,15,15,16,16,18,18,19,19,20,20,21,21,22,22,23,23,24,24,27,27,28,28,29,29],"right_children":[2,4,6,8,10,12,14,16,18,20,22,24,26,28,30,32,34,-1,36,38,40,42,44,46,48,-1,-1,50,52,54,-1,-1,-1,-1,-1,-1,-1,-1,-1,-1,-1,-1,-1,-1,-1,-1,-1,-1,-1,-1,-1,-1,-1,-1,-1],"split_conditions":[1.01E2,2.74E2,2.37E2,2.11E2,2.24E2,1.96E2,2.48E2,2.43E2,2.8E1,2.84E2,3.47E2,1.41E2,2.74E2,1.56E2,2.98E2,1.4E1,1.85E2,-1.8615865E0,2.59E2,6E0,3.13E2,2.73E2,2.4E1,8E0,8E0,2.4805307E0,5.727056E0,2.99E2,1E0,2.86E2,2.5365162E0,-1.3751916E0,-5.464361E-1,3.4300232E-1,-5.1527715E-1,-9.2963916E-1,2.9164276E-1,6.522008E-1,-4.862301E-1,1.9684008E0,5.308529E-1,-3.8041422E-1,-1.5298012E0,5.9602755E-1,-6.606255E-2,-1.5751228E0,3.802719E-1,3.2418773E-1,1.5390648E0,-5.972687E-1,-2.0115392E0,5.3472704E-1,-1.045947E0,1.4405081E0,2.1486435E-2],"split_indices":[2,1,4,4,4,1,1,1,2,1,1,1,1,2,1,2,4,0,1,0,1,4,2,0,0,0,0,4,5,4,0,0,0,0,0,0,0,0,0,0,0,0,0,0,0,0,0,0,0,0,0,0,0,0,0],"split_type":[0,0,0,0,0,0,0,0,0,0,0,0,0,0,0,0,0,0,0,0,0,0,0,0,0,0,0,0,0,0,0,0,0,0,0,0,0,0,0,0,0,0,0,0,0,0,0,0,0,0,0,0,0,0,0],"sum_hessian":[2.57E2,1.17E2,1.4E2,4.8E1,6.9E1,4.4E1,9.6E1,3E1,1.8E1,1.1E1,5.8E1,1.6E1,2.8E1,7E1,2.6E1,1.3E1,1.7E1,1.2E1,6E0,5E0,6E0,4.9E1,9E0,4E0,1.2E1,2.3E1,5E0,3.8E1,3.2E1,1.9E1,7E0,1.1E1,2E0,4E0,1.3E1,4E0,2E0,4E0,1E0,5E0,1E0,3E1,1.9E1,8E0,1E0,3E0,1E0,9E0,3E0,2.9E1,9E0,2.2E1,1E1,1E1,9E0],"tree_param":{"num_deleted":"0","num_feature":"11","num_nodes":"55","size_leaf_vector":"1"}},{"base_weights":[8.362135E-1,-5.6423955E0,6.2520976E0,-9.573935E0,-2.8097122E0,1.8957747E1,-5.095034E-1,-6.9309106E0,-1.3382346E1,1.1592593E1,-5.6913724E0,2.0720153E0,3.1548044E1,-4.921081E0,9.907413E0,-1.024358E1,-8.3221847E-1,-1.6897476E1,-4.942486E0,5.211648E0,1.9483587E1,-7.6682005E0,4.7619057E0,-1.0210876E1,5.368818E0,2.30537E0,5.3737686E1,-9.215218E-1,-1.1443498E1,1.47724695E1,4.7061987E0,-1.1399453E0,1.0618082E-2,3.7276947E-1,-3.578137E-1,-1.7500451E0,-4.8308945E-1,-8.55268E-1,2.7220002E-1,7.2759366E-1,-4.6191865E-1,2.1832933E0,5.0431025E-1,-3.4359992E-1,-1.3844703E0,5.4304713E-1,-6.27594E-2,-1.4569886E0,3.6125794E-1,-2.5669166E-1,1.0652187E0,1.5420074E0,5.7553945E0,-8.7033606E-1,4.202047E-1,-1.8305006E0,-6.439837E-1,9.638397E-1,2.519805E0,7.805621E-2,1.5306559E0],"categories":[],"categories_nodes":[],"categories_segments":[],"categories_sizes":[],"default_left":[0,0,0,0,0,0,0,0,0,0,0,0,0,0,0,0,0,0,0,0,0,0,0,0,0,0,0,0,0,0,0,0,0,0,0,0,0,0,0,0,0,0,0,0,0,0,0,0,0,0,0,0,0,0,0,0,0,0,0,0,0],"id":18,"left_children":[1,3,5,7,9,11,13,15,17,19,21,23,25,27,29,31,33,35,37,39,41,43,45,47,49,-1,51,53,55,57,59,-1,-1,-1,-1,-1,-1,-1,-1,-1,-1,-1,-1,-1,-1,-1,-1,-1,-1,-1,-1,-1,-1,-1,-1,-1,-1,-1,-1,-1,-1],"loss_changes":[9.087824E3,1.2872432E3,1.2123043E4,4.0046875E2,2.9711562E3,1.0351855E4,4.3225737E3,6.177666E2,4.801609E2,5.0268262E2,1.2557108E3,9.4569434E2,4.0387656E3,1.7111831E3,6.389956E2,2.404707E2,1.63592E2,1.0043213E1,2.1697238E2,1.9595834E2,5.9522583E1,1.2594395E3,3.944052E1,3.5391766E2,7.820366E2,0E0,1.3612305E2,1.711145E3,7.4043506E2,5.0649072E2,6.1224976E2,0E0,0E0,0E0,0E0,0E0,0E0,0E0,0E0,0E0,0E0,0E0,0E0,0E0,0E0,0E0,0E0,0E0,0E0,0E0,0E0,0E0,0E0,0E0,0E0,0E0,0E0,0E0,0E0,0E0,0E0],"parents":[2147483647,0,0,1,1,2,2,3,3,4,4,5,5,6,6,7,7,8,8,9,9,10,10,11,11,12,12,13,13,14,14,15,15,16,16,17,17,18,18,19,19,20,20,21,21,22,22,23,23,24,24,26,26,27,27,28,28,29,29,30,30],"right_children":[2,4,6,8,10,12,14,16,18,20,22,24,26,28,30,32,34,36,38,40,42,44,46,48,50,-1,52,54,56,58,60,-1,-1,-1,-1,-1,-1,-1,-1,-1,-1,-1,-1,-1,-1,-1,-1,-1,-1,-1,-1,-1,-1,-1,-1,-1,-1,-1,-1,-1,-1],"split_conditions":[1.01E2,2.74E2,2.41E2,2.11E2,2.24E2,2.01E2,2.46E2,2.54E2,2.8E1,2.87E2,3.47E2,1.41E2,2.74E2,2.99E2,2.87E2,2E0,1.93E2,1.5E1,2.59E2,6E0,3.13E2,2.73E2,2.4E1,8E0,1.27E2,2.30537E0,1E0,1.94E2,1.54E2,2.81E2,2.96E2,-1.1399453E0,1.0618082E-2,3.7276947E-1,-3.578137E-1,-1.7500451E0,-4.8308945E-1,-8.55268E-1,2.7220002E-1,7.2759366E-1,-4.6191865E-1,2.1832933E0,5.0431025E-1,-3.4359992E-1,-1.3844703E0,5.4304713E-1,-6.27594E-2,-1.4569886E0,3.6125794E-1,-2.5669166E-1,1.0652187E0,1.5420074E0,5.7553945E0,-8.7033606E-1,4.202047E-1,-1.8305006E0,-6.439837E-1,9.638397E-1,2.519805E0,7.805621E-2,1.5306559E0],"split_indices":[2,1,4,4,4,1,1,1,2,1,1,1,1,4,4,3,4,3,1,0,1,4,2,0,2,0,0,1,2,4,1,0,0,0,0,0,0,0,0,0,0,0,0,0,0,0,0,0,0,0,0,0,0,0,0,0,0,0,0,0,0],"split_type":[0,0,0,0,0,0,0,0,0,0,0,0,0,0,0,0,0,0,0,0,0,0,0,0,0,0,0,0,0,0,0,0,0,0,0,0,0,0,0,0,0,0,0,0,0,0,0,0,0,0,0,0,0,0,0,0,0,0,0,0,0],"sum_hessian":[2.57E2,1.17E2,1.4E2,4.8E1,6.9E1,4.8E1,9.2E1,3E1,1.8E1,1.1E1,5.8E1,2.1E1,2.7E1,6.5E1,2.7E1,1.9E1,1.1E1,1.2E1,6E0,7E0,4E0,4.9E1,9E0,4E0,1.7E1,2.1E1,6E0,4.1E1,2.4E1,1.3E1,1.4E1,1.7E1,2E0,4E0,7E0,1.1E1,1E0,4E0,2E0,6E0,1E0,3E0,1E0,3E1,1.9E1,8E0,1E0,3E0,1E0,7E0,1E1,1E0,5E0,1.6E1,2.5E1,9E0,1.5E1,1E1,3E0,1.1E1,3E0],"tree_param":{"num_deleted":"0","num_feature":"11","num_nodes":"61","size_leaf_vector":"1"}},{"base_weights":[7.884769E-1,-5.097012E0,5.7083297E0,-6.2243958E0,3.059315E0,1.803078E1,-6.7120545E-2,-4.6656747E0,-1.5911481E1,1.6036142E0,6.6615885E-1,3.2732677E0,2.774789E1,-4.589713E0,1.0695845E1,-8.696757E0,3.6387954E-2,-1.7019573E1,-6.175288E-1,-1.4059242E0,3.284124E0,-9.408936E0,7.2824507E0,2.0853117E0,4.840408E1,-9.755356E0,-6.007379E-1,6.425665E0,2.110186E0,-6.7239755E-1,-1.3148426E0,1.0779217E0,-3.5456583E-1,-1.7818497E0,-4.1157037E-1,2.8783545E-2,-2.6310426E-1,5.930848E-1,5.099198E-2,-1.3477147E0,3.4319535E-1,1.5845923E-1,9.9729216E-1,1.464907E0,5.2225266E0,-1.5482987E0,-3.7759927E-1,5.0890905E-1,-8.598099E-1,2.231836E0,3.720477E-1],"categories":[],"categories_nodes":[],"categories_segments":[],"categories_sizes":[],"default_left":[0,0,0,0,0,0,0,0,0,0,0,0,0,0,0,0,0,0,0,0,0,0,0,0,0,0,0,0,0,0,0,0,0,0,0,0,0,0,0,0,0,0,0,0,0,0,0,0,0,0,0],"id":19,"left_children":[1,3,5,7,9,11,13,15,17,19,-1,21,23,25,27,29,31,33,-1,35,37,39,41,-1,43,45,47,49,-1,-1,-1,-1,-1,-1,-1,-1,-1,-1,-1,-1,-1,-1,-1,-1,-1,-1,-1,-1,-1,-1,-1],"loss_changes":[7.499676E3,1.1040891E3,1.0035856E4,1.4961062E3,6.797487E1,6.3621914E3,4.7707124E3,1.7251671E3,4.5939697E1,6.530794E1,0E0,1.0345803E3,2.835957E3,1.4159275E3,1.1530374E3,3.4191675E2,1.6929158E3,5.0375E1,0E0,1.11325865E1,5.571618E1,3.0745013E2,2.1414575E2,0E0,8.853516E0,9.6896387E2,1.863901E3,8.6280505E2,0E0,0E0,0E0,0E0,0E0,0E0,0E0,0E0,0E0,0E0,0E0,0E0,0E0,0E0,0E0,0E0,0E0,0E0,0E0,0E0,0E0,0E0,0E0],"parents":[2147483647,0,0,1,1,2,2,3,3,4,4,5,5,6,6,7,7,8,8,9,9,11,11,12,12,13,13,14,14,15,15,16,16,17,17,19,19,20,20,21,21,22,22,24,24,25,25,26,26,27,27],"right_children":[2,4,6,8,10,12,14,16,18,20,-1,22,24,26,28,30,32,34,-1,36,38,40,42,-1,44,46,48,50,-1,-1,-1,-1,-1,-1,-1,-1,-1,-1,-1,-1,-1,-1,-1,-1,-1,-1,-1,-1,-1,-1,-1],"split_conditions":[1.01E2,3.34E2,2.37E2,2.79E2,3.66E2,2.01E2,2.46E2,2.74E2,1.8544E5,7E0,6.6615885E-1,1.41E2,2.74E2,1.42E2,2.98E2,2.18E2,2.23E2,3E0,-6.175288E-1,3.41E2,2E0,8E0,1.17E2,2.0853117E0,1E0,2.09E2,3.07E2,9.379E3,2.110186E0,-6.7239755E-1,-1.3148426E0,1.0779217E0,-3.5456583E-1,-1.7818497E0,-4.1157037E-1,2.8783545E-2,-2.6310426E-1,5.930848E-1,5.099198E-2,-1.3477147E0,3.4319535E-1,1.5845923E-1,9.9729216E-1,1.464907E0,5.2225266E0,-1.5482987E0,-3.7759927E-1,5.0890905E-1,-8.598099E-1,2.231836E0,3.720477E-1],"split_indices":[2,1,4,4,1,1,1,1,7,0,0,1,1,2,1,4,4,6,0,1,3,0,2,0,0,1,4,7,0,0,0,0,0,0,0,0,0,0,0,0,0,0,0,0,0,0,0,0,0,0,0],"split_type":[0,0,0,0,0,0,0,0,0,0,0,0,0,0,0,0,0,0,0,0,0,0,0,0,0,0,0,0,0,0,0,0,0,0,0,0,0,0,0,0,0,0,0,0,0,0,0,0,0,0,0],"sum_hessian":[2.57E2,1.17E2,1.4E2,1.03E2,1.4E1,4.4E1,9.6E1,9E1,1.3E1,1.1E1,3E0,1.8E1,2.6E1,6.8E1,2.8E1,4.8E1,4.2E1,1.1E1,2E0,4E0,7E0,4E0,1.4E1,2.1E1,5E0,2.9E1,3.9E1,2.1E1,7E0,3.5E1,1.3E1,1E1,3.2E1,1E1,1E0,2E0,2E0,3E0,4E0,3E0,1E0,5E0,9E0,1E0,4E0,1.4E1,1.5E1,2.3E1,1.6E1,2E0,1.9E1],"tree_param":{"num_deleted":"0","num_feature":"11","num_nodes":"51","size_leaf_vector":"1"}},{"base_weights":[7.4204093E-1,1.3632011E1,-1.1434063E0,7.197686E0,4.138686E1,-2.200118E0,1.1977352E1,-3.5824745E0,1.4383818E1,4.0424654E-1,4.804725E0,4.9983115E0,-3.7685585E0,5.912666E0,2.5350063E0,2.6547616E0,-8.416895E0,-7.7079165E-1,1.6246296E1,2.5095015E0,1.7853716E1,-1.6637636E0,-7.5099854E0,2.0274544E0,1.1723514E0,-4.4771448E-2,4.3179283E-1,-1.1672696E0,-1.849289E-2,9.1686124E-1,1.8629916E0,-1.5201707E-1,4.327627E-1,5.808962E-1,2.7962148E0,-6.5902674E-1,3.0304959E-2,-4.160792E-1,-1.3850754E0,4.2629242E-1,-1.832614E-1],"categories":[],"categories_nodes":[],"categories_segments":[],"categories_sizes":[],"default_left":[0,0,0,0,0,0,0,0,0,0,0,0,0,0,0,0,0,0,0,0,0,0,0,0,0,0,0,0,0,0,0,0,0,0,0,0,0,0,0,0,0],"id":20,"left_children":[1,3,5,7,9,11,13,15,17,-1,-1,19,21,23,-1,25,27,-1,29,31,33,35,37,39,-1,-1,-1,-1,-1,-1,-1,-1,-1,-1,-1,-1,-1,-1,-1,-1,-1],"loss_changes":[6.2858535E3,5.595373E3,3.1598096E3,2.220624E3,1.2981387E3,2.389801E3,1.2288357E3,3.8418585E2,8.246963E2,0E0,0E0,1.1709932E3,1.3498691E3,2.697239E2,0E0,3.2892803E1,1.8545291E2,0E0,9.9117676E1,2.483516E2,5.6809045E2,1.0872225E3,1.2590303E3,8.5473885E1,0E0,0E0,0E0,0E0,0E0,0E0,0E0,0E0,0E0,0E0,0E0,0E0,0E0,0E0,0E0,0E0,0E0],"parents":[2147483647,0,0,1,1,2,2,3,3,4,4,5,5,6,6,7,7,8,8,11,11,12,12,13,13,15,15,16,16,18,18,19,19,20,20,21,21,22,22,23,23],"right_children":[2,4,6,8,10,12,14,16,18,-1,-1,20,22,24,-1,26,28,-1,30,32,34,36,38,40,-1,-1,-1,-1,-1,-1,-1,-1,-1,-1,-1,-1,-1,-1,-1,-1,-1],"split_conditions":[1.84E2,2.68E2,3E0,1.17E2,1E0,1.641E4,5E0,6.4002E4,1.2E2,4.0424654E-1,4.804725E0,2.04E2,1E0,1.13798E5,2.5350063E0,2.34E2,2E0,-7.7079165E-1,2.01E2,2.51E2,4E0,8E0,2.84E2,2.52E2,1.1723514E0,-4.4771448E-2,4.3179283E-1,-1.1672696E0,-1.849289E-2,9.1686124E-1,1.8629916E0,-1.5201707E-1,4.327627E-1,5.808962E-1,2.7962148E0,-6.5902674E-1,3.0304959E-2,-4.160792E-1,-1.3850754E0,4.2629242E-1,-1.832614E-1],"split_indices":[4,1,6,2,2,7,0,7,1,0,0,2,5,7,0,1,5,0,1,1,3,2,4,4,0,0,0,0,0,0,0,0,0,0,0,0,0,0,0,0,0],"split_type":[0,0,0,0,0,0,0,0,0,0,0,0,0,0,0,0,0,0,0,0,0,0,0,0,0,0,0,0,0,0,0,0,0,0,0,0,0,0,0,0,0],"sum_hessian":[2.57E2,3.2E1,2.25E2,2.7E1,5E0,2.09E2,1.6E1,1.1E1,1.6E1,1E0,4E0,3.7E1,1.72E2,1.2E1,4E0,5E0,6E0,1E0,1.5E1,3.2E1,5E0,1.11E2,6.1E1,8E0,4E0,2E0,3E0,4E0,2E0,5E0,1E1,1E1,2.2E1,3E0,2E0,3.1E1,8E1,4.1E1,2E1,5E0,3E0],"tree_param":{"num_deleted":"0","num_feature":"11","num_nodes":"41","size_leaf_vector":"1"}},{"base_weights":[7.1278954E-1,-3.9685717E0,5.142404E0,-6.6964927E0,-1.7610767E0,1.5588073E1,-1.9689393E-1,-7.3626285E0,7.526118E-1,9.950939E0,-4.0741286E0,1.0304304E1,4.279935E0,-3.603531E0,7.759218E0,-5.2445526E0,-1.1307416E1,4.0024233E0,1.7478376E1,-6.0023108E0,2.1105723E0,-1.4692042E0,1.6956236E1,-2.9672183E-2,-9.034609E0,1.2290862E1,3.3145115E0,-7.004742E-1,5.0172156E-1,-1.2778773E0,-2.9629728E-1,5.8878183E-1,-4.5976716E-1,1.970896E0,4.278023E-1,-2.5982317E-1,-1.3597475E0,3.6577818E-1,-1.715403E-1,6.0904974E-1,-4.7718677E-1,1.1190429E0,1.8576806E0,-7.1050847E-1,4.6885058E-1,-1.5141426E0,-4.6531853E-1,7.541109E-1,2.1092532E0,2.5815964E-3,1.2351971E0],"categories":[],"categories_nodes":[],"categories_segments":[],"categories_sizes":[],"default_left":[0,0,0,0,0,0,0,0,0,0,0,0,0,0,0,0,0,0,0,0,0,0,0,0,0,0,0,0,0,0,0,0,0,0,0,0,0,0,0,0,0,0,0,0,0,0,0,0,0,0,0],"id":21,"left_children":[1,3,5,7,9,11,13,15,-1,17,19,21,-1,23,25,27,29,31,33,35,37,39,41,43,45,47,49,-1,-1,-1,-1,-1,-1,-1,-1,-1,-1,-1,-1,-1,-1,-1,-1,-1,-1,-1,-1,-1,-1,-1,-1],"loss_changes":[5.3704575E3,7.469629E2,7.420816E3,5.8596655E2,1.9639668E3,6.028997E3,2.4401797E3,3.918872E2,0E0,4.6736914E2,7.281821E2,3.0792588E3,0E0,1.2225559E3,5.0309106E2,7.0346246E2,1.8313477E2,1.5678688E2,6.2906982E1,1.1539794E3,9.5068344E1,4.035703E2,2.5714844E1,1.3352513E3,5.98458E2,3.8441382E2,4.4550293E2,0E0,0E0,0E0,0E0,0E0,0E0,0E0,0E0,0E0,0E0,0E0,0E0,0E0,0E0,0E0,0E0,0E0,0E0,0E0,0E0,0E0,0E0,0E0,0E0],"parents":[2147483647,0,0,1,1,2,2,3,3,4,4,5,5,6,6,7,7,9,9,10,10,11,11,13,13,14,14,15,15,16,16,17,17,18,18,19,19,20,20,21,21,22,22,23,23,24,24,25,25,26,26],"right_children":[2,4,6,8,10,12,14,16,-1,18,20,22,-1,24,26,28,30,32,34,36,38,40,42,44,46,48,50,-1,-1,-1,-1,-1,-1,-1,-1,-1,-1,-1,-1,-1,-1,-1,-1,-1,-1,-1,-1,-1,-1,-1,-1],"split_conditions":[1.09E2,2.74E2,2.41E2,3E0,2.24E2,2.74E2,2.46E2,2.18E2,7.526118E-1,2.87E2,3.33E2,1.82E2,4.279935E0,2.99E2,2.87E2,2E1,6E0,6E0,3.13E2,2.79E2,2E0,1.56E2,2.07E2,1.93E2,1.54E2,2.81E2,2.96E2,-7.004742E-1,5.0172156E-1,-1.2778773E0,-2.9629728E-1,5.8878183E-1,-4.5976716E-1,1.970896E0,4.278023E-1,-2.5982317E-1,-1.3597475E0,3.6577818E-1,-1.715403E-1,6.0904974E-1,-4.7718677E-1,1.1190429E0,1.8576806E0,-7.1050847E-1,4.6885058E-1,-1.5141426E0,-4.6531853E-1,7.541109E-1,2.1092532E0,2.5815964E-3,1.2351971E0],"split_indices":[2,1,4,6,4,1,1,4,0,1,1,1,0,4,4,2,0,0,1,4,6,4,1,1,2,4,1,0,0,0,0,0,0,0,0,0,0,0,0,0,0,0,0,0,0,0,0,0,0,0,0],"split_type":[0,0,0,0,0,0,0,0,0,0,0,0,0,0,0,0,0,0,0,0,0,0,0,0,0,0,0,0,0,0,0,0,0,0,0,0,0,0,0,0,0,0,0,0,0,0,0,0,0,0,0],"sum_hessian":[2.57E2,1.25E2,1.32E2,5.5E1,7E1,4.4E1,8.8E1,5.3E1,2E0,1.1E1,5.9E1,3.8E1,6E0,6.2E1,2.6E1,3.6E1,1.7E1,7E0,4E0,4.5E1,1.4E1,1.4E1,2.4E1,3.8E1,2.4E1,1.2E1,1.4E1,3.1E1,5E0,1.4E1,3E0,6E0,1E0,3E0,1E0,3.2E1,1.3E1,1E1,4E0,4E0,1E1,7E0,1.7E1,1.5E1,2.3E1,9E0,1.5E1,9E0,3E0,1.1E1,3E0],"tree_param":{"num_deleted":"0","num_feature":"11","num_nodes":"51","size_leaf_vector":"1"}},{"base_weights":[6.777535E-1,-2.180798E0,6.731095E0,2.1930096E0,-4.1347213E0,3.6960068E0,2.8517635E1,-2.020514E0,1.1730329E1,-1.0793131E1,-3.0278563E0,9.330072E0,-3.5866222E0,3.7298203E0,1.227743E0,-4.234859E0,1.3884005E1,5.6417465E-1,1.949022E1,4.48288E-2,-1.1523738E1,-7.382541E0,-2.7679664E-1,2.2216393E-1,1.49263935E1,1.3235757E0,-1.0345003E1,-7.587227E-1,7.4077934E-2,5.465502E-1,1.7674506E0,-7.95105E-1,2.9164997E-1,2.4955292E0,9.0340865E-1,-1.2099321E0,-1.4449959E-1,-1.0414643E0,1.8336137E-1,2.3781788E-1,-6.969535E-1,-1.0607196E0,2.373225E-1,1.3015431E0,2.5238633E0,-7.856876E-1,2.2202773E-1,-3.9599714E-1,-1.463878E0],"categories":[],"categories_nodes":[],"categories_segments":[],"categories_sizes":[],"default_left":[0,0,0,0,0,0,0,0,0,0,0,0,0,0,0,0,0,0,0,0,0,0,0,0,0,0,0,0,0,0,0,0,0,0,0,0,0,0,0,0,0,0,0,0,0,0,0,0,0],"id":22,"left_children":[1,3,5,7,9,11,13,15,17,19,21,23,25,-1,-1,27,29,31,33,-1,35,37,39,41,43,45,47,-1,-1,-1,-1,-1,-1,-1,-1,-1,-1,-1,-1,-1,-1,-1,-1,-1,-1,-1,-1,-1,-1],"loss_changes":[4.4790566E3,1.5131782E3,5.3828955E3,2.2339158E3,8.664551E2,3.0697434E3,9.6805664E2,1.4323022E3,1.4620222E3,1.4478784E2,1.2678364E3,2.1374568E3,1.1087971E3,0E0,0E0,5.8942633E2,6.29516E1,1.8343382E2,3.459873E2,0E0,7.533496E1,1.1648135E3,1.1893325E3,4.2118167E2,1.8387207E2,1.8208694E2,3.2585364E2,0E0,0E0,0E0,0E0,0E0,0E0,0E0,0E0,0E0,0E0,0E0,0E0,0E0,0E0,0E0,0E0,0E0,0E0,0E0,0E0,0E0,0E0],"parents":[2147483647,0,0,1,1,2,2,3,3,4,4,5,5,6,6,7,7,8,8,9,9,10,10,11,11,12,12,15,15,16,16,17,17,18,18,20,20,21,21,22,22,23,23,24,24,25,25,26,26],"right_children":[2,4,6,8,10,12,14,16,18,20,22,24,26,-1,-1,28,30,32,34,-1,36,38,40,42,44,46,48,-1,-1,-1,-1,-1,-1,-1,-1,-1,-1,-1,-1,-1,-1,-1,-1,-1,-1,-1,-1,-1,-1],"split_conditions":[1.4E2,2.14E2,2.89E2,2.7E1,2.17E2,2.86E2,2.41E2,2.84E2,1.84E2,1.04E2,2E0,1.9E2,1E0,3.7298203E0,1.227743E0,2.54E2,5E0,1.41E2,2.02E2,4.48288E-2,8E0,3.33E2,2.82E2,1.34E2,1.84E2,1.8E2,1E0,-7.587227E-1,7.4077934E-2,5.465502E-1,1.7674506E0,-7.95105E-1,2.9164997E-1,2.4955292E0,9.0340865E-1,-1.2099321E0,-1.4449959E-1,-1.0414643E0,1.8336137E-1,2.3781788E-1,-6.969535E-1,-1.0607196E0,2.373225E-1,1.3015431E0,2.5238633E0,-7.856876E-1,2.2202773E-1,-3.9599714E-1,-1.463878E0],"split_indices":[2,4,1,2,1,4,4,1,1,2,2,1,5,0,0,1,0,1,4,0,8,1,4,1,2,1,6,0,0,0,0,0,0,0,0,0,0,0,0,0,0,0,0,0,0,0,0,0,0],"split_type":[0,0,0,0,0,0,0,0,0,0,0,0,0,0,0,0,0,0,0,0,0,0,0,0,0,0,0,0,0,0,0,0,0,0,0,0,0,0,0,0,0,0,0,0,0,0,0,0,0],"sum_hessian":[2.57E2,1.75E2,8.2E1,5.4E1,1.21E2,7.3E1,9E0,3.8E1,1.6E1,1.6E1,1.05E2,4.1E1,3.2E1,5E0,4E0,3.4E1,4E0,7E0,9E0,1E0,1.5E1,4E1,6.5E1,1.6E1,2.5E1,1.9E1,1.3E1,2E1,1.4E1,2E0,2E0,1E0,6E0,5E0,4E0,1.4E1,1E0,3E1,1E1,4.7E1,1.8E1,2E0,1.4E1,2.3E1,2E0,1E0,1.8E1,6E0,7E0],"tree_param":{"num_deleted":"0","num_feature":"11","num_nodes":"49","size_leaf_vector":"1"}},{"base_weights":[6.38792E-1,-3.5340543E0,4.1264305E0,-7.131521E0,-1.931128E0,1.5016786E0,1.9053505E1,-5.0599337E0,-1.1379682E1,3.147605E0,-4.573894E0,9.010198E0,-2.0445135E0,3.3743637E1,9.298181E0,-8.261553E0,-6.362489E-1,-2.0698498E-1,-1.321855E1,2.7329352E-1,1.2142113E1,1.5588935E-1,-7.978297E0,-5.1847973E0,1.2277378E1,-3.0818288E0,1.1781339E1,8.588967E-1,3.6110165E1,3.9533768E0,1.1828251E0,-4.194571E-1,-9.359131E-1,-2.522808E-1,5.8643645E-1,-1.4644294E0,-5.48563E-1,-1.04126096E-1,6.7777425E-1,1.7287611E0,3.9610863E-1,4.102307E-1,-2.0737135E-1,-9.668237E-1,-2.5853145E-1,-1.1201785E0,6.657516E-2,7.025411E-1,1.5077288E0,-6.113303E-1,8.1721894E-2,4.966736E-4,2.3556056E0,9.8965913E-1,3.8829663E0,-1.1080742E-1,9.3841857E-1],"categories":[],"categories_nodes":[],"categories_segments":[],"categories_sizes":[],"default_left":[0,0,0,0,0,0,0,0,0,0,0,0,0,0,0,0,0,0,0,0,0,0,0,0,0,0,0,0,0,0,0,0,0,0,0,0,0,0,0,0,0,0,0,0,0,0,0,0,0,0,0,0,0,0,0,0,0],"id":23,"left_children":[1,3,5,7,9,11,13,15,17,19,21,23,25,27,29,31,33,-1,35,37,39,41,43,45,47,49,51,-1,53,55,-1,-1,-1,-1,-1,-1,-1,-1,-1,-1,-1,-1,-1,-1,-1,-1,-1,-1,-1,-1,-1,-1,-1,-1,-1,-1,-1],"loss_changes":[3.769355E3,6.666721E2,5.4957495E3,2.5923523E2,1.1284147E3,3.2402463E3,2.6956929E3,3.6298035E2,1.6095459E2,7.464192E2,8.8685864E2,1.8723823E3,1.226675E3,1.6608496E2,1.4255676E2,2.769989E1,1.6196016E2,0E0,1.889331E1,2.0371782E2,2.2619043E2,2.1968166E2,2.666466E2,2.89079E2,3.646372E2,9.2694507E2,8.318636E2,0E0,1.1473242E2,1.7532501E2,0E0,0E0,0E0,0E0,0E0,0E0,0E0,0E0,0E0,0E0,0E0,0E0,0E0,0E0,0E0,0E0,0E0,0E0,0E0,0E0,0E0,0E0,0E0,0E0,0E0,0E0,0E0],"parents":[2147483647,0,0,1,1,2,2,3,3,4,4,5,5,6,6,7,7,8,8,9,9,10,10,11,11,12,12,13,13,14,14,15,15,16,16,18,18,19,19,20,20,21,21,22,22,23,23,24,24,25,25,26,26,28,28,29,29],"right_children":[2,4,6,8,10,12,14,16,18,20,22,24,26,28,30,32,34,-1,36,38,40,42,44,46,48,50,52,-1,54,56,-1,-1,-1,-1,-1,-1,-1,-1,-1,-1,-1,-1,-1,-1,-1,-1,-1,-1,-1,-1,-1,-1,-1,-1,-1,-1,-1],"split_conditions":[1.01E2,2.62E2,2.73E2,2.12E2,2.35E2,2.37E2,2.41E2,2.43E2,4.6369E4,2.9E2,6.0263E4,1.56E2,2.04E2,2.74E2,1.3E2,1E0,5E0,-2.0698498E-1,5E0,2.1E1,2.19E2,2.48E2,3.19E2,2E0,2.05E2,3E0,4E0,8.588967E-1,1E0,2.96E2,1.1828251E0,-4.194571E-1,-9.359131E-1,-2.522808E-1,5.8643645E-1,-1.4644294E0,-5.48563E-1,-1.04126096E-1,6.7777425E-1,1.7287611E0,3.9610863E-1,4.102307E-1,-2.0737135E-1,-9.668237E-1,-2.5853145E-1,-1.1201785E0,6.657516E-2,7.025411E-1,1.5077288E0,-6.113303E-1,8.1721894E-2,4.966736E-4,2.3556056E0,9.8965913E-1,3.8829663E0,-1.1080742E-1,9.3841857E-1],"split_indices":[2,1,1,4,4,4,4,1,7,1,7,1,2,1,2,8,2,0,8,2,4,4,1,3,1,8,3,0,0,1,0,0,0,0,0,0,0,0,0,0,0,0,0,0,0,0,0,0,0,0,0,0,0,0,0,0,0],"split_type":[0,0,0,0,0,0,0,0,0,0,0,0,0,0,0,0,0,0,0,0,0,0,0,0,0,0,0,0,0,0,0,0,0,0,0,0,0,0,0,0,0,0,0,0,0,0,0,0,0,0,0,0,0,0,0,0,0],"sum_hessian":[2.57E2,1.17E2,1.4E2,3.5E1,8.2E1,1.2E2,2E1,2.5E1,1E1,2.8E1,5.4E1,3.8E1,8.2E1,7E0,1.3E1,1.4E1,1.1E1,2E0,8E0,2.2E1,6E0,2.3E1,3.1E1,7E0,3.1E1,7.7E1,5E0,1E0,6E0,5E0,8E0,4E0,1E1,9E0,2E0,6E0,2E0,1.9E1,3E0,3E0,3E0,8E0,1.5E1,2.3E1,8E0,3E0,4E0,1.2E1,1.9E1,4.3E1,3.4E1,3E0,2E0,1E0,5E0,3E0,2E0],"tree_param":{"num_deleted":"0","num_feature":"11","num_nodes":"57","size_leaf_vector":"1"}},{"base_weights":[6.104161E-1,-1.8088789E0,5.733133E0,1.9145918E0,-3.4726658E0,3.182251E0,2.4036346E1,-1.5248259E0,9.692398E0,-9.787769E0,-2.4958966E0,7.998088E0,-3.0434277E0,3.1436432E1,1.0348974E0,-3.4574564E0,1.2308553E1,1.3743877E-1,1.6367125E1,7.4604037E-3,-1.0450234E1,-6.2191668E0,-1.8022537E-1,6.177724E-1,1.2991992E1,1.2565695E0,-8.968893E0,9.401764E-1,3.3963013E0,-7.525756E-1,-3.868877E-2,5.170555E-1,1.53437E0,-6.993408E-1,2.1551895E-1,2.1357565E0,7.105171E-1,-1.0994736E0,-1.4136048E-1,-8.807797E-1,1.6414417E-1,2.0484217E-1,-5.918303E-1,-9.1532624E-1,2.4112307E-1,8.65251E-1,1.6332089E0,-7.158367E-1,2.076217E-1,-1.2445526E0,-2.259128E-1],"categories":[],"categories_nodes":[],"categories_segments":[],"categories_sizes":[],"default_left":[0,0,0,0,0,0,0,0,0,0,0,0,0,0,0,0,0,0,0,0,0,0,0,0,0,0,0,0,0,0,0,0,0,0,0,0,0,0,0,0,0,0,0,0,0,0,0,0,0,0,0],"id":24,"left_children":[1,3,5,7,9,11,13,15,17,19,21,23,25,27,-1,29,31,33,35,-1,37,39,41,43,45,47,49,-1,-1,-1,-1,-1,-1,-1,-1,-1,-1,-1,-1,-1,-1,-1,-1,-1,-1,-1,-1,-1,-1,-1,-1],"loss_changes":[3.2078584E3,1.0969797E3,3.7987253E3,1.486091E3,7.281155E2,2.2429988E3,6.875425E2,1.0852137E3,1.0819551E3,1.05315186E2,9.214192E2,1.5399507E3,8.52093E2,1.472168E1,0E0,4.3430807E2,2.8988892E1,1.301783E2,3.1046338E2,0E0,5.826477E1,8.48734E2,8.6892914E2,3.3750156E2,2.2104346E2,1.5280798E2,2.984674E2,0E0,0E0,0E0,0E0,0E0,0E0,0E0,0E0,0E0,0E0,0E0,0E0,0E0,0E0,0E0,0E0,0E0,0E0,0E0,0E0,0E0,0E0,0E0,0E0],"parents":[2147483647,0,0,1,1,2,2,3,3,4,4,5,5,6,6,7,7,8,8,9,9,10,10,11,11,12,12,13,13,15,15,16,16,17,17,18,18,20,20,21,21,22,22,23,23,24,24,25,25,26,26],"right_children":[2,4,6,8,10,12,14,16,18,20,22,24,26,28,-1,30,32,34,36,-1,38,40,42,44,46,48,50,-1,-1,-1,-1,-1,-1,-1,-1,-1,-1,-1,-1,-1,-1,-1,-1,-1,-1,-1,-1,-1,-1,-1,-1],"split_conditions":[1.4E2,2.14E2,2.89E2,2.7E1,2.14E2,2.86E2,2.41E2,2.84E2,1.84E2,1.04E2,2E0,1.96E2,1E0,1E0,1.0348974E0,2.43E2,5E0,1.41E2,2.02E2,7.4604037E-3,8E0,3.33E2,2.82E2,1.34E2,5E0,1.8E2,2.18E2,9.401764E-1,3.3963013E0,-7.525756E-1,-3.868877E-2,5.170555E-1,1.53437E0,-6.993408E-1,2.1551895E-1,2.1357565E0,7.105171E-1,-1.0994736E0,-1.4136048E-1,-8.807797E-1,1.6414417E-1,2.0484217E-1,-5.918303E-1,-9.1532624E-1,2.4112307E-1,8.65251E-1,1.6332089E0,-7.158367E-1,2.076217E-1,-1.2445526E0,-2.259128E-1],"split_indices":[2,4,1,2,1,4,4,1,1,2,2,1,5,0,0,1,0,1,4,0,8,1,4,1,0,1,1,0,0,0,0,0,0,0,0,0,0,0,0,0,0,0,0,0,0,0,0,0,0,0,0],"split_type":[0,0,0,0,0,0,0,0,0,0,0,0,0,0,0,0,0,0,0,0,0,0,0,0,0,0,0,0,0,0,0,0,0,0,0,0,0,0,0,0,0,0,0,0,0,0,0,0,0,0,0],"sum_hessian":[2.57E2,1.75E2,8.2E1,5.4E1,1.21E2,7.3E1,9E0,3.8E1,1.6E1,1.5E1,1.06E2,4.1E1,3.2E1,5E0,4E0,3.4E1,4E0,7E0,9E0,1E0,1.4E1,4E1,6.6E1,1.7E1,2.4E1,1.9E1,1.3E1,1E0,4E0,1.4E1,2E1,2E0,2E0,1E0,6E0,5E0,4E0,1.3E1,1E0,3E1,1E1,4.8E1,1.8E1,2E0,1.5E1,1.2E1,1.2E1,1E0,1.8E1,8E0,5E0],"tree_param":{"num_deleted":"0","num_feature":"11","num_nodes":"51","size_leaf_vector":"1"}},{"base_weights":[5.7457846E-1,9.020043E0,-6.611513E-1,4.6133184E0,2.8081419E1,-1.3861324E0,8.333388E0,8.051721E0,-4.989153E0,3.0662155E-1,3.2471216E0,-1.9564296E0,9.108921E0,4.078716E0,1.772886E1,2.0949101E0,1.0294785E1,-8.084839E0,2.86527E0,-7.5721307E0,-1.0362211E0,4.16751E0,2.0896845E0,1.6230779E0,7.6831207E0,4.76873E-1,1.977671E0,-8.23905E-2,4.489998E-1,1.9305192E-1,1.0754339E0,-1.1161159E0,-1.2881318E-1,3.437111E-1,8.607941E-2,-5.5118406E-1,-1.4207888E0,-3.087102E-1,2.1759787E-1,2.4006272E-2,9.016804E-1,2.4171515E-1,-2.3647557E-1,1.6617279E-1,8.773037E-1],"categories":[],"categories_nodes":[],"categories_segments":[],"categories_sizes":[],"default_left":[0,0,0,0,0,0,0,0,0,0,0,0,0,0,0,0,0,0,0,0,0,0,0,0,0,0,0,0,0,0,0,0,0,0,0,0,0,0,0,0,0,0,0,0,0],"id":25,"left_children":[1,3,5,7,9,11,13,15,17,-1,-1,19,21,23,25,27,29,31,33,35,37,39,-1,41,43,-1,-1,-1,-1,-1,-1,-1,-1,-1,-1,-1,-1,-1,-1,-1,-1,-1,-1,-1,-1],"loss_changes":[2.698532E3,2.6423936E3,1.4852682E3,9.646518E2,5.5930615E2,1.274734E3,6.072582E2,2.590249E2,2.1768384E2,0E0,0E0,1.0256768E3,5.536508E2,1.0259416E2,3.8392212E1,5.2635056E1,3.6895996E1,1.1107605E2,4.8007965E-1,3.044928E2,1.1464136E3,1.6924352E2,0E0,3.4215675E1,1.8235687E1,0E0,0E0,0E0,0E0,0E0,0E0,0E0,0E0,0E0,0E0,0E0,0E0,0E0,0E0,0E0,0E0,0E0,0E0,0E0,0E0],"parents":[2147483647,0,0,1,1,2,2,3,3,4,4,5,5,6,6,7,7,8,8,11,11,12,12,13,13,14,14,15,15,16,16,17,17,18,18,19,19,20,20,21,21,23,23,24,24],"right_children":[2,4,6,8,10,12,14,16,18,-1,-1,20,22,24,26,28,30,32,34,36,38,40,-1,42,44,-1,-1,-1,-1,-1,-1,-1,-1,-1,-1,-1,-1,-1,-1,-1,-1,-1,-1,-1,-1],"split_conditions":[1.84E2,2.68E2,3E0,6.6534E4,1E0,1.92E2,5E0,1.11E2,2E0,3.0662155E-1,3.2471216E0,2.01E2,4E0,1.13798E5,1.05E2,2.34E2,1E0,2.09E2,3E0,2.9E2,1.01E2,2.68E2,2.0896845E0,2.87E2,2.25E2,4.76873E-1,1.977671E0,-8.23905E-2,4.489998E-1,1.9305192E-1,1.0754339E0,-1.1161159E0,-1.2881318E-1,3.437111E-1,8.607941E-2,-5.5118406E-1,-1.4207888E0,-3.087102E-1,2.1759787E-1,2.4006272E-2,9.016804E-1,2.4171515E-1,-2.3647557E-1,1.6617279E-1,8.773037E-1],"split_indices":[4,1,6,7,2,2,0,2,3,0,0,1,3,7,2,1,0,1,0,4,2,1,0,1,1,0,0,0,0,0,0,0,0,0,0,0,0,0,0,0,0,0,0,0,0],"split_type":[0,0,0,0,0,0,0,0,0,0,0,0,0,0,0,0,0,0,0,0,0,0,0,0,0,0,0,0,0,0,0,0,0,0,0,0,0,0,0,0,0,0,0,0,0],"sum_hessian":[2.57E2,3.2E1,2.25E2,2.7E1,5E0,2.09E2,1.6E1,2E1,7E0,1E0,4E0,1.99E2,1E1,1.2E1,4E0,6E0,1.4E1,5E0,2E0,2.7E1,1.72E2,8E0,2E0,8E0,4E0,1E0,3E0,3E0,3E0,1E0,1.3E1,3E0,2E0,1E0,1E0,2.2E1,5E0,1.05E2,6.7E1,5E0,3E0,7E0,1E0,1E0,3E0],"tree_param":{"num_deleted":"0","num_feature":"11","num_nodes":"45","size_leaf_vector":"1"}},{"base_weights":[5.513428E-1,-1.4810045E0,4.8542557E0,1.8471093E0,-2.9692442E0,2.148921E0,1.8034199E1,-1.3649476E0,8.0049515E0,-6.7813263E0,-1.596103E0,5.7616353E0,-5.4840884E0,2.5247576E1,9.468218E-1,-3.2897718E0,1.1611882E1,8.187739E-1,1.3156828E1,-9.260581E0,-3.7232852E0,-4.042768E0,2.6245642E0,-5.0288165E-1,9.883315E0,-1.0458421E1,-1.5392731E0,1.0740749E0,2.8902156E0,-5.624353E-1,7.3453374E-2,4.8265457E-1,1.4526591E0,-6.3681453E-1,2.5131568E-1,1.937829E0,4.74256E-1,-9.933754E-1,7.5509645E-2,-7.8946114E-1,3.9825864E-2,-1.0982064E0,-2.1850169E-1,4.231085E-1,-2.3081136E-1,3.4230453E-1,-4.771113E-1,8.448333E-1,1.9503717E0,-1.3110801E0,1.0073218E-2,2.0439588E-1,-8.3978826E-1],"categories":[],"categories_nodes":[],"categories_segments":[],"categories_sizes":[],"default_left":[0,0,0,0,0,0,0,0,0,0,0,0,0,0,0,0,0,0,0,0,0,0,0,0,0,0,0,0,0,0,0,0,0,0,0,0,0,0,0,0,0,0,0,0,0,0,0,0,0,0,0,0,0],"id":26,"left_children":[1,3,5,7,9,11,13,15,17,19,21,23,25,27,-1,29,31,33,35,37,39,41,43,45,47,49,51,-1,-1,-1,-1,-1,-1,-1,-1,-1,-1,-1,-1,-1,-1,-1,-1,-1,-1,-1,-1,-1,-1,-1,-1,-1,-1],"loss_changes":[2.2634028E3,8.772179E2,2.9207075E3,1.0987899E3,6.277886E2,1.9619092E3,6.260054E2,9.623907E2,6.9265125E2,2.0813342E2,9.5032745E2,1.244346E3,4.352265E2,6.0683594E1,0E0,3.1416852E2,2.8773193E1,1.25600685E2,4.839369E2,1.2211987E2,2.7822095E2,7.237102E2,2.7919708E2,3.5146698E2,2.3557422E2,2.8138953E2,3.6122876E2,0E0,0E0,0E0,0E0,0E0,0E0,0E0,0E0,0E0,0E0,0E0,0E0,0E0,0E0,0E0,0E0,0E0,0E0,0E0,0E0,0E0,0E0,0E0,0E0,0E0,0E0],"parents":[2147483647,0,0,1,1,2,2,3,3,4,4,5,5,6,6,7,7,8,8,9,9,10,10,11,11,12,12,13,13,15,15,16,16,17,17,18,18,19,19,20,20,21,21,22,22,23,23,24,24,25,25,26,26],"right_children":[2,4,6,8,10,12,14,16,18,20,22,24,26,28,-1,30,32,34,36,38,40,42,44,46,48,50,52,-1,-1,-1,-1,-1,-1,-1,-1,-1,-1,-1,-1,-1,-1,-1,-1,-1,-1,-1,-1,-1,-1,-1,-1,-1,-1],"split_conditions":[1.4E2,2.14E2,2.73E2,2E1,2.47E2,3.11E2,2.41E2,2.84E2,2.05E2,3E0,2E1,1.96E2,2.18E2,4E0,9.468218E-1,2.55E2,5E0,1.41E2,2.02E2,3E0,1E0,2.81E2,2.94E2,3.7045E4,1.84E2,5E0,3.51E2,1.0740749E0,2.8902156E0,-5.624353E-1,7.3453374E-2,4.8265457E-1,1.4526591E0,-6.3681453E-1,2.5131568E-1,1.937829E0,4.74256E-1,-9.933754E-1,7.5509645E-2,-7.8946114E-1,3.9825864E-2,-1.0982064E0,-2.1850169E-1,4.231085E-1,-2.3081136E-1,3.4230453E-1,-4.771113E-1,8.448333E-1,1.9503717E0,-1.3110801E0,1.0073218E-2,2.0439588E-1,-8.3978826E-1],"split_indices":[2,4,1,2,1,4,4,1,1,8,2,1,1,0,0,1,0,1,4,6,3,1,4,7,2,0,4,0,0,0,0,0,0,0,0,0,0,0,0,0,0,0,0,0,0,0,0,0,0,0,0,0,0],"split_type":[0,0,0,0,0,0,0,0,0,0,0,0,0,0,0,0,0,0,0,0,0,0,0,0,0,0,0,0,0,0,0,0,0,0,0,0,0,0,0,0,0,0,0,0,0,0,0,0,0,0,0,0,0],"sum_hessian":[2.57E2,1.75E2,8.2E1,5.4E1,1.21E2,6.9E1,1.3E1,3.6E1,1.8E1,3.1E1,9E1,4.7E1,2.2E1,6E0,7E0,3.2E1,4E0,8E0,1E1,1.6E1,1.5E1,5.7E1,3.3E1,1.9E1,2.8E1,9E0,1.3E1,2E0,4E0,2E1,1.2E1,2E0,2E0,1E0,7E0,5E0,5E0,1.5E1,1E0,7E0,8E0,1.1E1,4.6E1,2.5E1,8E0,1E1,9E0,2.6E1,2E0,7E0,2E0,9E0,4E0],"tree_param":{"num_deleted":"0","num_feature":"11","num_nodes":"53","size_leaf_vector":"1"}},{"base_weights":[5.20689E-1,7.693075E0,-5.289103E-1,3.9203315E0,2.4017035E1,-1.1463729E0,7.1296816E0,6.8705754E0,-4.3141003E0,2.6715776E-1,2.775181E0,-1.633996E0,7.823718E0,3.460412E0,1.5243846E1,4.6286583E-2,8.005385E0,-7.029367E0,2.5544662E0,-5.8295045E0,-7.3955745E-1,3.4945002E0,1.8203467E0,1.4062979E0,6.465735E0,3.5613784E-1,1.7274119E0,-9.489658E-2,1.5160218E-1,3.9879838E-1,9.681754E-1,-1.1274617E0,-2.0880881E-1,3.1396028E-1,6.920967E-2,-4.6567512E-1,-1.3754157E0,-2.5791904E-1,2.4693055E-1,1.5479915E-2,7.630426E-1,2.1164016E-1,-2.1372662E-1,1.15622714E-1,7.504055E-1],"categories":[],"categories_nodes":[],"categories_segments":[],"categories_sizes":[],"default_left":[0,0,0,0,0,0,0,0,0,0,0,0,0,0,0,0,0,0,0,0,0,0,0,0,0,0,0,0,0,0,0,0,0,0,0,0,0,0,0,0,0,0,0,0,0],"id":27,"left_children":[1,3,5,7,9,11,13,15,17,-1,-1,19,21,23,25,27,29,31,33,35,37,39,-1,41,43,-1,-1,-1,-1,-1,-1,-1,-1,-1,-1,-1,-1,-1,-1,-1,-1,-1,-1,-1,-1],"loss_changes":[1.9463269E3,1.938187E3,1.0769033E3,7.098606E2,4.0418213E2,9.3132886E2,4.5339203E2,1.622591E2,1.6715619E2,0E0,0E0,7.462138E2,4.3068604E2,7.1159836E1,5.7073242E1,7.289682E0,8.261304E1,1.023194E2,1.0963135E0,2.6122852E2,9.862884E2,1.2313364E2,0E0,2.7169998E1,1.8888443E1,0E0,0E0,0E0,0E0,0E0,0E0,0E0,0E0,0E0,0E0,0E0,0E0,0E0,0E0,0E0,0E0,0E0,0E0,0E0,0E0],"parents":[2147483647,0,0,1,1,2,2,3,3,4,4,5,5,6,6,7,7,8,8,11,11,12,12,13,13,14,14,15,15,16,16,17,17,18,18,19,19,20,20,21,21,23,23,24,24],"right_children":[2,4,6,8,10,12,14,16,18,-1,-1,20,22,24,26,28,30,32,34,36,38,40,-1,42,44,-1,-1,-1,-1,-1,-1,-1,-1,-1,-1,-1,-1,-1,-1,-1,-1,-1,-1,-1,-1],"split_conditions":[1.84E2,2.68E2,3E0,6.6534E4,1E0,1.92E2,5E0,1.46E2,2E0,2.6715776E-1,2.775181E0,2.05E2,4E0,1.13798E5,1.05E2,8E0,2E0,2.03E2,3E0,3.13E2,1.01E2,2.68E2,1.8203467E0,2.87E2,2.25E2,3.5613784E-1,1.7274119E0,-9.489658E-2,1.5160218E-1,3.9879838E-1,9.681754E-1,-1.1274617E0,-2.0880881E-1,3.1396028E-1,6.920967E-2,-4.6567512E-1,-1.3754157E0,-2.5791904E-1,2.4693055E-1,1.5479915E-2,7.630426E-1,2.1164016E-1,-2.1372662E-1,1.15622714E-1,7.504055E-1],"split_indices":[4,1,6,7,2,2,0,1,3,0,0,1,3,7,2,0,0,1,0,4,2,1,0,1,1,0,0,0,0,0,0,0,0,0,0,0,0,0,0,0,0,0,0,0,0],"split_type":[0,0,0,0,0,0,0,0,0,0,0,0,0,0,0,0,0,0,0,0,0,0,0,0,0,0,0,0,0,0,0,0,0,0,0,0,0,0,0,0,0,0,0,0,0],"sum_hessian":[2.57E2,3.2E1,2.25E2,2.7E1,5E0,2.09E2,1.6E1,2E1,7E0,1E0,4E0,1.99E2,1E1,1.2E1,4E0,3E0,1.7E1,5E0,2E0,3.4E1,1.65E2,8E0,2E0,8E0,4E0,1E0,3E0,2E0,1E0,6E0,1.1E1,2E0,3E0,1E0,1E0,3.1E1,3E0,1.05E2,6E1,5E0,3E0,7E0,1E0,1E0,3E0],"tree_param":{"num_deleted":"0","num_feature":"11","num_nodes":"45","size_leaf_vector":"1"}},{"base_weights":[4.9655485E-1,7.0302215E0,-4.596733E-1,3.5451064E0,2.2122389E1,-1.0281799E0,6.590094E0,6.251314E0,-4.0018277E0,2.5379983E-1,2.5531669E0,-1.4798572E0,7.2776074E0,3.1808271E0,1.4136169E1,1.8398367E0,7.8932495E0,-6.5491414E0,2.4267426E0,-2.574151E0,1.7676704E0,3.2315521E0,1.6989905E0,1.2654368E0,5.9923644E0,3.3833084E-1,1.5978558E0,-5.9597492E-2,3.815689E-1,6.1826336E-1,1.2674836E0,-9.307643E-1,-6.8809256E-2,2.9826203E-1,6.574936E-2,-5.883158E-1,-1.4775948E-1,9.193913E-1,-1.5819839E-1,4.664835E-1,-4.1173553E-1,1.9312172E-1,-2.0304032E-1,1.0984192E-1,6.9412464E-1],"categories":[],"categories_nodes":[],"categories_segments":[],"categories_sizes":[],"default_left":[0,0,0,0,0,0,0,0,0,0,0,0,0,0,0,0,0,0,0,0,0,0,0,0,0,0,0,0,0,0,0,0,0,0,0,0,0,0,0,0,0,0,0,0,0],"id":28,"left_children":[1,3,5,7,9,11,13,15,17,-1,-1,19,21,23,25,27,29,31,33,35,37,39,-1,41,43,-1,-1,-1,-1,-1,-1,-1,-1,-1,-1,-1,-1,-1,-1,-1,-1,-1,-1,-1,-1],"loss_changes":[1.615132E3,1.6573058E3,9.125475E2,5.968767E2,3.3581274E2,7.985924E2,3.923872E2,1.3758832E2,1.4689777E2,0E0,0E0,7.1530005E2,3.7735754E2,6.242453E1,4.4994324E1,3.5963688E1,4.432794E1,9.0601746E1,9.894047E-1,5.355839E2,1.2831873E3,1.1400435E2,0E0,2.3669903E1,1.5594482E1,0E0,0E0,0E0,0E0,0E0,0E0,0E0,0E0,0E0,0E0,0E0,0E0,0E0,0E0,0E0,0E0,0E0,0E0,0E0,0E0],"parents":[2147483647,0,0,1,1,2,2,3,3,4,4,5,5,6,6,7,7,8,8,11,11,12,12,13,13,14,14,15,15,16,16,17,17,18,18,19,19,20,20,21,21,23,23,24,24],"right_children":[2,4,6,8,10,12,14,16,18,-1,-1,20,22,24,26,28,30,32,34,36,38,40,-1,42,44,-1,-1,-1,-1,-1,-1,-1,-1,-1,-1,-1,-1,-1,-1,-1,-1,-1,-1,-1,-1],"split_conditions":[1.84E2,2.68E2,3E0,6.6534E4,1E0,1.92E2,5E0,1.11E2,2E0,2.5379983E-1,2.5531669E0,2.96E2,4E0,1.13798E5,1.05E2,2.34E2,6E0,2.09E2,3E0,8E0,2.55E2,2.2E2,1.6989905E0,2.87E2,2.25E2,3.3833084E-1,1.5978558E0,-5.9597492E-2,3.815689E-1,6.1826336E-1,1.2674836E0,-9.307643E-1,-6.8809256E-2,2.9826203E-1,6.574936E-2,-5.883158E-1,-1.4775948E-1,9.193913E-1,-1.5819839E-1,4.664835E-1,-4.1173553E-1,1.9312172E-1,-2.0304032E-1,1.0984192E-1,6.9412464E-1],"split_indices":[4,1,6,7,2,2,0,2,3,0,0,1,3,7,2,1,3,1,0,2,4,2,0,1,1,0,0,0,0,0,0,0,0,0,0,0,0,0,0,0,0,0,0,0,0],"split_type":[0,0,0,0,0,0,0,0,0,0,0,0,0,0,0,0,0,0,0,0,0,0,0,0,0,0,0,0,0,0,0,0,0,0,0,0,0,0,0,0,0,0,0,0,0],"sum_hessian":[2.57E2,3.2E1,2.25E2,2.7E1,5E0,2.09E2,1.6E1,2E1,7E0,1E0,4E0,1.99E2,1E1,1.2E1,4E0,6E0,1.4E1,5E0,2E0,1.49E2,5E1,8E0,2E0,8E0,4E0,1E0,3E0,3E0,3E0,1.2E1,2E0,3E0,2E0,1E0,1E0,3.6E1,1.13E2,1.5E1,3.5E1,7E0,1E0,7E0,1E0,1E0,3E0],"tree_param":{"num_deleted":"0","num_feature":"11","num_nodes":"45","size_leaf_vector":"1"}},{"base_weights":[4.8134938E-1,-2.0631938E0,2.6074114E0,-2.7859309E0,3.0853305E0,8.403088E-1,1.2665126E1,-1.5660019E0,-8.936979E0,1.7011175E0,6.4666367E-1,3.277274E0,-4.7808356E0,2.1525234E1,6.6975546E0,-3.1383114E0,5.185309E0,-9.76419E0,-1.821935E-1,-1.5704727E-1,2.6498308E0,-2.0504415E0,6.6977553E0,-9.576038E0,-2.0960965E0,6.0289305E-1,2.2877717E0,2.5620532E0,9.4789237E-1,-6.388434E-1,-2.0956257E-1,9.7000617E-1,-1.10629655E-1,-1.1047233E0,-4.9886543E-1,1.1667452E-1,-2.7261087E-1,5.0097257E-1,2.3194885E-2,3.0581474E-1,-4.0118596E-1,8.400362E-1,1.937968E-1,-1.0890168E0,-1.5655492E-1,-5.997309E-1,1.3975209E-1,4.300522E-1,-3.9343795E-1],"categories":[],"categories_nodes":[],"categories_segments":[],"categories_sizes":[],"default_left":[0,0,0,0,0,0,0,0,0,0,0,0,0,0,0,0,0,0,0,0,0,0,0,0,0,0,0,0,0,0,0,0,0,0,0,0,0,0,0,0,0,0,0,0,0,0,0,0,0],"id":29,"left_children":[1,3,5,7,9,11,13,15,17,19,-1,21,23,25,27,29,31,33,-1,35,37,39,41,43,45,-1,-1,47,-1,-1,-1,-1,-1,-1,-1,-1,-1,-1,-1,-1,-1,-1,-1,-1,-1,-1,-1,-1,-1],"loss_changes":[1.4011226E3,4.4767703E2,2.495352E3,7.664043E2,5.9206207E1,1.6731904E3,9.661736E2,9.5040625E2,8.226611E1,2.1570538E1,0E0,1.5627184E3,4.5626086E2,2.9739746E1,1.3674744E2,2.3060986E2,4.93617E2,3.6797485E1,0E0,2.0185194E1,4.448558E1,3.5295154E2,4.051306E2,1.1979968E2,3.4911493E2,0E0,0E0,9.59768E1,0E0,0E0,0E0,0E0,0E0,0E0,0E0,0E0,0E0,0E0,0E0,0E0,0E0,0E0,0E0,0E0,0E0,0E0,0E0,0E0,0E0],"parents":[2147483647,0,0,1,1,2,2,3,3,4,4,5,5,6,6,7,7,8,8,9,9,11,11,12,12,13,13,14,14,15,15,16,16,17,17,19,19,20,20,21,21,22,22,23,23,24,24,27,27],"right_children":[2,4,6,8,10,12,14,16,18,20,-1,22,24,26,28,30,32,34,-1,36,38,40,42,44,46,-1,-1,48,-1,-1,-1,-1,-1,-1,-1,-1,-1,-1,-1,-1,-1,-1,-1,-1,-1,-1,-1,-1,-1],"split_conditions":[1.01E2,3.34E2,2.73E2,2.73E2,3.66E2,2.9E2,2.41E2,2.96E2,1.8544E5,7E0,6.4666367E-1,1.94E2,1.54E2,2.74E2,2.96E2,2.43E2,2.55E2,1.8E1,-1.821935E-1,6E0,2E0,2.01E2,1.11103E5,2.37E2,2E0,6.0289305E-1,2.2877717E0,2.89E2,9.4789237E-1,-6.388434E-1,-2.0956257E-1,9.7000617E-1,-1.10629655E-1,-1.1047233E0,-4.9886543E-1,1.1667452E-1,-2.7261087E-1,5.0097257E-1,2.3194885E-2,3.0581474E-1,-4.0118596E-1,8.400362E-1,1.937968E-1,-1.0890168E0,-1.5655492E-1,-5.997309E-1,1.3975209E-1,4.300522E-1,-3.9343795E-1],"split_indices":[2,1,1,4,1,4,4,1,7,0,0,1,2,1,1,1,4,2,0,0,3,4,7,1,8,0,0,1,0,0,0,0,0,0,0,0,0,0,0,0,0,0,0,0,0,0,0,0,0],"split_type":[0,0,0,0,0,0,0,0,0,0,0,0,0,0,0,0,0,0,0,0,0,0,0,0,0,0,0,0,0,0,0,0,0,0,0,0,0,0,0,0,0,0,0,0,0,0,0,0,0],"sum_hessian":[2.57E2,1.17E2,1.4E2,1.03E2,1.4E1,1.2E2,2E1,8.7E1,1.6E1,1.1E1,3E0,8.4E1,3.6E1,7E0,1.3E1,7.1E1,1.6E1,1.4E1,2E0,4E0,7E0,3.3E1,5.1E1,1.2E1,2.4E1,1E0,6E0,6E0,7E0,1.6E1,5.5E1,9E0,7E0,1E1,4E0,3E0,1E0,3E0,4E0,9E0,2.4E1,3.7E1,1.4E1,1E1,2E0,1.1E1,1.3E1,5E0,1E0],"tree_param":{"num_deleted":"0","num_feature":"11","num_nodes":"49","size_leaf_vector":"1"}},{"base_weights":[4.4231564E-1,-9.80378E-1,3.7993016E0,1.4227616E0,-2.96518E0,2.0906427E0,1.6476875E1,-1.1435326E0,7.09285E0,-8.539612E0,-1.8017213E0,4.6691976E0,-2.6343818E0,1.9601015E0,7.671448E-1,-4.2063885E0,4.0596123E0,1.864303E0,1.1441298E1,-9.000846E0,-5.79937E-2,-2.628518E0,3.9241586E0,-3.689583E-1,8.365117E0,-6.3277864E0,-1.6135478E-1,-2.6892585E-1,-8.6275417E-1,1.4344986E-1,9.479928E-1,-5.5424273E-1,2.9433995E-1,1.2205286E0,7.547188E-2,-5.2333665E-1,-1.0237576E0,-4.3426058E-1,1.620353E-1,9.423142E-2,5.493454E-1,2.5460407E-1,-3.5385615E-1,7.150058E-1,1.5297216E0,-8.463511E-1,1.476738E-1,2.3545931E-1,-4.7470337E-1],"categories":[],"categories_nodes":[],"categories_segments":[],"categories_sizes":[],"default_left":[0,0,0,0,0,0,0,0,0,0,0,0,0,0,0,0,0,0,0,0,0,0,0,0,0,0,0,0,0,0,0,0,0,0,0,0,0,0,0,0,0,0,0,0,0,0,0,0,0],"id":30,"left_children":[1,3,5,7,9,11,13,15,17,19,21,23,25,-1,-1,27,29,31,33,35,-1,37,39,41,43,45,47,-1,-1,-1,-1,-1,-1,-1,-1,-1,-1,-1,-1,-1,-1,-1,-1,-1,-1,-1,-1,-1,-1],"loss_changes":[1.2359231E3,8.723144E2,1.6334998E3,1.2158534E3,6.3317615E2,8.5297815E2,9.721655E1,9.413923E2,5.698075E2,5.719165E1,4.0798242E2,8.4101434E2,2.2732623E2,0E0,0E0,2.2497449E2,2.994379E2,1.2021707E2,1.05090454E2,2.0972656E1,0E0,5.459739E2,4.629677E1,1.937971E2,1.0961963E2,1.7918143E2,1.957746E2,0E0,0E0,0E0,0E0,0E0,0E0,0E0,0E0,0E0,0E0,0E0,0E0,0E0,0E0,0E0,0E0,0E0,0E0,0E0,0E0,0E0,0E0],"parents":[2147483647,0,0,1,1,2,2,3,3,4,4,5,5,6,6,7,7,8,8,9,9,10,10,11,11,12,12,15,15,16,16,17,17,18,18,19,19,21,21,22,22,23,23,24,24,25,25,26,26],"right_children":[2,4,6,8,10,12,14,16,18,20,22,24,26,-1,-1,28,30,32,34,36,-1,38,40,42,44,46,48,-1,-1,-1,-1,-1,-1,-1,-1,-1,-1,-1,-1,-1,-1,-1,-1,-1,-1,-1,-1,-1,-1],"split_conditions":[1.43E2,2.35E2,2.89E2,2.9E1,2.17E2,3.07E2,2.41E2,2.66E2,2.15E2,8E0,3.47E2,1.96E2,2.18E2,1.9601015E0,7.671448E-1,2.12E2,2.9E2,1.41E2,2.25E2,1.24E2,-5.79937E-2,1.13E2,1E0,3.7045E4,1.84E2,4E0,3.51E2,-2.6892585E-1,-8.6275417E-1,1.4344986E-1,9.479928E-1,-5.5424273E-1,2.9433995E-1,1.2205286E0,7.547188E-2,-5.2333665E-1,-1.0237576E0,-4.3426058E-1,1.620353E-1,9.423142E-2,5.493454E-1,2.5460407E-1,-3.5385615E-1,7.150058E-1,1.5297216E0,-8.463511E-1,1.476738E-1,2.3545931E-1,-4.7470337E-1],"split_indices":[2,4,1,2,1,4,4,1,1,8,1,1,1,0,0,4,1,1,4,2,0,2,6,7,2,8,4,0,0,0,0,0,0,0,0,0,0,0,0,0,0,0,0,0,0,0,0,0,0],"split_type":[0,0,0,0,0,0,0,0,0,0,0,0,0,0,0,0,0,0,0,0,0,0,0,0,0,0,0,0,0,0,0,0,0,0,0,0,0,0,0,0,0,0,0,0,0,0,0,0,0],"sum_hessian":[2.57E2,1.81E2,7.6E1,8.2E1,9.9E1,6.8E1,8E0,5.7E1,2.5E1,1.6E1,8.3E1,4.4E1,2.4E1,5E0,3E0,3.6E1,2.1E1,1.2E1,1.3E1,1.5E1,1E0,7.3E1,1E1,1.9E1,2.5E1,9E0,1.5E1,2.8E1,8E0,1.5E1,6E0,1E0,1.1E1,1.2E1,1E0,5E0,1E1,5.2E1,2.1E1,4E0,6E0,1E1,9E0,2.3E1,2E0,7E0,2E0,1E1,5E0],"tree_param":{"num_deleted":"0","num_feature":"11","num_nodes":"49","size_leaf_vector":"1"}},{"base_weights":[4.1241294E-1,-8.836472E-1,3.4704719E0,1.2924831E0,-2.6809988E0,1.8990788E0,1.5132211E1,-1.0298728E0,6.423412E0,-7.970709E0,-1.6537476E0,4.249954E0,-2.4084604E0,2.1771684E0,1.0124978E0,-3.8163354E0,3.7032633E0,4.836685E-1,9.539531E0,-8.428631E0,-5.509415E-2,-2.4008172E0,3.590249E0,-2.1782591E0,6.6534944E0,-5.7648754E0,-1.6017222E-1,-2.4296062E-1,-7.860648E-1,1.300015E-1,8.6673653E-1,-5.2653044E-1,1.7074771E-1,4.1866454E-1,1.1421013E0,-5.691824E-1,-1.0111859E0,-3.9165387E-1,1.19631566E-1,8.669297E-2,5.022585E-1,6.591263E-2,-6.849901E-1,5.7010686E-1,1.42774E0,1.230135E-2,-8.3058304E-1,2.1405402E-1,-4.3514496E-1],"categories":[],"categories_nodes":[],"categories_segments":[],"categories_sizes":[],"default_left":[0,0,0,0,0,0,0,0,0,0,0,0,0,0,0,0,0,0,0,0,0,0,0,0,0,0,0,0,0,0,0,0,0,0,0,0,0,0,0,0,0,0,0,0,0,0,0,0,0],"id":31,"left_children":[1,3,5,7,9,11,13,15,17,19,21,23,25,-1,-1,27,29,31,33,35,-1,37,39,41,43,45,47,-1,-1,-1,-1,-1,-1,-1,-1,-1,-1,-1,-1,-1,-1,-1,-1,-1,-1,-1,-1,-1,-1],"loss_changes":[1.0256311E3,7.1531647E2,1.3823014E3,9.956302E2,5.3020465E2,7.089635E2,7.877075E1,7.79078E2,4.7661865E2,4.9719055E1,3.416181E2,7.0976416E2,1.8773135E2,0E0,0E0,1.8841138E2,2.5119162E2,7.934682E1,1.2339734E2,1.1545166E1,0E0,4.1360428E2,3.8553543E1,1.7683319E2,1.5822339E2,1.5063028E2,1.6360121E2,0E0,0E0,0E0,0E0,0E0,0E0,0E0,0E0,0E0,0E0,0E0,0E0,0E0,0E0,0E0,0E0,0E0,0E0,0E0,0E0,0E0,0E0],"parents":[2147483647,0,0,1,1,2,2,3,3,4,4,5,5,6,6,7,7,8,8,9,9,10,10,11,11,12,12,15,15,16,16,17,17,18,18,19,19,21,21,22,22,23,23,24,24,25,25,26,26],"right_children":[2,4,6,8,10,12,14,16,18,20,22,24,26,-1,-1,28,30,32,34,36,-1,38,40,42,44,46,48,-1,-1,-1,-1,-1,-1,-1,-1,-1,-1,-1,-1,-1,-1,-1,-1,-1,-1,-1,-1,-1,-1],"split_conditions":[1.43E2,2.35E2,2.89E2,2.9E1,2.14E2,3.07E2,1.5E2,2.66E2,2.05E2,8E0,3.47E2,1.8E2,2.18E2,2.1771684E0,1.0124978E0,2.12E2,2.9E2,1.41E2,6.525E4,1.32E2,-5.509415E-2,1.13E2,1E0,5.2083E4,1.84E2,3.13E2,3.51E2,-2.4296062E-1,-7.860648E-1,1.300015E-1,8.6673653E-1,-5.2653044E-1,1.7074771E-1,4.1866454E-1,1.1421013E0,-5.691824E-1,-1.0111859E0,-3.9165387E-1,1.19631566E-1,8.669297E-2,5.022585E-1,6.591263E-2,-6.849901E-1,5.7010686E-1,1.42774E0,1.230135E-2,-8.3058304E-1,2.1405402E-1,-4.3514496E-1],"split_indices":[2,4,1,2,1,4,2,1,1,8,1,1,1,0,0,4,1,1,7,2,0,2,6,7,2,4,4,0,0,0,0,0,0,0,0,0,0,0,0,0,0,0,0,0,0,0,0,0,0],"split_type":[0,0,0,0,0,0,0,0,0,0,0,0,0,0,0,0,0,0,0,0,0,0,0,0,0,0,0,0,0,0,0,0,0,0,0,0,0,0,0,0,0,0,0,0,0,0,0,0,0],"sum_hessian":[2.57E2,1.81E2,7.6E1,8.2E1,9.9E1,6.8E1,8E0,5.7E1,2.5E1,1.5E1,8.4E1,4.4E1,2.4E1,2E0,6E0,3.6E1,2.1E1,9E0,1.6E1,1.4E1,1E0,7.4E1,1E1,1.2E1,3.2E1,9E0,1.5E1,2.8E1,8E0,1.5E1,6E0,1E0,8E0,5E0,1.1E1,7E0,7E0,5.2E1,2.2E1,4E0,6E0,8E0,4E0,3E1,2E0,3E0,6E0,1E1,5E0],"tree_param":{"num_deleted":"0","num_feature":"11","num_nodes":"49","size_leaf_vector":"1"}},{"base_weights":[3.8428482E-1,4.7489223E0,-4.3835014E-1,2.6138356E0,1.6767956E1,-8.275551E-1,5.2920337E0,-8.019702E-1,4.823983E0,2.3791543E-1,1.9169886E0,1.2531058E-1,-3.707293E0,3.2847655E0,9.4890136E-1,6.5049636E-1,-1.056825E0,-1.417242E0,5.884032E0,-3.2709167E0,1.8222194E0,-6.731246E0,-5.407517E-1,7.9757535E-1,4.5920777E0,-4.0890923E-1,1.3296257E-1,-3.343567E-1,3.393885E-2,2.7754498E-1,7.466084E-1,-5.902065E-1,-4.1276626E-2,-3.087274E-1,3.3336586E-1,-8.634405E-1,-2.8227508E-1,-6.780855E-1,9.020332E-2,2.1938133E-1,-9.993744E-3,5.3787E-1,-6.3827517E-3],"categories":[],"categories_nodes":[],"categories_segments":[],"categories_sizes":[],"default_left":[0,0,0,0,0,0,0,0,0,0,0,0,0,0,0,0,0,0,0,0,0,0,0,0,0,0,0,0,0,0,0,0,0,0,0,0,0,0,0,0,0,0,0],"id":32,"left_children":[1,3,5,7,9,11,13,15,17,-1,-1,19,21,23,-1,25,-1,27,29,31,33,35,37,39,41,-1,-1,-1,-1,-1,-1,-1,-1,-1,-1,-1,-1,-1,-1,-1,-1,-1,-1],"loss_changes":[9.284316E2,1.00830005E3,4.9058353E2,2.7564838E2,1.6175732E2,5.629852E2,8.6773346E1,2.1965254E2,1.5389108E2,0E0,0E0,8.99239E2,4.847091E2,3.210434E1,0E0,5.050007E1,0E0,1.4670134E1,7.271912E1,3.886151E2,7.820135E2,1.6902795E2,2.4019783E2,6.484952E0,2.5980377E1,0E0,0E0,0E0,0E0,0E0,0E0,0E0,0E0,0E0,0E0,0E0,0E0,0E0,0E0,0E0,0E0,0E0,0E0],"parents":[2147483647,0,0,1,1,2,2,3,3,4,4,5,5,6,6,7,7,8,8,11,11,12,12,13,13,15,15,17,17,18,18,19,19,20,20,21,21,22,22,23,23,24,24],"right_children":[2,4,6,8,10,12,14,16,18,-1,-1,20,22,24,-1,26,-1,28,30,32,34,36,38,40,42,-1,-1,-1,-1,-1,-1,-1,-1,-1,-1,-1,-1,-1,-1,-1,-1,-1,-1],"split_conditions":[1.93E2,2.71E2,3.47E2,5E0,1E0,2.87E2,1.41E2,1.87673E5,1.46E2,2.3791543E-1,1.9169886E0,8E0,1.61E2,1E0,9.4890136E-1,9.961E3,-1.056825E0,6E0,5E0,2.83E2,1.94E2,6.3658E4,1.94E2,3.49E2,5E0,-4.0890923E-1,1.3296257E-1,-3.343567E-1,3.393885E-2,2.7754498E-1,7.466084E-1,-5.902065E-1,-4.1276626E-2,-3.087274E-1,3.3336586E-1,-8.634405E-1,-2.8227508E-1,-6.780855E-1,9.020332E-2,2.1938133E-1,-9.993744E-3,5.3787E-1,-6.3827517E-3],"split_indices":[4,1,1,2,2,4,2,7,1,0,0,2,2,6,0,7,0,0,0,1,1,7,1,1,3,0,0,0,0,0,0,0,0,0,0,0,0,0,0,0,0,0,0],"split_type":[0,0,0,0,0,0,0,0,0,0,0,0,0,0,0,0,0,0,0,0,0,0,0,0,0,0,0,0,0,0,0,0,0,0,0,0,0,0,0,0,0,0,0],"sum_hessian":[2.57E2,4E1,2.17E2,3.5E1,5E0,2.04E2,1.3E1,1.4E1,2.1E1,1E0,4E0,1.54E2,5E1,1E1,3E0,1.3E1,1E0,3E0,1.8E1,5.1E1,1.03E2,2.5E1,2.5E1,4E0,6E0,1E0,1.2E1,1E0,2E0,7E0,1.1E1,2.6E1,2.5E1,2.4E1,7.9E1,1.6E1,9E0,4E0,2.1E1,1E0,3E0,5E0,1E0],"tree_param":{"num_deleted":"0","num_feature":"11","num_nodes":"43","size_leaf_vector":"1"}},{"base_weights":[3.4932652E-1,3.046735E0,-7.938041E-1,1.689682E0,1.4540106E1,-2.0133388E0,1.8481896E0,-1.3729386E0,4.458315E0,9.3762845E-1,2.0021048E0,-5.032961E0,-8.755073E-1,5.3809133E0,-8.037599E-1,-3.4354706E0,1.8189265E0,-4.3774734E0,5.9757032E0,-7.2168007E0,-2.4246037E0,-2.7370398E0,2.2343328E0,7.673732E-1,1.0314967E1,-1.9191473E0,6.0493165E-1,-4.20504E-1,2.583626E-1,4.1598853E-1,5.6184134E-3,-6.803784E-1,3.1676482E-2,3.7855014E-1,8.521283E-1,-8.306737E-1,-1.3253403E-1,-5.024831E-1,4.450243E-2,-3.9758214E-1,2.3429416E-1,3.8060918E-1,-3.9516967E-2,3.6801243E-1,-2.67111E-1,1.2198516E0,3.4982416E-1,-4.5690915E-1,3.7605062E-2],"categories":[],"categories_nodes":[],"categories_segments":[],"categories_sizes":[],"default_left":[0,0,0,0,0,0,0,0,0,0,0,0,0,0,0,0,0,0,0,0,0,0,0,0,0,0,0,0,0,0,0,0,0,0,0,0,0,0,0,0,0,0,0,0,0,0,0,0,0],"id":33,"left_children":[1,3,5,7,9,11,13,15,17,-1,-1,19,21,23,25,27,29,31,33,35,37,39,41,43,45,47,-1,-1,-1,-1,-1,-1,-1,-1,-1,-1,-1,-1,-1,-1,-1,-1,-1,-1,-1,-1,-1,-1,-1],"loss_changes":[7.9795905E2,1.1764094E3,5.9012555E2,5.9967004E2,3.8697754E1,4.2507132E2,5.4770404E2,2.3008185E2,5.2222925E2,0E0,0E0,1.7617413E2,5.387097E2,5.611709E2,2.714999E2,1.08138626E2,5.7537388E1,7.049327E1,1.4615332E2,1.045744E2,1.2908484E2,3.7430844E2,1.461571E2,1.5004625E2,1.1140234E2,1.8418259E2,0E0,0E0,0E0,0E0,0E0,0E0,0E0,0E0,0E0,0E0,0E0,0E0,0E0,0E0,0E0,0E0,0E0,0E0,0E0,0E0,0E0,0E0,0E0],"parents":[2147483647,0,0,1,1,2,2,3,3,4,4,5,5,6,6,7,7,8,8,11,11,12,12,13,13,14,14,15,15,16,16,17,17,18,18,19,19,20,20,21,21,22,22,23,23,24,24,25,25],"right_children":[2,4,6,8,10,12,14,16,18,-1,-1,20,22,24,26,28,30,32,34,36,38,40,42,44,46,48,-1,-1,-1,-1,-1,-1,-1,-1,-1,-1,-1,-1,-1,-1,-1,-1,-1,-1,-1,-1,-1,-1,-1],"split_conditions":[2.14E2,2.85E2,1.42E2,2E1,3.05E2,2.47E2,2.87E2,2.55E2,1.46E2,9.3762845E-1,2.0021048E0,3E0,2E1,2.01E2,2.73E2,2E0,1.93E2,2E0,2.18E2,1.7994E5,1E0,3.34E2,1E0,2.54E2,6.7646E4,2E0,6.0493165E-1,-4.20504E-1,2.583626E-1,4.1598853E-1,5.6184134E-3,-6.803784E-1,3.1676482E-2,3.7855014E-1,8.521283E-1,-8.306737E-1,-1.3253403E-1,-5.024831E-1,4.450243E-2,-3.9758214E-1,2.3429416E-1,3.8060918E-1,-3.9516967E-2,3.6801243E-1,-2.67111E-1,1.2198516E0,3.4982416E-1,-4.5690915E-1,3.7605062E-2],"split_indices":[4,1,2,2,1,1,4,1,1,0,0,8,2,1,1,3,4,3,1,7,3,1,5,4,7,8,0,0,0,0,0,0,0,0,0,0,0,0,0,0,0,0,0,0,0,0,0,0,0],"split_type":[0,0,0,0,0,0,0,0,0,0,0,0,0,0,0,0,0,0,0,0,0,0,0,0,0,0,0,0,0,0,0,0,0,0,0,0,0,0,0,0,0,0,0,0,0,0,0,0,0],"sum_hessian":[2.57E2,7.6E1,1.81E2,6.9E1,7E0,1.24E2,5.7E1,3.3E1,3.6E1,5E0,2E0,3.3E1,9.1E1,2.4E1,3.3E1,2E1,1.3E1,5E0,3.1E1,1.7E1,1.6E1,5.7E1,3.4E1,1.3E1,1.1E1,2.9E1,4E0,1.8E1,2E0,5E0,8E0,3E0,2E0,1.8E1,1.3E1,1.4E1,3E0,8E0,8E0,4.6E1,1.1E1,2.1E1,1.3E1,7E0,6E0,8E0,3E0,1.3E1,1.6E1],"tree_param":{"num_deleted":"0","num_feature":"11","num_nodes":"49","size_leaf_vector":"1"}},{"base_weights":[3.3142546E-1,4.0422463E0,-3.6800152E-1,2.1715477E0,1.4592731E1,-6.7186147E-1,5.411169E0,-6.307088E-1,3.9834702E0,2.0522042E-1,1.6690396E0,3.442721E-1,-2.6800144E0,2.5169492E0,1.2290105E0,7.284671E-1,-9.829586E-1,-1.1963634E0,4.864305E0,-6.4386964E-1,4.1145983E0,-3.6489866E0,3.4987175E0,3.7291546E0,-3.5903475E-1,-3.6743852E-1,1.3497931E-1,-2.836197E-1,2.9564667E-2,2.1374913E-1,6.2768227E-1,-4.2584583E-1,1.07677594E-1,7.241112E-1,-2.904264E-2,-9.023444E-1,-2.5452644E-1,4.6369395E-1,6.321497E-2,-8.309581E-2,5.3876853E-1],"categories":[],"categories_nodes":[],"categories_segments":[],"categories_sizes":[],"default_left":[0,0,0,0,0,0,0,0,0,0,0,0,0,0,0,0,0,0,0,0,0,0,0,0,0,0,0,0,0,0,0,0,0,0,0,0,0,0,0,0,0],"id":34,"left_children":[1,3,5,7,9,11,13,15,17,-1,-1,19,21,23,-1,25,-1,27,29,31,33,35,37,39,-1,-1,-1,-1,-1,-1,-1,-1,-1,-1,-1,-1,-1,-1,-1,-1,-1],"loss_changes":[6.711132E2,7.775192E2,3.8645633E2,1.8530142E2,1.2358276E2,4.2535742E2,1.8806708E2,1.9470392E2,1.061962E2,0E0,0E0,5.2051E2,4.318581E2,8.001865E1,0E0,4.3258144E1,0E0,1.0625105E1,5.9765106E1,6.9494165E2,4.0150162E2,3.388794E2,2.9696663E1,6.498162E1,0E0,0E0,0E0,0E0,0E0,0E0,0E0,0E0,0E0,0E0,0E0,0E0,0E0,0E0,0E0,0E0,0E0],"parents":[2147483647,0,0,1,1,2,2,3,3,4,4,5,5,6,6,7,7,8,8,11,11,12,12,13,13,15,15,17,17,18,18,19,19,20,20,21,21,22,22,23,23],"right_children":[2,4,6,8,10,12,14,16,18,-1,-1,20,22,24,-1,26,-1,28,30,32,34,36,38,40,-1,-1,-1,-1,-1,-1,-1,-1,-1,-1,-1,-1,-1,-1,-1,-1,-1],"split_conditions":[1.93E2,2.71E2,1.92E2,5E0,1E0,2.79E2,4E0,1.87673E5,1.46E2,2.0522042E-1,1.6690396E0,2.96E2,3.33E2,2.2E2,1.2290105E0,9.961E3,-9.829586E-1,6E0,5E0,1.4E1,2.55E2,1.8E1,2E0,1.5E2,-3.5903475E-1,-3.6743852E-1,1.3497931E-1,-2.836197E-1,2.9564667E-2,2.1374913E-1,6.2768227E-1,-4.2584583E-1,1.07677594E-1,7.241112E-1,-2.904264E-2,-9.023444E-1,-2.5452644E-1,4.6369395E-1,6.321497E-2,-8.309581E-2,5.3876853E-1],"split_indices":[4,1,2,2,2,4,3,7,1,0,0,1,1,2,0,7,0,0,0,2,4,2,6,1,0,0,0,0,0,0,0,0,0,0,0,0,0,0,0,0,0],"split_type":[0,0,0,0,0,0,0,0,0,0,0,0,0,0,0,0,0,0,0,0,0,0,0,0,0,0,0,0,0,0,0,0,0,0,0,0,0,0,0,0,0],"sum_hessian":[2.57E2,4E1,2.17E2,3.5E1,5E0,2.07E2,1E1,1.4E1,2.1E1,1E0,4E0,1.38E2,6.9E1,8E0,2E0,1.3E1,1E0,3E0,1.8E1,1.1E2,2.8E1,6E1,9E0,7E0,1E0,1E0,1.2E1,1E0,2E0,7E0,1.1E1,3.5E1,7.5E1,1.6E1,1.2E1,9E0,5.1E1,6E0,3E0,2E0,5E0],"tree_param":{"num_deleted":"0","num_feature":"11","num_nodes":"41","size_leaf_vector":"1"}},{"base_weights":[3.072695E-1,-6.807588E-1,2.6386187E0,1.1026136E0,-2.1541502E0,1.3353895E0,1.0336595E1,-6.0076404E-1,4.8600473E0,-6.487614E0,-1.251495E0,3.0697649E0,-2.6098976E0,1.3481717E1,5.468706E-1,-2.900821E0,3.294821E0,9.7130644E-1,8.123876E0,-6.83745E0,-4.451218E-2,-2.3161442E0,1.6728419E0,-4.5418495E-1,5.69692E0,-6.714058E0,-5.2062964E-1,7.10265E-1,1.7493235E0,-1.3230222E-1,-5.398418E-1,5.081638E-1,-4.673133E-2,-4.561325E-1,1.8124695E-1,1.1770328E0,4.7902536E-1,-1.356123E-1,-7.112464E-1,-3.4742534E-1,1.5442146E-1,4.922931E-1,-2.3202486E-1,1.5138862E-1,-2.770452E-1,4.7761813E-1,1.147077E0,-7.7141136E-1,-3.5686113E-2,1.7460153E-1,-7.190407E-1],"categories":[],"categories_nodes":[],"categories_segments":[],"categories_sizes":[],"default_left":[0,0,0,0,0,0,0,0,0,0,0,0,0,0,0,0,0,0,0,0,0,0,0,0,0,0,0,0,0,0,0,0,0,0,0,0,0,0,0,0,0,0,0,0,0,0,0,0,0,0,0],"id":35,"left_children":[1,3,5,7,9,11,13,15,17,19,21,23,25,27,-1,29,31,33,35,37,-1,39,41,43,45,47,49,-1,-1,-1,-1,-1,-1,-1,-1,-1,-1,-1,-1,-1,-1,-1,-1,-1,-1,-1,-1,-1,-1,-1,-1],"loss_changes":[5.9608356E2,4.8059937E2,7.58678E2,5.341471E2,3.8304315E2,4.6646655E2,9.468359E1,5.292416E2,3.221059E2,3.2892456E1,2.653996E2,4.3771167E2,1.7657297E2,2.9290161E1,0E0,1.3866385E2,1.502641E2,6.876725E1,1.1379968E2,1.4473633E1,0E0,2.8254944E2,3.0991412E2,9.992428E1,8.875104E1,4.175E1,2.393248E2,0E0,0E0,0E0,0E0,0E0,0E0,0E0,0E0,0E0,0E0,0E0,0E0,0E0,0E0,0E0,0E0,0E0,0E0,0E0,0E0,0E0,0E0,0E0,0E0],"parents":[2147483647,0,0,1,1,2,2,3,3,4,4,5,5,6,6,7,7,8,8,9,9,10,10,11,11,12,12,13,13,15,15,16,16,17,17,18,18,19,19,21,21,22,22,23,23,24,24,25,25,26,26],"right_children":[2,4,6,8,10,12,14,16,18,20,22,24,26,28,-1,30,32,34,36,38,-1,40,42,44,46,48,50,-1,-1,-1,-1,-1,-1,-1,-1,-1,-1,-1,-1,-1,-1,-1,-1,-1,-1,-1,-1,-1,-1,-1,-1],"split_conditions":[1.43E2,2.35E2,2.81E2,2.9E1,2.17E2,3.13E2,2.41E2,2.66E2,2.15E2,8E0,1.13E2,1.96E2,2.18E2,3.05E2,5.468706E-1,2.04E2,2E0,1.41E2,2.02E2,2.39E2,-4.451218E-2,3.31E2,2.82E2,2.46E2,1.84E2,5E0,3.56E2,7.10265E-1,1.7493235E0,-1.3230222E-1,-5.398418E-1,5.081638E-1,-4.673133E-2,-4.561325E-1,1.8124695E-1,1.1770328E0,4.7902536E-1,-1.356123E-1,-7.112464E-1,-3.4742534E-1,1.5442146E-1,4.922931E-1,-2.3202486E-1,1.5138862E-1,-2.770452E-1,4.7761813E-1,1.147077E0,-7.7141136E-1,-3.5686113E-2,1.7460153E-1,-7.190407E-1],"split_indices":[2,4,1,2,1,4,4,1,1,8,2,1,1,1,0,4,3,1,4,4,0,1,4,4,2,0,4,0,0,0,0,0,0,0,0,0,0,0,0,0,0,0,0,0,0,0,0,0,0,0,0],"split_type":[0,0,0,0,0,0,0,0,0,0,0,0,0,0,0,0,0,0,0,0,0,0,0,0,0,0,0,0,0,0,0,0,0,0,0,0,0,0,0,0,0,0,0,0,0,0,0,0,0,0,0],"sum_hessian":[2.57E2,1.81E2,7.6E1,8.2E1,9.9E1,6.6E1,1E1,5.7E1,2.5E1,1.6E1,8.3E1,4.6E1,2E1,5E0,5E0,3.6E1,2.1E1,1.2E1,1.3E1,1.5E1,1E0,6.1E1,2.2E1,2E1,2.6E1,6E0,1.4E1,3E0,2E0,2.3E1,1.3E1,1.4E1,7E0,1E0,1.1E1,5E0,8E0,1E0,1.4E1,4.7E1,1.4E1,1.2E1,1E1,1.1E1,9E0,2.4E1,2E0,5E0,1E0,1.1E1,3E0],"tree_param":{"num_deleted":"0","num_feature":"11","num_nodes":"51","size_leaf_vector":"1"}},{"base_weights":[2.9010972E-1,2.425402E0,-6.148771E-1,9.263419E-1,9.734132E0,-1.6192409E0,1.5603015E0,-1.462146E0,2.8910167E0,6.8304935E0,1.7136096E0,-4.194611E0,-6.498732E-1,1.1267729E0,8.259376E-1,-4.181172E0,3.3208868E-1,-4.0762E0,4.1462517E0,7.857401E0,1.472941E0,-6.2291784E0,-1.7936218E0,-2.9094987E0,1.2237375E0,9.457703E0,3.2176346E-1,-1.23413086E-1,-6.922525E-1,1.5204279E-1,-1.9222686E-1,-6.2380946E-1,1.650594E-2,7.679247E-1,3.1714737E-1,8.6051714E-1,9.3761824E-2,1.0470581E-2,2.1047059E-1,-8.160853E-1,-3.3907428E-1,-3.5679543E-1,6.484967E-2,-5.245675E-1,1.9459171E-2,2.9954776E-1,-1.2478962E-1,1.1922349E0,2.264206E-1,8.292195E-2,-6.101878E-1],"categories":[],"categories_nodes":[],"categories_segments":[],"categories_sizes":[],"default_left":[0,0,0,0,0,0,0,0,0,0,0,0,0,0,0,0,0,0,0,0,0,0,0,0,0,0,0,0,0,0,0,0,0,0,0,0,0,0,0,0,0,0,0,0,0,0,0,0,0,0,0],"id":36,"left_children":[1,3,5,7,9,11,13,15,17,19,-1,21,23,-1,25,27,29,31,33,35,37,39,41,43,45,47,49,-1,-1,-1,-1,-1,-1,-1,-1,-1,-1,-1,-1,-1,-1,-1,-1,-1,-1,-1,-1,-1,-1,-1,-1],"loss_changes":[5.000534E2,8.346121E2,4.0013654E2,3.0924625E2,1.623562E2,3.093342E2,4.0416302E2,1.4774564E2,3.317387E2,4.8945312E1,0E0,1.5491638E2,3.9305707E2,0E0,2.3631209E2,8.8403275E1,5.3822556E1,5.6044594E1,8.2406006E1,3.8501343E1,2.3728337E0,7.102142E1,7.597702E1,3.0559225E2,2.2707178E2,2.6193604E1,1.7782474E2,0E0,0E0,0E0,0E0,0E0,0E0,0E0,0E0,0E0,0E0,0E0,0E0,0E0,0E0,0E0,0E0,0E0,0E0,0E0,0E0,0E0,0E0,0E0,0E0],"parents":[2147483647,0,0,1,1,2,2,3,3,4,4,5,5,6,6,7,7,8,8,9,9,11,11,12,12,14,14,15,15,16,16,17,17,18,18,19,19,20,20,21,21,22,22,23,23,24,24,25,25,26,26],"right_children":[2,4,6,8,10,12,14,16,18,20,-1,22,24,